{"learner":{"attributes":{"scikit_learn":"{\"_estimator_type\": \"regressor\"}"},"feature_names":[],"feature_types":[],"gradient_booster":{"model":{"cats":{"enc":[],"feature_segments":[],"sorted_idx":[]},"gbtree_model_param":{"num_parallel_tree":"1","num_trees":"100"},"iteration_indptr":[0,1,2,3,4,5,6,7,8,9,10,11,12,13,14,15,16,17,18,19,20,21,22,23,24,25,26,27,28,29,30,31,32,33,34,35,36,37,38,39,40,41,42,43,44,45,46,47,48,49,50,51,52,53,54,55,56,57,58,59,60,61,62,63,64,65,66,67,68,69,70,71,72,73,74,75,76,77,78,79,80,81,82,83,84,85,86,87,88,89,90,91,92,93,94,95,96,97,98,99,100],"tree_info":[0,0,0,0,0,0,0,0,0,0,0,0,0,0,0,0,0,0,0,0,0,0,0,0,0,0,0,0,0,0,0,0,0,0,0,0,0,0,0,0,0,0,0,0,0,0,0,0,0,0,0,0,0,0,0,0,0,0,0,0,0,0,0,0,0,0,0,0,0,0,0,0,0,0,0,0,0,0,0,0,0,0,0,0,0,0,0,0,0,0,0,0,0,0,0,0,0,0,0,0],"trees":[{"base_weights":[1.5942868E-10,-8.602354E-3,2.2403095E-3,-1.0714353E-2,1.1554737E-2,1.5547925E-3,4.1547686E-2,-1.7871639E-2,-4.4340673E-3,1.1811043E-1,6.0240487E-3,9.8053925E-3,-1.1540616E-3,-9.04887E-2,4.2804662E-2,-3.1688005E-2,-9.183478E-3,-4.2658024E-3,-1.4637405E-1,7.871348E-2,3.826444E-1,4.9798796E-3,1.9227435E-1,6.112858E-2,8.639127E-3,-4.194823E-3,2.452215E-3,-1.12194985E-1,4.5556523E-2,-2.4742479E-2,-8.341678E-2,6.5826625E-4,-1.7101781E-2,6.221862E-2,-5.460645E-3,5.042482E-2,1.17428035E-1,1.9824378E-1,8.815131E-3,1.3803244E-1,3.979505E-3,-4.9311905E-3,9.022185E-2,8.4025644E-2,1.4597958E-2,1.30370185E-2,2.6754038E-3,-3.6700957E-3,-3.1173563E-2,1.0242587E-2,2.9902437E-4,1.3557767E-2,-1.4219229E-1,5.1009893E-2,-9.939581E-3,-9.721552E-3,-2.698292E-3,-6.734651E-2,-1.2045346E-2,1.2836533E-3,-1.4271938E-2,-7.7475444E-3,2.6659851E-3,1.2946522E-2,9.4431974E-2,-1.687446E-3,6.857442E-2,6.2405127E-3,5.767119E-2,5.5656774E-6,5.2807303E-3,4.67103E-3,7.698068E-2,1.7334785E-2,5.3323584E-4,1.9593831E-2,6.761002E-2,-7.727835E-2,6.3176323E-3,9.823865E-2,3.865451E-3,7.577547E-4,1.0440183E-1,-4.163202E-4,-2.3506181E-3,-4.9966127E-2,-8.018424E-3,1.1603977E-2,2.4558376E-3,-9.144396E-3,4.2150612E-4,-6.352056E-2,-1.1208059E-2,9.9973105E-2,1.4919331E-2,-5.2251115E-2,7.958235E-4],"categories":[],"categories_nodes":[],"categories_segments":[],"categories_sizes":[],"default_left":[0,0,0,0,0,0,0,0,0,0,0,0,0,0,0,0,0,0,0,0,0,0,0,0,0,0,0,0,0,0,0,0,0,0,0,0,0,0,0,0,0,0,0,0,0,0,0,0,0,0,0,0,0,0,0,0,0,0,0,0,0,0,0,0,0,0,0,0,0,0,0,0,0,0,0,0,0,0,0,0,0,0,0,0,0,0,0,0,0,0,0,0,0,0,0,0,0],"id":0,"left_children":[1,3,5,7,9,11,13,15,17,19,21,23,25,-1,27,29,31,33,-1,35,37,39,41,43,45,47,49,51,53,55,57,59,61,63,65,67,-1,-1,69,71,73,-1,-1,75,77,79,81,83,85,87,89,-1,91,93,95,-1,-1,-1,-1,-1,-1,-1,-1,-1,-1,-1,-1,-1,-1,-1,-1,-1,-1,-1,-1,-1,-1,-1,-1,-1,-1,-1,-1,-1,-1,-1,-1,-1,-1,-1,-1,-1,-1,-1,-1,-1,-1],"loss_changes":[1.1167507E0,5.098356E-1,1.238745E0,4.8708677E-1,6.687632E-1,1.0099261E0,3.5282636E-1,6.077057E-1,4.676485E-1,5.535035E-1,2.092719E-1,6.680088E-1,3.7305674E-1,0E0,3.4036994E-1,7.003355E-1,2.4245125E-1,4.5893764E-1,0E0,4.2257428E-1,7.2208655E-1,1.4266887E-1,1.40771E-1,2.6299632E-1,2.8642523E-1,2.6117176E-1,2.6105314E-1,7.252285E-2,2.344482E-1,2.0787024E-1,1.4009069E0,2.4258377E-1,3.9107108E-1,4.7750384E-1,2.192257E-1,1.9344467E-1,0E0,0E0,3.0886626E-4,1.1216737E-1,1.265495E-1,0E0,0E0,4.243338E-1,1.5138721E-1,2.9656506E-1,2.3860307E-1,1.7211774E-1,2.0739272E-1,1.9676197E-1,4.1516232E-1,0E0,7.957347E-2,2.3751378E-1,1.4522535E-1,0E0,0E0,0E0,0E0,0E0,0E0,0E0,0E0,0E0,0E0,0E0,0E0,0E0,0E0,0E0,0E0,0E0,0E0,0E0,0E0,0E0,0E0,0E0,0E0,0E0,0E0,0E0,0E0,0E0,0E0,0E0,0E0,0E0,0E0,0E0,0E0,0E0,0E0,0E0,0E0,0E0,0E0],"parents":[2147483647,0,0,1,1,2,2,3,3,4,4,5,5,6,6,7,7,8,8,9,9,10,10,11,11,12,12,14,14,15,15,16,16,17,17,19,19,20,20,21,21,22,22,23,23,24,24,25,25,26,26,27,27,28,28,29,29,30,30,31,31,32,32,33,33,34,34,35,35,38,38,39,39,40,40,43,43,44,44,45,45,46,46,47,47,48,48,49,49,50,50,52,52,53,53,54,54],"right_children":[2,4,6,8,10,12,14,16,18,20,22,24,26,-1,28,30,32,34,-1,36,38,40,42,44,46,48,50,52,54,56,58,60,62,64,66,68,-1,-1,70,72,74,-1,-1,76,78,80,82,84,86,88,90,-1,92,94,96,-1,-1,-1,-1,-1,-1,-1,-1,-1,-1,-1,-1,-1,-1,-1,-1,-1,-1,-1,-1,-1,-1,-1,-1,-1,-1,-1,-1,-1,-1,-1,-1,-1,-1,-1,-1,-1,-1,-1,-1,-1,-1],"split_conditions":[-1.03456765E-1,1.9317726E-2,2.7450287E0,-9.8747647E-1,-7.2523946E-1,-4.4401398E-1,-2.9843009E0,-4.7591813E-2,2.9247339E0,7.7552944E-1,5.231355E0,-7.08725E-1,-6.260706E-2,-9.04887E-2,-5.835785E-1,-9.90659E-1,-8.0842614E-2,-6.83142E-1,-1.4637405E-1,-6.240186E-1,-7.6092446E-1,-4.275232E-1,7.4789524E-2,-6.8335855E-1,-2.445068E-2,4.8244077E-1,-6.9926925E-2,1.4828329E-1,8.4067976E-1,2.2286195E-1,-1.4511904E-1,1.7589766E0,9.791543E-1,-3.1341705E-2,6.991004E0,-2.0373206E-1,1.17428035E-1,1.9824378E-1,2.9082638E-1,-4.6006668E-1,-6.532842E-1,-4.9311905E-3,9.022185E-2,-5.1400214E-1,-1.199454E0,-6.260426E-1,3.4717062E0,-1.2163277E-1,-1.9189657E0,-2.8924546E-1,-1.5445133E-1,1.3557767E-2,1.3648604E0,-9.8929174E-2,-8.48698E-2,-9.721552E-3,-2.698292E-3,-6.734651E-2,-1.2045346E-2,1.2836533E-3,-1.4271938E-2,-7.7475444E-3,2.6659851E-3,1.2946522E-2,9.4431974E-2,-1.687446E-3,6.857442E-2,6.2405127E-3,5.767119E-2,5.5656774E-6,5.2807303E-3,4.67103E-3,7.698068E-2,1.7334785E-2,5.3323584E-4,1.9593831E-2,6.761002E-2,-7.727835E-2,6.3176323E-3,9.823865E-2,3.865451E-3,7.577547E-4,1.0440183E-1,-4.163202E-4,-2.3506181E-3,-4.9966127E-2,-8.018424E-3,1.1603977E-2,2.4558376E-3,-9.144396E-3,4.2150612E-4,-6.352056E-2,-1.1208059E-2,9.9973105E-2,1.4919331E-2,-5.2251115E-2,7.958235E-4],"split_indices":[17,9,4,13,22,23,12,2,6,16,2,23,4,0,14,13,8,23,0,23,22,8,8,22,20,23,24,22,16,12,8,19,4,9,2,10,0,0,8,22,23,0,0,4,4,14,2,10,20,22,12,0,20,17,17,0,0,0,0,0,0,0,0,0,0,0,0,0,0,0,0,0,0,0,0,0,0,0,0,0,0,0,0,0,0,0,0,0,0,0,0,0,0,0,0,0,0],"split_type":[0,0,0,0,0,0,0,0,0,0,0,0,0,0,0,0,0,0,0,0,0,0,0,0,0,0,0,0,0,0,0,0,0,0,0,0,0,0,0,0,0,0,0,0,0,0,0,0,0,0,0,0,0,0,0,0,0,0,0,0,0,0,0,0,0,0,0,0,0,0,0,0,0,0,0,0,0,0,0,0,0,0,0,0,0,0,0,0,0,0,0,0,0,0,0,0,0],"sum_hessian":[5.7945E4,1.1972E4,4.5973E4,1.0837E4,1.135E3,4.5186E4,7.87E2,5.064E3,5.773E3,5.5E1,1.08E3,1.1168E4,3.4018E4,2E0,7.85E2,1.954E3,3.11E3,5.772E3,1E0,4.9E1,6E0,1.075E3,5E0,2.47E2,1.0921E4,1.8456E4,1.5562E4,1.3E1,7.72E2,1.724E3,2.3E2,1.387E3,1.723E3,1.01E2,5.671E3,4.6E1,3E0,3E0,3E0,7E0,1.068E3,2E0,3E0,1.65E2,8.2E1,6.285E3,4.636E3,1.8105E4,3.51E2,3.369E3,1.2193E4,2E0,1.1E1,7.03E2,6.9E1,1.159E3,5.65E2,5.3E1,1.77E2,1.291E3,9.6E1,1.29E3,4.33E2,9.5E1,6E0,5.668E3,3E0,3.9E1,7E0,2E0,1E0,4E0,3E0,4.1E1,1.027E3,1.47E2,1.8E1,1E0,8.1E1,2E0,6.283E3,4.635E3,1E0,1.1697E4,6.408E3,1E1,3.41E2,2.26E2,3.143E3,4.22E2,1.1771E4,6E0,5E0,2E0,7.01E2,4E0,6.5E1],"tree_param":{"num_deleted":"0","num_feature":"25","num_nodes":"97","size_leaf_vector":"1"}},{"base_weights":[9.794128E-6,-1.2651305E-3,7.7874428E-3,4.4993595E-3,-3.54491E-3,3.293804E-2,6.659627E-3,-4.154447E-2,5.5060033E-3,-9.16321E-3,-1.9977675E-3,2.9944753E-2,1.995624E-1,-9.913937E-3,8.364239E-3,6.767421E-2,-5.4287843E-2,1.5172277E-2,3.5980835E-3,-1.4193086E-2,-3.5624413E-3,-1.16538525E-1,-1.948544E-3,8.9352585E-2,2.0735737E-2,1.792023E-2,8.577103E-2,2.4708603E-2,-5.0260358E-2,7.903044E-3,1.2861402E-1,2.5524132E-2,1.06903136E-1,-1.0885848E-2,-7.616948E-2,4.0620204E-2,1.02268625E-2,3.4714756E-3,2.1158898E-1,-1.3779387E-2,-2.912818E-1,4.841252E-2,-4.593387E-3,-2.3634703E-1,9.84628E-2,1.6614092E-3,-3.4720968E-3,1.5686943E-1,-2.4388589E-2,1.6451174E-2,1.14060216E-1,-5.4605724E-3,1.3524677E-2,4.549027E-2,7.2917324E-3,-4.6277206E-2,-1.11086555E-1,5.1300768E-2,6.946861E-3,8.0617E-2,1.4571539E-1,4.465672E-2,-3.936396E-3,2.2202362E-3,-3.1575188E-2,-3.7098307E-2,-9.997877E-3,1.0996082E-2,7.232417E-2,3.360134E-3,-2.96015E-2,-3.1128705E-3,1.4949836E-3,1.18941836E-1,1.7502269E-2,-3.8756877E-3,-3.204646E-2,-1.6615264E-1,-6.4623277E-3,1.775511E-2,-1.0583547E-1,-1.9720617E-1,-1.1583993E-3,-1.2223811E-2,-1.2652846E-1,1.8951382E-3,7.0056826E-2,3.8679063E-3,-1.5817814E-5,-2.2233366E-3,5.469717E-5,1.9825084E-2,9.682624E-2,-2.2730235E-2,1.4791776E-2,-6.499328E-3,7.364905E-3,3.915468E-2,-1.2510634E-2,2.35075E-2,-5.8125416E-3,-1.8855006E-2,8.186649E-3,-4.6432402E-2,-1.1882154E-2,5.9983176E-3,3.0092767E-2,-3.2159332E-3,2.699442E-3,2.2648673E-3,4.4244945E-2],"categories":[],"categories_nodes":[],"categories_segments":[],"categories_sizes":[],"default_left":[0,0,0,0,0,0,0,0,0,0,0,0,0,0,0,0,0,0,0,0,0,0,0,0,0,0,0,0,0,0,0,0,0,0,0,0,0,0,0,0,0,0,0,0,0,0,0,0,0,0,0,0,0,0,0,0,0,0,0,0,0,0,0,0,0,0,0,0,0,0,0,0,0,0,0,0,0,0,0,0,0,0,0,0,0,0,0,0,0,0,0,0,0,0,0,0,0,0,0,0,0,0,0,0,0,0,0,0,0,0,0],"id":1,"left_children":[1,3,5,7,9,11,13,15,17,19,21,23,25,27,29,31,33,35,37,39,41,43,45,47,49,51,-1,53,55,57,59,61,-1,63,65,67,69,71,73,75,77,79,81,83,85,87,89,91,93,95,97,-1,-1,99,101,103,-1,105,107,109,-1,-1,-1,-1,-1,-1,-1,-1,-1,-1,-1,-1,-1,-1,-1,-1,-1,-1,-1,-1,-1,-1,-1,-1,-1,-1,-1,-1,-1,-1,-1,-1,-1,-1,-1,-1,-1,-1,-1,-1,-1,-1,-1,-1,-1,-1,-1,-1,-1,-1,-1],"loss_changes":[5.7459754E-1,6.54292E-1,2.3126939E-1,6.542232E-1,3.1009725E-1,1.6858825E-1,2.2078356E-1,4.240018E-1,2.546175E-1,2.1695203E-1,1.5749879E-1,1.8689248E-1,8.897555E-2,1.0195787E0,3.918516E-1,3.802629E-1,2.5654137E-1,2.860204E-1,3.0299333E-1,4.6116108E-1,1.9558723E-1,3.3237922E-1,1.5380648E-1,3.570803E-1,1.1807993E-1,3.7640338E-3,0E0,1.4191528E-1,4.1244495E-1,2.925236E-1,4.236209E-1,1.4017314E-1,0E0,1.5953545E-1,3.6212313E-1,2.8536767E-1,2.0328891E-1,2.413905E-1,1.7520103E-1,3.230871E-1,4.13009E-1,3.276962E-1,1.7062787E0,2.7295294E-1,6.075075E-2,1.5979643E-1,2.830761E-1,4.1541058E-1,7.188991E-2,8.943153E-2,3.876342E-2,0E0,0E0,3.8314632E-1,3.032808E-1,2.3557931E-1,0E0,2.3120451E-1,2.504006E-1,1.2103002E-1,0E0,0E0,0E0,0E0,0E0,0E0,0E0,0E0,0E0,0E0,0E0,0E0,0E0,0E0,0E0,0E0,0E0,0E0,0E0,0E0,0E0,0E0,0E0,0E0,0E0,0E0,0E0,0E0,0E0,0E0,0E0,0E0,0E0,0E0,0E0,0E0,0E0,0E0,0E0,0E0,0E0,0E0,0E0,0E0,0E0,0E0,0E0,0E0,0E0,0E0,0E0],"parents":[2147483647,0,0,1,1,2,2,3,3,4,4,5,5,6,6,7,7,8,8,9,9,10,10,11,11,12,12,13,13,14,14,15,15,16,16,17,17,18,18,19,19,20,20,21,21,22,22,23,23,24,24,25,25,27,27,28,28,29,29,30,30,31,31,33,33,34,34,35,35,36,36,37,37,38,38,39,39,40,40,41,41,42,42,43,43,44,44,45,45,46,46,47,47,48,48,49,49,50,50,53,53,54,54,55,55,57,57,58,58,59,59],"right_children":[2,4,6,8,10,12,14,16,18,20,22,24,26,28,30,32,34,36,38,40,42,44,46,48,50,52,-1,54,56,58,60,62,-1,64,66,68,70,72,74,76,78,80,82,84,86,88,90,92,94,96,98,-1,-1,100,102,104,-1,106,108,110,-1,-1,-1,-1,-1,-1,-1,-1,-1,-1,-1,-1,-1,-1,-1,-1,-1,-1,-1,-1,-1,-1,-1,-1,-1,-1,-1,-1,-1,-1,-1,-1,-1,-1,-1,-1,-1,-1,-1,-1,-1,-1,-1,-1,-1,-1,-1,-1,-1,-1,-1],"split_conditions":[8.673504E-1,-4.330189E-1,-4.5489803E-1,-1.4325194E-1,-1.02980174E-1,2.9247339E0,-1.5445133E-1,-2.4321878E-1,-2.2642198E-1,-4.8755437E-1,-3.1398754E0,-2.6069877E0,7.0416963E-1,-6.978562E-2,4.3515306E0,-4.4643378E-1,-9.90659E-1,-7.085853E-1,2.4867415E0,-6.71459E-2,-1.3233639E0,5.154914E-1,-3.2561886E-1,-1.9150071E-1,-1.14815414E-1,9.509421E-1,8.577103E-2,1.5089166E0,3.42459E0,-3.8502745E-2,5.5850637E-1,-7.085853E-1,1.06903136E-1,-9.927584E-1,-7.2193646E-1,-4.781083E-1,-2.6629115E-2,-2.2011514E-1,-3.5935754E-1,9.992699E-3,-1.3262612E0,9.774885E-1,-1.2529496E0,1.7134784E-1,4.1491044E-1,-6.482847E-1,2.0188774E-1,-3.2980728E-1,-7.462314E-2,-1.4137617E0,2.6700313E0,-5.4605724E-3,1.3524677E-2,-6.9805604E-1,-4.175382E-1,-3.9764652E-1,-1.11086555E-1,1.7120571E0,-6.559557E-1,1.893135E0,1.4571539E-1,4.465672E-2,-3.936396E-3,2.2202362E-3,-3.1575188E-2,-3.7098307E-2,-9.997877E-3,1.0996082E-2,7.232417E-2,3.360134E-3,-2.96015E-2,-3.1128705E-3,1.4949836E-3,1.18941836E-1,1.7502269E-2,-3.8756877E-3,-3.204646E-2,-1.6615264E-1,-6.4623277E-3,1.775511E-2,-1.0583547E-1,-1.9720617E-1,-1.1583993E-3,-1.2223811E-2,-1.2652846E-1,1.8951382E-3,7.0056826E-2,3.8679063E-3,-1.5817814E-5,-2.2233366E-3,5.469717E-5,1.9825084E-2,9.682624E-2,-2.2730235E-2,1.4791776E-2,-6.499328E-3,7.364905E-3,3.915468E-2,-1.2510634E-2,2.35075E-2,-5.8125416E-3,-1.8855006E-2,8.186649E-3,-4.6432402E-2,-1.1882154E-2,5.9983176E-3,3.0092767E-2,-3.2159332E-3,2.699442E-3,2.2648673E-3,4.4244945E-2],"split_indices":[4,23,23,17,17,6,12,10,10,20,20,12,1,24,2,22,13,22,12,24,9,8,22,9,22,4,0,4,22,3,5,22,0,20,4,23,22,10,4,10,3,12,9,8,4,9,1,9,17,20,18,0,0,20,9,22,0,2,20,3,0,0,0,0,0,0,0,0,0,0,0,0,0,0,0,0,0,0,0,0,0,0,0,0,0,0,0,0,0,0,0,0,0,0,0,0,0,0,0,0,0,0,0,0,0,0,0,0,0,0,0],"split_type":[0,0,0,0,0,0,0,0,0,0,0,0,0,0,0,0,0,0,0,0,0,0,0,0,0,0,0,0,0,0,0,0,0,0,0,0,0,0,0,0,0,0,0,0,0,0,0,0,0,0,0,0,0,0,0,0,0,0,0,0,0,0,0,0,0,0,0,0,0,0,0,0,0,0,0,0,0,0,0,0,0,0,0,0,0,0,0,0,0,0,0,0,0,0,0,0,0,0,0,0,0,0,0,0,0,0,0,0,0,0,0],"sum_hessian":[5.7945E4,4.9785E4,8.16E3,1.4109E4,3.5676E4,3.49E2,7.811E3,3.01E2,1.3808E4,7.702E3,2.7974E4,3.44E2,5E0,7.28E2,7.083E3,3.1E1,2.7E2,2.275E3,1.1533E4,4.057E3,3.645E3,1.1E1,2.7963E4,4.5E1,2.99E2,2E0,3E0,3.92E2,3.36E2,7.057E3,2.6E1,2.8E1,3E0,9.1E1,1.79E2,3.69E2,1.906E3,1.1527E4,6E0,4.052E3,5E0,7E1,3.575E3,7E0,4E0,8.299E3,1.9664E4,2.8E1,1.7E1,2.87E2,1.2E1,1E0,1E0,1.78E2,2.14E2,3.33E2,3E0,1.51E2,6.906E3,2.4E1,2E0,6E0,2.2E1,7.7E1,1.4E1,8.4E1,9.5E1,3.63E2,6E0,1.89E3,1.6E1,1.134E3,1.0393E4,2E0,4E0,4.016E3,3.6E1,2E0,3E0,6.9E1,1E0,3E0,3.572E3,4E0,3E0,3E0,1E0,1.098E3,7.201E3,9.463E3,1.0201E4,1.9E1,9E0,1E1,7E0,5E1,2.37E2,1.1E1,1E0,1.18E2,6E1,4.7E1,1.67E2,1.8E1,3.15E2,9.3E1,5.8E1,7.18E2,6.188E3,1.2E1,1.2E1],"tree_param":{"num_deleted":"0","num_feature":"25","num_nodes":"111","size_leaf_vector":"1"}},{"base_weights":[6.8293684E-6,-1.7208142E-3,3.9281957E-3,-7.5687845E-3,-6.6004046E-5,2.8604341E-3,1.7781578E-2,-1.2671056E-2,-3.7672435E-4,1.616448E-2,-9.571685E-4,8.329103E-3,2.5777763E-4,-3.7229877E-2,2.1815602E-2,-2.0822225E-2,-3.3251655E-3,6.04884E-3,-8.923584E-3,2.951225E-2,5.24854E-3,-4.7358222E-5,-7.2165644E-3,1.4787813E-1,8.037682E-3,8.5147703E-4,-3.067519E-2,-2.6077759E-2,-1.8343717E-1,5.099222E-2,1.5127469E-2,1.1197527E-2,-2.4042627E-2,2.387776E-3,-4.527427E-2,1.00796156E-1,4.396542E-3,5.488017E-2,-1.0530468E-2,5.0457004E-2,9.435979E-3,3.7184445E-4,5.318844E-2,5.682184E-3,-1.5316501E-3,-6.6469596E-3,-8.902778E-2,-3.0677749E-2,1.404061E-1,8.852626E-3,-2.8430108E-2,9.986104E-4,-1.2290789E-1,1.8185529E-1,-3.5684787E-2,-7.226966E-2,5.6063774E-4,-4.7921367E-2,-9.089376E-2,4.7252085E-2,1.3051225E-1,-8.35989E-2,1.894107E-2,6.0816836E-2,1.9612473E-3,-1.0998068E-2,-5.028013E-3,1.3178276E-2,7.012338E-5,-3.520521E-2,-1.0476369E-2,2.2125926E-2,8.9610726E-2,1.4672437E-3,-4.9884807E-2,-4.417632E-3,4.6757575E-2,-1.5283477E-1,-2.7683214E-3,7.760596E-2,1.3855461E-2,3.3706422E-3,-9.980619E-2,-4.307453E-3,4.7066007E-3,1.3772982E-1,1.2791861E-2,1.7950309E-3,-5.202726E-2,-5.0342646E-3,-2.3991996E-4,-2.2236938E-3,1.5746241E-2,1.0748963E-2,-4.3953188E-2,1.8690463E-2,-2.1616332E-2,4.4331443E-3,1.4272986E-3,-3.0641822E-2,-6.382706E-3,4.092873E-4,-1.0799743E-2,-1.3137217E-1,-7.747663E-3,1.3875867E-1,-1.1835971E-3,-9.4322935E-3,-3.471582E-2,-2.7720244E-3,-6.549361E-2,-1.8688057E-2,5.551686E-3,-2.2243274E-2,4.612092E-3,3.256971E-3,2.1347338E-2,-4.7299787E-3,-7.751587E-2,5.210423E-2,5.171003E-3],"categories":[],"categories_nodes":[],"categories_segments":[],"categories_sizes":[],"default_left":[0,0,0,0,0,0,0,0,0,0,0,0,0,0,0,0,0,0,0,0,0,0,0,0,0,0,0,0,0,0,0,0,0,0,0,0,0,0,0,0,0,0,0,0,0,0,0,0,0,0,0,0,0,0,0,0,0,0,0,0,0,0,0,0,0,0,0,0,0,0,0,0,0,0,0,0,0,0,0,0,0,0,0,0,0,0,0,0,0,0,0,0,0,0,0,0,0,0,0,0,0,0,0,0,0,0,0,0,0,0,0,0,0,0,0,0,0,0,0,0,0],"id":2,"left_children":[1,3,5,7,9,11,13,15,17,19,21,23,25,27,29,31,33,35,37,39,41,43,45,47,49,51,53,55,57,59,61,63,65,67,69,71,73,75,77,79,81,83,85,87,89,91,93,95,-1,97,99,101,103,105,107,109,111,113,-1,115,-1,117,119,-1,-1,-1,-1,-1,-1,-1,-1,-1,-1,-1,-1,-1,-1,-1,-1,-1,-1,-1,-1,-1,-1,-1,-1,-1,-1,-1,-1,-1,-1,-1,-1,-1,-1,-1,-1,-1,-1,-1,-1,-1,-1,-1,-1,-1,-1,-1,-1,-1,-1,-1,-1,-1,-1,-1,-1,-1,-1],"loss_changes":[3.9257482E-1,3.8926813E-1,2.6209494E-1,3.255608E-1,4.535207E-1,2.3420297E-1,2.8220356E-1,3.9530462E-1,2.0231843E-1,2.3763314E-1,1.6926807E-1,2.1459362E-1,2.0479457E-1,1.370717E-1,2.2988063E-1,2.8610814E-1,5.7982814E-1,3.2878315E-1,1.6267034E-1,3.0816543E-1,2.101559E-1,2.2071265E-1,1.751836E-1,6.431538E-1,1.5764463E-1,1.9934882E-1,2.3007487E-1,1.0093975E-1,8.267981E-2,2.9544997E-1,3.6415583E-1,2.2537342E-1,2.3085332E-1,1.9057798E-1,2.1230298E-1,1.7064151E-1,1.7527306E-1,2.764129E-1,9.9818254E-1,3.0741352E-1,2.3522195E-1,1.8455444E-1,3.358233E-1,2.8916344E-1,2.3005177E-1,1.699734E-1,1.9185595E-1,3.52665E-2,0E0,1.2562442E-1,5.8999203E-2,1.479115E-1,3.8624215E-1,2.6257145E-1,6.6329956E-2,2.7413243E-1,6.0932364E-2,7.778977E-3,0E0,1.897707E-1,0E0,4.227503E-1,2.4175459E-1,0E0,0E0,0E0,0E0,0E0,0E0,0E0,0E0,0E0,0E0,0E0,0E0,0E0,0E0,0E0,0E0,0E0,0E0,0E0,0E0,0E0,0E0,0E0,0E0,0E0,0E0,0E0,0E0,0E0,0E0,0E0,0E0,0E0,0E0,0E0,0E0,0E0,0E0,0E0,0E0,0E0,0E0,0E0,0E0,0E0,0E0,0E0,0E0,0E0,0E0,0E0,0E0,0E0,0E0,0E0,0E0,0E0,0E0],"parents":[2147483647,0,0,1,1,2,2,3,3,4,4,5,5,6,6,7,7,8,8,9,9,10,10,11,11,12,12,13,13,14,14,15,15,16,16,17,17,18,18,19,19,20,20,21,21,22,22,23,23,24,24,25,25,26,26,27,27,28,28,29,29,30,30,31,31,32,32,33,33,34,34,35,35,36,36,37,37,38,38,39,39,40,40,41,41,42,42,43,43,44,44,45,45,46,46,47,47,49,49,50,50,51,51,52,52,53,53,54,54,55,55,56,56,57,57,59,59,61,61,62,62],"right_children":[2,4,6,8,10,12,14,16,18,20,22,24,26,28,30,32,34,36,38,40,42,44,46,48,50,52,54,56,58,60,62,64,66,68,70,72,74,76,78,80,82,84,86,88,90,92,94,96,-1,98,100,102,104,106,108,110,112,114,-1,116,-1,118,120,-1,-1,-1,-1,-1,-1,-1,-1,-1,-1,-1,-1,-1,-1,-1,-1,-1,-1,-1,-1,-1,-1,-1,-1,-1,-1,-1,-1,-1,-1,-1,-1,-1,-1,-1,-1,-1,-1,-1,-1,-1,-1,-1,-1,-1,-1,-1,-1,-1,-1,-1,-1,-1,-1,-1,-1,-1,-1],"split_conditions":[8.3223265E-1,-1.03456765E-1,2.5548575E0,-5.781808E-1,-6.7072105E-1,-8.3428067E-1,-4.5768067E-1,-7.067175E-2,-1.19184196E-1,-7.700017E-1,1.3608607E0,-7.2209406E-1,2.0727959E0,-6.714025E-2,-9.747462E-1,-2.4321878E-1,6.333014E-1,-3.3418626E-1,-1.3233639E0,-8.2435703E-1,1.1267628E-1,-4.87885E-1,2.5548575E0,-6.997347E-2,1.7510942E-1,5.780534E0,-2.2088027E-1,-3.6125335E-1,1.7120571E0,2.205613E0,-1.3872434E-1,-9.986154E-1,4.8466433E-2,-6.701853E-1,-5.944591E-1,9.122636E-1,5.736442E0,2.0370503E-1,-1.2529496E0,-1.8143098E0,2.8984293E-1,-3.0039415E-1,-5.6229955E-1,1.7404613E0,-1.2453604E0,1.4127861E0,-2.0003621E-1,-4.001085E-1,1.404061E-1,-3.8502745E-2,-3.5598922E-1,1.818643E0,-9.085577E-1,-1.3262612E0,2.2110152E0,-9.330714E-2,-1.6850199E-1,7.3695496E-2,-9.089376E-2,2.705188E-1,1.3051225E-1,2.5370142E0,-3.143848E-1,6.0816836E-2,1.9612473E-3,-1.0998068E-2,-5.028013E-3,1.3178276E-2,7.012338E-5,-3.520521E-2,-1.0476369E-2,2.2125926E-2,8.9610726E-2,1.4672437E-3,-4.9884807E-2,-4.417632E-3,4.6757575E-2,-1.5283477E-1,-2.7683214E-3,7.760596E-2,1.3855461E-2,3.3706422E-3,-9.980619E-2,-4.307453E-3,4.7066007E-3,1.3772982E-1,1.2791861E-2,1.7950309E-3,-5.202726E-2,-5.0342646E-3,-2.3991996E-4,-2.2236938E-3,1.5746241E-2,1.0748963E-2,-4.3953188E-2,1.8690463E-2,-2.1616332E-2,4.4331443E-3,1.4272986E-3,-3.0641822E-2,-6.382706E-3,4.092873E-4,-1.0799743E-2,-1.3137217E-1,-7.747663E-3,1.3875867E-1,-1.1835971E-3,-9.4322935E-3,-3.471582E-2,-2.7720244E-3,-6.549361E-2,-1.8688057E-2,5.551686E-3,-2.2243274E-2,4.612092E-3,3.256971E-3,2.1347338E-2,-4.7299787E-3,-7.751587E-2,5.210423E-2,5.171003E-3],"split_indices":[2,17,4,11,22,11,14,24,17,4,11,23,8,24,13,10,23,8,9,20,17,22,4,24,17,22,9,20,2,0,17,13,8,23,4,7,23,22,9,8,23,1,8,23,20,4,10,4,0,3,22,14,20,3,1,10,10,10,0,8,0,3,23,0,0,0,0,0,0,0,0,0,0,0,0,0,0,0,0,0,0,0,0,0,0,0,0,0,0,0,0,0,0,0,0,0,0,0,0,0,0,0,0,0,0,0,0,0,0,0,0,0,0,0,0,0,0,0,0,0,0],"split_type":[0,0,0,0,0,0,0,0,0,0,0,0,0,0,0,0,0,0,0,0,0,0,0,0,0,0,0,0,0,0,0,0,0,0,0,0,0,0,0,0,0,0,0,0,0,0,0,0,0,0,0,0,0,0,0,0,0,0,0,0,0,0,0,0,0,0,0,0,0,0,0,0,0,0,0,0,0,0,0,0,0,0,0,0,0,0,0,0,0,0,0,0,0,0,0,0,0,0,0,0,0,0,0,0,0,0,0,0,0,0,0,0,0,0,0,0,0,0,0,0,0],"sum_hessian":[5.7945E4,4.0224E4,1.7721E4,8.871E3,3.1353E4,1.6454E4,1.267E3,5.189E3,3.682E3,1.631E3,2.9722E4,5.305E3,1.1149E4,8.6E1,1.181E3,2.771E3,2.418E3,2.102E3,1.58E3,7.33E2,8.98E2,2.5951E4,3.771E3,1E1,5.295E3,1.094E4,2.09E2,8.1E1,5E0,2.19E2,9.62E2,2.53E2,2.518E3,2.129E3,2.89E2,3.5E1,2.067E3,3.8E1,1.542E3,3.58E2,3.75E2,8.16E2,8.2E1,5.339E3,2.0612E4,3.746E3,2.5E1,7E0,3E0,5.18E3,1.15E2,1.0928E4,1.2E1,4E0,2.05E2,2.9E1,5.2E1,3E0,2E0,2.18E2,1E0,3.5E1,9.27E2,5E0,2.48E2,9.2E2,1.598E3,1.04E2,2.025E3,3.5E1,2.54E2,3.2E1,3E0,2.062E3,5E0,2.3E1,1.5E1,3E0,1.539E3,6E0,3.52E2,3.74E2,1E0,4.16E2,4E2,1E0,8.1E1,5.331E3,8E0,9.43E2,1.9669E4,3.699E3,4.7E1,8E0,1.7E1,2E0,5E0,2.116E3,3.064E3,9E0,1.06E2,1.0822E4,1.06E2,2E0,1E1,1E0,3E0,1.96E2,9E0,2.1E1,8E0,1.1E1,4.1E1,2E0,1E0,8.7E1,1.31E2,2.6E1,9E0,9E0,9.18E2],"tree_param":{"num_deleted":"0","num_feature":"25","num_nodes":"121","size_leaf_vector":"1"}},{"base_weights":[5.222033E-6,-6.174719E-4,7.236955E-3,2.6809205E-3,-1.7905029E-3,1.0285679E-2,-1.6209824E-2,-2.5803963E-2,3.3024477E-3,-5.565642E-3,1.4582116E-4,2.61846E-1,1.0097449E-2,5.468791E-2,-3.1064577E-2,-2.9538853E-2,1.997153E-1,5.2228373E-2,2.96781E-3,-4.6890494E-3,-2.5717255E-2,1.839469E-2,-4.063047E-4,1.4786994E-1,-3.0039247E-2,8.847226E-3,3.9038047E-2,-9.389475E-2,6.995644E-2,-5.2100535E-2,2.7269823E-3,-1.1450054E-2,-6.809629E-2,2.7590922E-1,-1.5759056E-2,9.610323E-2,-4.7912795E-2,2.132366E-3,1.569532E-2,1.7037049E-2,-5.1607927E-3,-7.108423E-3,-4.5688283E-2,3.5782847E-1,1.613737E-2,-2.3077015E-4,-4.2849686E-2,9.26018E-3,-1.5259399E-1,2.993462E-2,1.5488802E-1,1.6556742E-2,-1.8556729E-1,6.188497E-2,1.1098323E-1,-3.576267E-2,-8.9121945E-2,2.0808535E-2,-9.3139276E-2,-8.143689E-3,2.8752293E-2,-4.831533E-2,-9.62488E-3,4.4186744E-3,1.07417904E-1,4.630697E-2,-2.9533275E-3,-4.1118353E-3,-6.280909E-2,3.8191676E-4,4.662327E-3,2.7102193E-2,3.1316113E-3,-3.919598E-2,5.918668E-3,-2.536819E-2,-1.5004474E-3,-3.4976993E-2,-5.8339123E-4,-1.2777654E-2,-9.149403E-2,1.30739E-1,6.893353E-3,6.608308E-3,-1.447922E-2,-7.5652504E-5,8.070879E-2,-5.981534E-3,-8.474256E-2,2.6007565E-3,2.8035272E-2,1.3238783E-2,-1.3761337E-1,2.4342036E-2,4.8530684E-3,7.827085E-2,-1.3713985E-2,-6.902154E-3,9.659856E-3,-7.2120525E-2,5.0655752E-3,-2.7273737E-2,2.521845E-2,6.9583985E-3,-1.4935977E-2,-1.5071548E-2,-4.1970447E-2,7.795887E-3,-1.0716493E-1,-1.7556744E-3,-5.6007154E-2],"categories":[],"categories_nodes":[],"categories_segments":[],"categories_sizes":[],"default_left":[0,0,0,0,0,0,0,0,0,0,0,0,0,0,0,0,0,0,0,0,0,0,0,0,0,0,0,0,0,0,0,0,0,0,0,0,0,0,0,0,0,0,0,0,0,0,0,0,0,0,0,0,0,0,0,0,0,0,0,0,0,0,0,0,0,0,0,0,0,0,0,0,0,0,0,0,0,0,0,0,0,0,0,0,0,0,0,0,0,0,0,0,0,0,0,0,0,0,0,0,0,0,0,0,0,0,0,0,0,0,0],"id":3,"left_children":[1,3,5,7,9,11,13,15,17,19,21,23,25,27,29,31,33,35,37,39,41,43,45,-1,-1,47,49,51,53,55,57,59,61,63,-1,65,67,69,71,73,75,77,79,81,83,85,87,89,91,93,95,97,99,101,-1,103,105,107,109,-1,-1,-1,-1,-1,-1,-1,-1,-1,-1,-1,-1,-1,-1,-1,-1,-1,-1,-1,-1,-1,-1,-1,-1,-1,-1,-1,-1,-1,-1,-1,-1,-1,-1,-1,-1,-1,-1,-1,-1,-1,-1,-1,-1,-1,-1,-1,-1,-1,-1,-1,-1],"loss_changes":[2.6094437E-1,2.0643379E-1,3.2855847E-1,2.4788988E-1,2.8769624E-1,1.89886E-1,5.588249E-1,2.577439E-1,2.2413124E-1,2.355802E-1,2.621261E-1,3.002628E-1,1.4669904E-1,2.1528327E-1,3.114891E-1,2.0497027E-1,1.1059144E-1,4.1321668E-1,1.4465144E-1,1.3115388E-1,2.0630568E-1,5.796107E-1,1.8812455E-1,0E0,0E0,2.6121742E-1,1.7254156E-1,9.420071E-2,1.8049863E-1,1.6012245E-1,2.948845E-1,3.4276855E-1,3.095088E-1,8.055049E-2,0E0,4.0268683E-1,1.5728864E-1,1.4711934E-1,3.2787293E-1,1.1071384E-1,1.5789878E-1,1.631563E-1,2.0215917E-1,1.2052482E-1,2.8936547E-1,1.4501344E-1,5.6534016E-1,1.926412E-1,6.224464E-1,1.0928938E-1,2.6712722E-1,3.8352674E-3,5.956611E-2,2.888891E-1,0E0,1.5742233E-1,1.5487927E-1,2.8917965E-1,2.193843E-1,0E0,0E0,0E0,0E0,0E0,0E0,0E0,0E0,0E0,0E0,0E0,0E0,0E0,0E0,0E0,0E0,0E0,0E0,0E0,0E0,0E0,0E0,0E0,0E0,0E0,0E0,0E0,0E0,0E0,0E0,0E0,0E0,0E0,0E0,0E0,0E0,0E0,0E0,0E0,0E0,0E0,0E0,0E0,0E0,0E0,0E0,0E0,0E0,0E0,0E0,0E0,0E0],"parents":[2147483647,0,0,1,1,2,2,3,3,4,4,5,5,6,6,7,7,8,8,9,9,10,10,11,11,12,12,13,13,14,14,15,15,16,16,17,17,18,18,19,19,20,20,21,21,22,22,25,25,26,26,27,27,28,28,29,29,30,30,31,31,32,32,33,33,35,35,36,36,37,37,38,38,39,39,40,40,41,41,42,42,43,43,44,44,45,45,46,46,47,47,48,48,49,49,50,50,51,51,52,52,53,53,55,55,56,56,57,57,58,58],"right_children":[2,4,6,8,10,12,14,16,18,20,22,24,26,28,30,32,34,36,38,40,42,44,46,-1,-1,48,50,52,54,56,58,60,62,64,-1,66,68,70,72,74,76,78,80,82,84,86,88,90,92,94,96,98,100,102,-1,104,106,108,110,-1,-1,-1,-1,-1,-1,-1,-1,-1,-1,-1,-1,-1,-1,-1,-1,-1,-1,-1,-1,-1,-1,-1,-1,-1,-1,-1,-1,-1,-1,-1,-1,-1,-1,-1,-1,-1,-1,-1,-1,-1,-1,-1,-1,-1,-1,-1,-1,-1,-1,-1,-1],"split_conditions":[1.7120571E0,-4.330189E-1,1.7589766E0,-1.4325194E-1,-4.481737E-1,-7.700017E-1,-7.104239E-2,-7.915228E-2,-1.9701405E0,3.4163275E-1,-4.844691E-1,-5.361486E-4,3.4717062E0,-6.3282824E-1,1.8098915E-1,-2.2047369E-1,-7.647685E-4,2.1592537E-1,3.6789012E-1,-6.4910746E-1,1.2420642E0,-1.8356273E0,5.736442E0,1.4786994E-1,-3.0039247E-2,6.2292705E0,1.8532414E0,1.6792346E0,8.5717463E-1,7.014238E-2,3.7943074E-1,-2.2421551E-1,7.7552944E-1,-1.9610661E0,-1.5759056E-2,-5.477192E-1,-6.9805604E-1,8.5218084E-1,-2.6069877E0,-2.6182672E-1,-1.3049579E0,-1.1743765E0,-4.5444307E-1,-3.8502745E-2,2.1977878E0,6.381477E1,1.3184533E-1,5.7269883E0,-4.423144E-2,-8.3428067E-1,9.992699E-3,-8.056339E-1,8.78676E-1,-2.2642198E-1,1.1098323E-1,-3.0540484E-1,2.2110152E0,2.205613E0,-9.928895E-4,-8.143689E-3,2.8752293E-2,-4.831533E-2,-9.62488E-3,4.4186744E-3,1.07417904E-1,4.630697E-2,-2.9533275E-3,-4.1118353E-3,-6.280909E-2,3.8191676E-4,4.662327E-3,2.7102193E-2,3.1316113E-3,-3.919598E-2,5.918668E-3,-2.536819E-2,-1.5004474E-3,-3.4976993E-2,-5.8339123E-4,-1.2777654E-2,-9.149403E-2,1.30739E-1,6.893353E-3,6.608308E-3,-1.447922E-2,-7.5652504E-5,8.070879E-2,-5.981534E-3,-8.474256E-2,2.6007565E-3,2.8035272E-2,1.3238783E-2,-1.3761337E-1,2.4342036E-2,4.8530684E-3,7.827085E-2,-1.3713985E-2,-6.902154E-3,9.659856E-3,-7.2120525E-2,5.0655752E-3,-2.7273737E-2,2.521845E-2,6.9583985E-3,-1.4935977E-2,-1.5071548E-2,-4.1970447E-2,7.795887E-3,-1.0716493E-1,-1.7556744E-3,-5.6007154E-2],"split_indices":[2,23,19,17,4,4,24,9,3,23,22,1,2,9,23,10,2,9,4,22,7,13,23,0,0,1,6,4,16,14,13,10,16,20,0,23,20,16,12,10,1,4,4,3,21,10,10,1,10,11,10,9,22,10,0,9,1,0,14,0,0,0,0,0,0,0,0,0,0,0,0,0,0,0,0,0,0,0,0,0,0,0,0,0,0,0,0,0,0,0,0,0,0,0,0,0,0,0,0,0,0,0,0,0,0,0,0,0,0,0,0],"split_type":[0,0,0,0,0,0,0,0,0,0,0,0,0,0,0,0,0,0,0,0,0,0,0,0,0,0,0,0,0,0,0,0,0,0,0,0,0,0,0,0,0,0,0,0,0,0,0,0,0,0,0,0,0,0,0,0,0,0,0,0,0,0,0,0,0,0,0,0,0,0,0,0,0,0,0,0,0,0,0,0,0,0,0,0,0,0,0,0,0,0,0,0,0,0,0,0,0,0,0,0,0,0,0,0,0,0,0,0,0,0,0],"sum_hessian":[5.7945E4,5.3352E4,4.593E3,1.3996E4,3.9356E4,4.065E3,5.28E2,2.98E2,1.3698E4,1.3342E4,2.6014E4,2E0,4.063E3,9.1E1,4.37E2,2.94E2,4E0,9.2E1,1.3606E4,1.2787E4,5.55E2,7.63E2,2.5251E4,1E0,1E0,3.896E3,1.67E2,8E0,8.3E1,2.69E2,1.68E2,2.01E2,9.3E1,3E0,1E0,6.4E1,2.8E1,1.2769E4,8.37E2,2.71E2,1.2516E4,2.88E2,2.67E2,4E0,7.59E2,2.5148E4,1.03E2,3.887E3,9E0,1.56E2,1.1E1,4E0,4E0,8.2E1,1E0,1.88E2,8.1E1,1.42E2,2.6E1,1.76E2,2.5E1,2.5E1,6.8E1,1E0,2E0,4.1E1,2.3E1,2.4E1,4E0,1.2001E4,7.68E2,5.4E1,7.83E2,4E0,2.67E2,2.4E1,1.2492E4,1.2E1,2.76E2,2.65E2,2E0,3E0,1E0,6.96E2,6.3E1,2.5147E4,1E0,9.5E1,8E0,3.861E3,2.6E1,6E0,3E0,3.2E1,1.24E2,7E0,4E0,1E0,3E0,3E0,1E0,1E1,7.2E1,3.6E1,1.52E2,4.7E1,3.4E1,1.41E2,1E0,1.4E1,1.2E1],"tree_param":{"num_deleted":"0","num_feature":"25","num_nodes":"111","size_leaf_vector":"1"}},{"base_weights":[2.4555472E-6,-2.6539601E-3,1.1524523E-3,8.765847E-3,-3.6455584E-3,7.1523484E-4,1.0704136E-2,-1.0142803E-2,2.6714223E-2,-6.464307E-2,-3.5277298E-3,2.0647967E-2,5.0057203E-4,3.3317585E-2,6.287139E-3,9.978251E-2,-1.6965307E-2,1.8313209E-2,6.421867E-2,-3.339055E-1,-2.386833E-2,-9.479013E-3,-2.4199171E-3,7.518868E-2,7.483086E-3,1.7979251E-1,4.8181287E-4,1.0076265E-1,3.1100804E-2,-1.9518323E-1,7.375597E-3,2.418872E-2,2.9687625E-1,-1.8237066E-2,2.604224E-1,-9.2975624E-2,1.9400349E-2,5.03646E-2,3.0243862E-1,-1.3234127E-1,-1.831409E-3,-1.438315E-1,2.1185137E-3,1.9364301E-3,-1.8651918E-2,-4.955014E-2,-2.005945E-3,1.2241156E-1,4.2224177E-3,-1.8412372E-3,7.582979E-2,1.2754805E-1,-4.3716755E-2,3.923346E-3,-4.4791176E-4,2.4415703E-2,1.0706322E-1,2.0746417E-2,-2.9482165E-1,-1.1880985E-2,1.3951142E-2,-5.914772E-2,1.682553E-2,3.7537158E-2,1.4338632E-1,-1.254019E-2,-1.3485304E-3,1.2386632E-1,-6.676234E-3,6.1656153E-3,-6.34945E-2,1.6853252E-2,-6.142582E-2,-3.487616E-2,1.174789E-1,-6.591435E-2,-2.0979643E-2,1.2944823E-2,-7.6129953E-3,1.0186136E-2,-1.4816568E-3,7.2074793E-3,-6.618664E-3,-1.3349031E-2,-5.4734122E-2,1.0324191E-2,-6.786877E-4,-1.3371627E-2,4.4198282E-2,-4.545072E-3,1.726986E-2,-1.1520783E-3,8.7580904E-2,5.6406297E-3,5.784768E-2,1.2591654E-2,-3.2264195E-2,8.76111E-4,6.4639845E-3,-6.488605E-3,-6.3553154E-5,1.00239385E-2,-4.2509288E-3,9.211466E-3,5.2349888E-2,-1.367471E-1,-3.0109426E-2,-2.6103978E-3,-9.1624215E-2,8.4840685E-2,3.8874333E-3],"categories":[],"categories_nodes":[],"categories_segments":[],"categories_sizes":[],"default_left":[0,0,0,0,0,0,0,0,0,0,0,0,0,0,0,0,0,0,0,0,0,0,0,0,0,0,0,0,0,0,0,0,0,0,0,0,0,0,0,0,0,0,0,0,0,0,0,0,0,0,0,0,0,0,0,0,0,0,0,0,0,0,0,0,0,0,0,0,0,0,0,0,0,0,0,0,0,0,0,0,0,0,0,0,0,0,0,0,0,0,0,0,0,0,0,0,0,0,0,0,0,0,0,0,0,0,0,0,0,0,0],"id":4,"left_children":[1,3,5,7,9,11,13,15,17,19,21,23,25,27,29,31,33,35,37,39,41,43,45,47,49,51,53,-1,55,57,59,61,63,65,67,-1,69,71,73,-1,-1,75,77,79,81,83,85,87,89,91,93,-1,95,97,99,101,103,-1,105,107,109,-1,-1,-1,-1,-1,-1,-1,-1,-1,-1,-1,-1,-1,-1,-1,-1,-1,-1,-1,-1,-1,-1,-1,-1,-1,-1,-1,-1,-1,-1,-1,-1,-1,-1,-1,-1,-1,-1,-1,-1,-1,-1,-1,-1,-1,-1,-1,-1,-1,-1],"loss_changes":[1.7702052E-1,1.9827878E-1,1.6887638E-1,4.75063E-1,1.15551546E-1,1.654558E-1,1.7658442E-1,5.131695E-1,2.2504807E-1,3.323825E-1,1.0598442E-1,2.952624E-1,1.2859559E-1,1.8338779E-1,3.264304E-1,5.8878154E-1,2.3158075E-1,2.1583082E-1,4.17109E-1,1.3790992E-1,8.759371E-2,2.6422644E-1,2.6440582E-1,2.675816E-1,2.123561E-1,2.3795438E-1,1.2241183E-1,0E0,1.4363709E-1,2.3109409E-1,1.8693398E-1,2.228635E-1,2.823031E-1,2.0737408E-1,1.3848354E-1,0E0,1.605501E-1,1.9687414E-1,3.068323E-1,0E0,0E0,1.2673415E-2,2.8170614E-2,2.4781221E-1,2.0414132E-1,7.112786E-2,1.2555563E-1,2.0627427E-1,3.4974698E-2,1.73778E-1,2.6325446E-1,0E0,2.0922713E-2,1.4376436E-1,1.5060344E-1,9.28206E-2,1.130766E-1,0E0,1.4209902E-1,3.4827664E-1,2.9001087E-1,0E0,0E0,0E0,0E0,0E0,0E0,0E0,0E0,0E0,0E0,0E0,0E0,0E0,0E0,0E0,0E0,0E0,0E0,0E0,0E0,0E0,0E0,0E0,0E0,0E0,0E0,0E0,0E0,0E0,0E0,0E0,0E0,0E0,0E0,0E0,0E0,0E0,0E0,0E0,0E0,0E0,0E0,0E0,0E0,0E0,0E0,0E0,0E0,0E0,0E0],"parents":[2147483647,0,0,1,1,2,2,3,3,4,4,5,5,6,6,7,7,8,8,9,9,10,10,11,11,12,12,13,13,14,14,15,15,16,16,17,17,18,18,19,19,20,20,21,21,22,22,23,23,24,24,25,25,26,26,28,28,29,29,30,30,31,31,32,32,33,33,34,34,36,36,37,37,38,38,41,41,42,42,43,43,44,44,45,45,46,46,47,47,48,48,49,49,50,50,52,52,53,53,54,54,55,55,56,56,58,58,59,59,60,60],"right_children":[2,4,6,8,10,12,14,16,18,20,22,24,26,28,30,32,34,36,38,40,42,44,46,48,50,52,54,-1,56,58,60,62,64,66,68,-1,70,72,74,-1,-1,76,78,80,82,84,86,88,90,92,94,-1,96,98,100,102,104,-1,106,108,110,-1,-1,-1,-1,-1,-1,-1,-1,-1,-1,-1,-1,-1,-1,-1,-1,-1,-1,-1,-1,-1,-1,-1,-1,-1,-1,-1,-1,-1,-1,-1,-1,-1,-1,-1,-1,-1,-1,-1,-1,-1,-1,-1,-1,-1,-1,-1,-1,-1,-1],"split_conditions":[-4.7591813E-2,-6.7072105E-1,2.2758703E0,-8.7608707E-1,-6.9720113E-1,-6.8910086E-1,-8.3428067E-1,-2.5039902E-1,8.991127E-1,-1.3262612E0,-9.927584E-1,-7.47014E-1,-6.260426E-1,-1.8840531E0,-2.4119617E-1,-2.513E-1,1.0847486E0,-1.5378947E0,1.1267628E-1,-7.822017E-1,-1.1503439E0,-2.9968855E-1,-2.7956443E0,-3.101526E-2,-1.9714941E-1,-3.8502745E-2,-2.2294678E-1,1.0076265E-1,4.8055634E0,9.2436993E-1,-1.01073824E-1,-1.3154374E0,-6.199328E-1,-7.4705034E-1,-8.02676E-1,-9.2975624E-2,8.6704764E-5,3.5779352E0,-1.3049579E0,-1.3234127E-1,-1.831409E-3,7.6392083E-4,8.967598E-1,-6.8366224E-1,-3.4310797E-1,1.9017619E0,-7.164841E-2,-1.4084331E0,-6.887433E-1,6.9125503E-1,-7.647685E-4,1.2754805E-1,-5.361486E-4,1.2058967E0,-7.085853E-1,-6.77105E-2,-1.12511955E-1,2.0746417E-2,1.7087333E0,-6.71459E-2,-9.8929174E-2,-5.914772E-2,1.682553E-2,3.7537158E-2,1.4338632E-1,-1.254019E-2,-1.3485304E-3,1.2386632E-1,-6.676234E-3,6.1656153E-3,-6.34945E-2,1.6853252E-2,-6.142582E-2,-3.487616E-2,1.174789E-1,-6.591435E-2,-2.0979643E-2,1.2944823E-2,-7.6129953E-3,1.0186136E-2,-1.4816568E-3,7.2074793E-3,-6.618664E-3,-1.3349031E-2,-5.4734122E-2,1.0324191E-2,-6.786877E-4,-1.3371627E-2,4.4198282E-2,-4.545072E-3,1.726986E-2,-1.1520783E-3,8.7580904E-2,5.6406297E-3,5.784768E-2,1.2591654E-2,-3.2264195E-2,8.76111E-4,6.4639845E-3,-6.488605E-3,-6.3553154E-5,1.00239385E-2,-4.2509288E-3,9.211466E-3,5.2349888E-2,-1.367471E-1,-3.0109426E-2,-2.6103978E-3,-9.1624215E-2,8.4840685E-2,3.8874333E-3],"split_indices":[2,22,4,13,23,23,11,10,9,3,20,4,14,9,10,10,10,8,17,13,4,23,12,17,10,3,10,0,4,23,17,4,23,22,1,0,4,5,1,0,0,5,18,16,12,23,24,16,22,20,2,0,1,4,22,24,17,0,1,24,17,0,0,0,0,0,0,0,0,0,0,0,0,0,0,0,0,0,0,0,0,0,0,0,0,0,0,0,0,0,0,0,0,0,0,0,0,0,0,0,0,0,0,0,0,0,0,0,0,0,0],"split_type":[0,0,0,0,0,0,0,0,0,0,0,0,0,0,0,0,0,0,0,0,0,0,0,0,0,0,0,0,0,0,0,0,0,0,0,0,0,0,0,0,0,0,0,0,0,0,0,0,0,0,0,0,0,0,0,0,0,0,0,0,0,0,0,0,0,0,0,0,0,0,0,0,0,0,0,0,0,0,0,0,0,0,0,0,0,0,0,0,0,0,0,0,0,0,0,0,0,0,0,0,0,0,0,0,0,0,0,0,0,0,0],"sum_hessian":[5.7945E4,1.7506E4,4.0439E4,1.398E3,1.6108E4,3.867E4,1.769E3,6.81E2,7.17E2,3E1,1.6078E4,4.11E2,3.8259E4,2.88E2,1.481E3,3.9E1,6.42E2,5.87E2,1.3E2,3E0,2.7E1,2.522E3,1.3556E4,7.9E1,3.32E2,3E0,3.8256E4,1E0,2.87E2,7E0,1.474E3,2.9E1,1E1,6.4E2,2E0,1E0,5.86E2,1.24E2,6E0,2E0,1E0,4E0,2.3E1,1.124E3,1.398E3,1.17E2,1.3439E4,4.7E1,3.2E1,2.93E2,3.9E1,1E0,2E0,8.136E3,3.012E4,2.65E2,2.2E1,2E0,5E0,3.75E2,1.099E3,3E0,2.6E1,6E0,4E0,2.35E2,4.05E2,1E0,1E0,5.84E2,2E0,1.22E2,2E0,1E0,5E0,1E0,3E0,9E0,1.4E1,1.98E2,9.26E2,1.03E2,1.295E3,1.14E2,3E0,9.3E1,1.3346E4,6E0,4.1E1,2.4E1,8E0,2.92E2,1E0,2.7E1,1.2E1,1E0,1E0,7.699E3,4.37E2,3.31E2,2.9789E4,2.15E2,5E1,1.1E1,1.1E1,2E0,3E0,3.72E2,3E0,3E0,1.096E3],"tree_param":{"num_deleted":"0","num_feature":"25","num_nodes":"111","size_leaf_vector":"1"}},{"base_weights":[4.8834186E-6,1.8022627E-3,-1.074726E-3,-2.6318382E-2,2.2048578E-3,-4.3447376E-3,3.8178876E-4,-7.7403285E-2,-7.0440527E-3,1.6586438E-3,1.8902566E-2,-1.2097162E-1,-4.2292485E-3,8.684063E-3,-2.675855E-4,1.2689346E-2,-2.0389551E-1,-1.4548582E-1,1.4785272E-3,4.4347225E-3,-6.982905E-4,1.1205286E-1,1.517044E-2,8.511345E-3,-1.049084E-1,9.324237E-2,-4.5270803E-3,8.19415E-3,9.065598E-2,-5.1005245E-3,1.3066375E-3,-2.8150374E-2,5.4655083E-2,-4.5916787E-1,-5.074612E-2,-1.3200067E-3,-2.0941284E-1,1.2433751E-1,-7.172248E-3,3.9238157E-3,5.461704E-2,-2.5171367E-3,8.14936E-3,6.608403E-2,1.3273577E-1,1.351967E-2,2.2673644E-1,2.4375712E-2,-2.9277729E-2,4.9491636E-2,2.292458E-1,-4.6788813E-3,7.5875446E-2,8.648751E-3,-5.9936635E-2,-4.9190144E-3,-1.0458986E-1,-8.2481914E-4,5.0298003E-3,3.720027E-2,-1.3798906E-2,2.3811849E-2,4.794129E-3,3.5024101E-3,-1.6375108E-1,-3.73804E-3,-1.3395569E-1,1.0991277E-2,-1.165128E-2,-9.746841E-2,-1.5614523E-2,1.7393418E-2,1.4805156E-1,3.0805732E-3,-1.3762941E-2,3.6881904E-3,4.9286324E-4,4.4577033E-3,8.592724E-2,-8.1058504E-4,3.1518873E-2,8.843738E-3,1.2694364E-3,6.704985E-3,8.375008E-2,1.7289216E-2,2.7547409E-3,2.6605653E-2,1.1684103E-1,-1.2323406E-2,-1.1354313E-3,2.08625E-2,-2.4954436E-2,9.509487E-2,-6.7930873E-3,-1.3203319E-3,-2.6961604E-2,8.7999076E-2,1.5100857E-2,-3.3793695E-2,2.754466E-3,-1.4224291E-3,-1.02277696E-1,2.0330267E-3,-8.3096186E-4,1.1480019E-3,9.966537E-3],"categories":[],"categories_nodes":[],"categories_segments":[],"categories_sizes":[],"default_left":[0,0,0,0,0,0,0,0,0,0,0,0,0,0,0,0,0,0,0,0,0,0,0,0,0,0,0,0,0,0,0,0,0,0,0,0,0,0,0,0,0,0,0,0,0,0,0,0,0,0,0,0,0,0,0,0,0,0,0,0,0,0,0,0,0,0,0,0,0,0,0,0,0,0,0,0,0,0,0,0,0,0,0,0,0,0,0,0,0,0,0,0,0,0,0,0,0,0,0,0,0,0,0,0,0,0,0],"id":5,"left_children":[1,3,5,7,9,11,13,15,17,19,21,23,25,27,29,31,33,35,37,39,41,43,45,47,-1,49,51,53,-1,55,57,59,61,63,65,67,69,71,73,75,77,79,81,83,-1,85,87,-1,89,91,93,95,97,99,-1,101,-1,103,105,-1,-1,-1,-1,-1,-1,-1,-1,-1,-1,-1,-1,-1,-1,-1,-1,-1,-1,-1,-1,-1,-1,-1,-1,-1,-1,-1,-1,-1,-1,-1,-1,-1,-1,-1,-1,-1,-1,-1,-1,-1,-1,-1,-1,-1,-1,-1,-1],"loss_changes":[1.12444274E-1,2.4623825E-1,1.7242526E-1,3.0173534E-1,1.9550352E-1,1.4974992E-1,1.350378E-1,9.5985276E-1,2.6450846E-1,1.3584304E-1,2.3435351E-1,3.2874945E-1,3.239922E-1,2.5879145E-1,1.7675099E-1,8.7232E-2,1.345017E0,1.19532734E-1,2.2621077E-1,2.4419731E-1,1.807234E-1,3.6565128E-1,2.25342E-1,2.4369415E-2,0E0,1.9096273E-1,1.3599099E-1,1.7333496E-1,0E0,3.542053E-1,1.3907042E-1,7.630106E-2,2.2630334E-2,5.3686976E-1,3.4294504E-1,8.543303E-3,1.4664432E-1,3.1435624E-1,1.3480274E-1,1.8016824E-1,8.804985E-1,1.8548676E-1,1.5990801E-1,2.1741623E-1,0E0,1.23827815E-1,7.778731E-2,0E0,1.6494747E-3,7.760727E-2,1.8397802E-1,2.6211458E-1,1.01861164E-1,1.1813623E-1,0E0,3.3885702E-1,0E0,1.6480282E-1,2.162732E-1,0E0,0E0,0E0,0E0,0E0,0E0,0E0,0E0,0E0,0E0,0E0,0E0,0E0,0E0,0E0,0E0,0E0,0E0,0E0,0E0,0E0,0E0,0E0,0E0,0E0,0E0,0E0,0E0,0E0,0E0,0E0,0E0,0E0,0E0,0E0,0E0,0E0,0E0,0E0,0E0,0E0,0E0,0E0,0E0,0E0,0E0,0E0,0E0],"parents":[2147483647,0,0,1,1,2,2,3,3,4,4,5,5,6,6,7,7,8,8,9,9,10,10,11,11,12,12,13,13,14,14,15,15,16,16,17,17,18,18,19,19,20,20,21,21,22,22,23,23,25,25,26,26,27,27,29,29,30,30,31,31,32,32,33,33,34,34,35,35,36,36,37,37,38,38,39,39,40,40,41,41,42,42,43,43,45,45,46,46,48,48,49,49,50,50,51,51,52,52,53,53,55,55,57,57,58,58],"right_children":[2,4,6,8,10,12,14,16,18,20,22,24,26,28,30,32,34,36,38,40,42,44,46,48,-1,50,52,54,-1,56,58,60,62,64,66,68,70,72,74,76,78,80,82,84,-1,86,88,-1,90,92,94,96,98,100,-1,102,-1,104,106,-1,-1,-1,-1,-1,-1,-1,-1,-1,-1,-1,-1,-1,-1,-1,-1,-1,-1,-1,-1,-1,-1,-1,-1,-1,-1,-1,-1,-1,-1,-1,-1,-1,-1,-1,-1,-1,-1,-1,-1,-1,-1,-1,-1,-1,-1,-1,-1],"split_conditions":[-3.2123062E-1,-1.4515829E-1,-3.6353713E-1,-9.121075E-1,-3.311365E-1,-3.0556748E0,-3.501002E-1,-2.2749764E-1,-2.4241698E0,-3.8502745E-2,-1.3753287E-1,8.4067976E-1,-2.5504708E0,3.8045533E0,-3.19153E-1,-2.403044E-1,-1.79488E-1,-8.117975E-1,-8.6822194E-1,1.070158E0,5.287121E-2,8.398989E-1,5.0992885E0,-7.112212E-2,-1.049084E-1,-2.1458976E-1,2.259589E0,3.909935E0,9.065598E-2,2.601581E0,-1.5906012E-1,-2.1715677E0,-5.757424E-1,-9.986154E-1,-3.4862316E-1,-8.02676E-1,-4.87885E-1,-2.2230323E-1,-2.2184354E-1,-7.0941664E-2,6.496684E-1,2.2110152E0,-6.142206E-1,1.16070166E-1,1.3273577E-1,-5.399522E-1,-8.02676E-1,2.4375712E-2,2.5188243E-1,-7.096563E-2,4.1632423E-1,1.7404613E0,-2.4609225E0,-2.7676578E0,-5.9936635E-2,6.8486757E0,-1.0458986E-1,-6.939065E-2,3.717861E0,3.720027E-2,-1.3798906E-2,2.3811849E-2,4.794129E-3,3.5024101E-3,-1.6375108E-1,-3.73804E-3,-1.3395569E-1,1.0991277E-2,-1.165128E-2,-9.746841E-2,-1.5614523E-2,1.7393418E-2,1.4805156E-1,3.0805732E-3,-1.3762941E-2,3.6881904E-3,4.9286324E-4,4.4577033E-3,8.592724E-2,-8.1058504E-4,3.1518873E-2,8.843738E-3,1.2694364E-3,6.704985E-3,8.375008E-2,1.7289216E-2,2.7547409E-3,2.6605653E-2,1.1684103E-1,-1.2323406E-2,-1.1354313E-3,2.08625E-2,-2.4954436E-2,9.509487E-2,-6.7930873E-3,-1.3203319E-3,-2.6961604E-2,8.7999076E-2,1.5100857E-2,-3.3793695E-2,2.754466E-3,-1.4224291E-3,-1.02277696E-1,2.0330267E-3,-8.3096186E-4,1.1480019E-3,9.966537E-3],"split_indices":[23,17,4,4,23,20,22,10,20,3,17,16,20,4,20,10,9,4,4,20,24,16,14,24,0,10,22,23,0,10,10,20,22,13,23,1,22,10,10,24,10,1,22,4,0,22,1,0,8,22,8,23,5,9,0,7,0,24,1,0,0,0,0,0,0,0,0,0,0,0,0,0,0,0,0,0,0,0,0,0,0,0,0,0,0,0,0,0,0,0,0,0,0,0,0,0,0,0,0,0,0,0,0,0,0,0,0],"split_type":[0,0,0,0,0,0,0,0,0,0,0,0,0,0,0,0,0,0,0,0,0,0,0,0,0,0,0,0,0,0,0,0,0,0,0,0,0,0,0,0,0,0,0,0,0,0,0,0,0,0,0,0,0,0,0,0,0,0,0,0,0,0,0,0,0,0,0,0,0,0,0,0,0,0,0,0,0,0,0,0,0,0,0,0,0,0,0,0,0,0,0,0,0,0,0,0,0,0,0,0,0,0,0,0,0,0,0],"sum_hessian":[5.7945E4,2.1744E4,3.6201E4,3.06E2,2.1438E4,1.1155E4,2.5046E4,8.3E1,2.23E2,2.076E4,6.78E2,1E1,1.1145E4,1.816E3,2.323E4,4.9E1,3.4E1,1.2E1,2.11E2,9.532E3,1.1228E4,2.5E1,6.53E2,7E0,3E0,3.3E1,1.1112E4,1.814E3,2E0,5.707E3,1.7523E4,2.5E1,2.4E1,1.2E1,2.2E1,4E0,8E0,1.3E1,1.98E2,9.437E3,9.5E1,9.314E3,1.914E3,2.3E1,2E0,6.49E2,4E0,2E0,5E0,2.6E1,7E0,1.1092E4,2E1,1.811E3,3E0,5.705E3,2E0,1.1144E4,6.379E3,2E0,2.3E1,1.4E1,1E1,2E0,1E1,2.1E1,1E0,2E0,2E0,4E0,4E0,1.2E1,1E0,1.37E2,6.1E1,2.02E3,7.417E3,8.2E1,1.3E1,9.299E3,1.5E1,2.96E2,1.618E3,2E1,3E0,5.7E1,5.92E2,3E0,1E0,3E0,2E0,2.3E1,3E0,5E0,2E0,1.1057E4,3.5E1,1E0,1.9E1,7E0,1.804E3,5.703E3,2E0,2.27E3,8.874E3,6.119E3,2.6E2],"tree_param":{"num_deleted":"0","num_feature":"25","num_nodes":"107","size_leaf_vector":"1"}},{"base_weights":[6.6265047E-6,-9.260586E-4,1.8492468E-3,-1.502684E-3,5.633375E-3,6.648828E-3,2.8531157E-4,2.5481222E-2,-1.6399112E-3,9.340801E-2,4.545788E-3,6.422917E-3,1.4077123E-1,-2.835168E-6,2.8027566E-2,-6.1798296E-3,7.04892E-2,-3.4109548E-2,-1.4747803E-3,6.975746E-2,1.03823595E-1,4.2868555E-3,2.680042E-1,6.0997517E-3,7.298272E-2,2.7109313E-1,-5.7323977E-2,-2.928336E-2,2.9827104E-4,2.4241833E-2,8.938313E-2,-1.626101E-1,1.1808846E-2,1.2330565E-1,-3.7963264E-2,-6.920799E-2,1.7322568E-2,-1.2197172E-3,-1.5690606E-2,1.03248626E-1,5.2084126E-2,4.48481E-3,-9.048526E-2,1.2156785E-1,-9.6595316E-4,8.9062974E-2,5.8536334E-3,1.9639159E-2,1.2661804E-1,1.14437416E-1,1.01215355E-1,-2.6030306E-2,4.6510687E-3,-1.851346E-2,-1.6173452E-1,-6.3609118E-3,1.5224012E-3,-2.0386677E-2,3.7003607E-2,-1.5034546E-1,-9.508552E-3,-1.1358556E-2,1.1528344E-2,3.0401852E-2,1.0517441E-1,-2.9895676E-2,1.4882788E-2,-4.883875E-3,-3.844867E-2,-1.533093E-3,5.3223927E-2,5.539125E-4,-6.5716996E-4,-5.71221E-2,-4.012056E-3,-6.809281E-3,3.0905835E-2,8.1337505E-4,8.067167E-3,8.28353E-3,1.3318929E-1,1.9242481E-3,-6.9609317E-3,-8.239394E-4,4.6460517E-2,5.024181E-2,1.2550311E-3,-6.9823596E-3,9.506302E-2,-7.505949E-2,-1.3894505E-2,7.664035E-2,-2.0129478E-3,-7.850473E-3,5.611449E-4,-7.37122E-2,-1.833931E-3,1.3232964E-2,-3.0544223E-2],"categories":[],"categories_nodes":[],"categories_segments":[],"categories_sizes":[],"default_left":[0,0,0,0,0,0,0,0,0,0,0,0,0,0,0,0,0,0,0,0,0,0,0,0,0,0,0,0,0,0,0,0,0,0,0,0,0,0,0,0,0,0,0,0,0,0,0,0,0,0,0,0,0,0,0,0,0,0,0,0,0,0,0,0,0,0,0,0,0,0,0,0,0,0,0,0,0,0,0,0,0,0,0,0,0,0,0,0,0,0,0,0,0,0,0,0,0,0,0],"id":6,"left_children":[1,3,5,7,9,11,13,15,17,19,21,23,25,27,29,31,33,35,37,39,-1,41,43,45,47,49,51,53,55,57,-1,59,61,63,65,67,69,71,73,-1,75,77,-1,-1,-1,79,81,83,-1,85,-1,-1,-1,87,89,91,93,95,97,-1,-1,-1,-1,-1,-1,-1,-1,-1,-1,-1,-1,-1,-1,-1,-1,-1,-1,-1,-1,-1,-1,-1,-1,-1,-1,-1,-1,-1,-1,-1,-1,-1,-1,-1,-1,-1,-1,-1,-1],"loss_changes":[9.95868E-2,1.4552626E-1,1.4617452E-1,1.3099584E-1,2.9636866E-1,1.4411023E-1,1.174216E-1,2.5551057E-1,1.8861334E-1,2.029388E-1,2.084162E-1,1.0235034E-1,2.2206932E-1,1.2819253E-1,1.4707375E-1,3.0020142E-1,4.2855853E-1,3.2252216E-1,1.2692474E-1,1.5666182E-1,0E0,1.8725687E-1,1.1295846E-1,9.6610695E-2,4.1999483E-1,1.3315201E-2,9.922458E-3,2.0812564E-1,1.17329046E-1,8.618523E-2,0E0,4.716373E-1,1.2838449E-1,2.1409076E-1,1.4000025E-1,3.2867104E-1,2.6307085E-1,1.0238512E-1,2.4723533E-1,0E0,1.3565439E-1,1.2188282E-1,0E0,0E0,0E0,2.9306895E-1,7.741475E-2,6.3996345E-2,0E0,1.6841438E-2,0E0,0E0,0E0,2.2773592E-1,1.0072696E-1,2.0589429E-1,1.17235094E-1,1.0784642E-1,1.1990872E-1,0E0,0E0,0E0,0E0,0E0,0E0,0E0,0E0,0E0,0E0,0E0,0E0,0E0,0E0,0E0,0E0,0E0,0E0,0E0,0E0,0E0,0E0,0E0,0E0,0E0,0E0,0E0,0E0,0E0,0E0,0E0,0E0,0E0,0E0,0E0,0E0,0E0,0E0,0E0,0E0],"parents":[2147483647,0,0,1,1,2,2,3,3,4,4,5,5,6,6,7,7,8,8,9,9,10,10,11,11,12,12,13,13,14,14,15,15,16,16,17,17,18,18,19,19,21,21,22,22,23,23,24,24,25,25,26,26,27,27,28,28,29,29,31,31,32,32,33,33,34,34,35,35,36,36,37,37,38,38,40,40,41,41,45,45,46,46,47,47,49,49,53,53,54,54,55,55,56,56,57,57,58,58],"right_children":[2,4,6,8,10,12,14,16,18,20,22,24,26,28,30,32,34,36,38,40,-1,42,44,46,48,50,52,54,56,58,-1,60,62,64,66,68,70,72,74,-1,76,78,-1,-1,-1,80,82,84,-1,86,-1,-1,-1,88,90,92,94,96,98,-1,-1,-1,-1,-1,-1,-1,-1,-1,-1,-1,-1,-1,-1,-1,-1,-1,-1,-1,-1,-1,-1,-1,-1,-1,-1,-1,-1,-1,-1,-1,-1,-1,-1,-1,-1,-1,-1,-1,-1],"split_conditions":[5.0890267E-1,8.474763E-1,-1.910054E-2,-7.788283E-1,-7.116573E-2,5.983891E-1,3.2053545E0,-6.951288E-2,-7.6092446E-1,3.7304714E-1,1.1355813E0,1.4868063E0,-5.7175505E-1,-2.4609225E0,4.3515306E0,-1.0240759E0,-6.4310867E-1,-1.5400628E0,8.4369725E-1,-1.3154374E0,1.03823595E-1,2.205613E0,-4.7591813E-2,-1.3049579E0,6.7381704E-1,-5.361486E-4,1.2064515E0,1.9607227E0,-7.2193646E-1,8.860854E-2,8.938313E-2,-7.748267E-2,-1.3991581E-1,2.0644872E-1,-4.7591813E-2,-2.226342E-1,-3.8502745E-2,-4.4980583E-1,-2.592571E0,1.03248626E-1,-2.2320008E-1,1.3720353E0,-9.048526E-2,1.2156785E-1,-9.6595316E-4,4.9325177E-1,8.2760453E-1,7.1658194E-2,1.2661804E-1,-8.02676E-1,1.01215355E-1,-2.6030306E-2,4.6510687E-3,1.7404613E0,-9.448577E-1,-2.3820693E0,-1.2032601E0,-3.19153E-1,1.7437633E0,-1.5034546E-1,-9.508552E-3,-1.1358556E-2,1.1528344E-2,3.0401852E-2,1.0517441E-1,-2.9895676E-2,1.4882788E-2,-4.883875E-3,-3.844867E-2,-1.533093E-3,5.3223927E-2,5.539125E-4,-6.5716996E-4,-5.71221E-2,-4.012056E-3,-6.809281E-3,3.0905835E-2,8.1337505E-4,8.067167E-3,8.28353E-3,1.3318929E-1,1.9242481E-3,-6.9609317E-3,-8.239394E-4,4.6460517E-2,5.024181E-2,1.2550311E-3,-6.9823596E-3,9.506302E-2,-7.505949E-2,-1.3894505E-2,7.664035E-2,-2.0129478E-3,-7.850473E-3,5.611449E-4,-7.37122E-2,-1.833931E-3,1.3232964E-2,-3.0544223E-2],"split_indices":[9,16,17,22,24,8,23,24,22,11,8,23,20,5,2,13,23,20,16,4,0,0,2,1,13,1,1,18,4,17,0,17,17,9,2,10,3,22,20,0,23,4,0,0,0,8,19,14,0,1,0,0,0,23,8,20,20,20,20,0,0,0,0,0,0,0,0,0,0,0,0,0,0,0,0,0,0,0,0,0,0,0,0,0,0,0,0,0,0,0,0,0,0,0,0,0,0,0,0],"split_type":[0,0,0,0,0,0,0,0,0,0,0,0,0,0,0,0,0,0,0,0,0,0,0,0,0,0,0,0,0,0,0,0,0,0,0,0,0,0,0,0,0,0,0,0,0,0,0,0,0,0,0,0,0,0,0,0,0,0,0,0,0,0,0,0,0,0,0,0,0,0,0,0,0,0,0,0,0,0,0,0,0,0,0,0,0,0,0,0,0,0,0,0,0,0,0,0,0,0,0],"sum_hessian":[5.7945E4,3.8472E4,1.9473E4,3.5364E4,3.108E3,4.785E3,1.4688E4,1.78E2,3.5186E4,3.7E1,3.071E3,4.778E3,7E0,1.4538E4,1.5E2,1.05E2,7.3E1,1.77E2,3.5009E4,3.5E1,2E0,3.069E3,2E0,4.756E3,2.2E1,4E0,3E0,1.47E2,1.4391E4,1.49E2,1E0,1E1,9.5E1,4.9E1,2.4E1,1.05E2,7.2E1,3.4393E4,6.16E2,1E0,3.4E1,3.068E3,1E0,1E0,1E0,1.3E1,4.743E3,2E1,2E0,2E0,2E0,2E0,1E0,1.37E2,1E1,2.234E3,1.2157E4,3.3E1,1.16E2,2E0,8E0,3.3E1,6.2E1,4.6E1,3E0,1.4E1,1E1,5.6E1,4.9E1,6.4E1,8E0,8.271E3,2.6122E4,7E0,6.09E2,1.4E1,2E1,2.844E3,2.24E2,1.2E1,1E0,4.654E3,8.9E1,1.8E1,2E0,1E0,1E0,1.36E2,1E0,5E0,5E0,2E0,2.232E3,1.5E2,1.2007E4,1E0,3.2E1,1.11E2,5E0],"tree_param":{"num_deleted":"0","num_feature":"25","num_nodes":"99","size_leaf_vector":"1"}},{"base_weights":[1.6393946E-5,-2.3815741E-3,6.592172E-4,-2.331365E-3,-9.260928E-2,3.3984971E-3,-5.283576E-4,-3.5556518E-3,9.648437E-3,-1.6053355E-1,3.4931947E-3,-6.8971533E-3,4.1876506E-4,-4.2181663E-2,-3.151511E-3,1.2097293E-1,7.849072E-3,-2.5066067E-2,-1.13387205E-1,3.405222E-3,1.3804546E-1,-1.9840196E-2,-3.4186293E-3,1.1085363E-3,-8.496903E-3,-1.9973943E-1,-2.8534919E-2,-2.3750786E-2,-2.428263E-3,7.238645E-3,1.2457031E-1,1.064269E-1,6.503808E-3,-1.50599135E-2,5.0402447E-3,4.2468216E-3,-7.834811E-3,8.546727E-3,6.041111E-2,-1.640465E-2,-7.070035E-2,-3.1191898E-3,-1.6499542E-1,6.679091E-4,1.32369995E-2,-9.142745E-3,1.5289553E-1,-1.324806E-2,-1.4885335E-1,2.9015676E-3,-1.6306873E-2,-1.2965468E-2,-2.117091E-3,5.088276E-3,-9.6949E-4,-1.1506899E-2,1.1049301E-2,1.01462364E-1,6.0893022E-3,1.5976792E-3,3.151916E-2,1.5529772E-3,-1.6876555E-3,-1.6850943E-2,-1.4864419E-3,-1.1389444E-2,2.22122E-2,-5.2183587E-3,4.4527363E-2,-2.795416E-2,-5.794319E-3,4.975969E-2,-1.0292332E-3,-1.0536729E-1,4.7775293E-3,1.4060979E-4,7.958752E-3,6.338216E-2,3.6362542E-3,-2.3795867E-3,-2.8058492E-2,7.010972E-2,4.1001723E-3],"categories":[],"categories_nodes":[],"categories_segments":[],"categories_sizes":[],"default_left":[0,0,0,0,0,0,0,0,0,0,0,0,0,0,0,0,0,0,0,0,0,0,0,0,0,0,0,0,0,0,0,0,0,0,0,0,0,0,0,0,0,0,0,0,0,0,0,0,0,0,0,0,0,0,0,0,0,0,0,0,0,0,0,0,0,0,0,0,0,0,0,0,0,0,0,0,0,0,0,0,0,0,0],"id":7,"left_children":[1,3,5,7,-1,9,11,13,15,17,19,21,23,25,27,29,31,33,-1,35,37,39,41,43,45,47,49,51,53,55,-1,57,59,-1,-1,61,63,65,-1,67,69,71,73,75,77,79,81,-1,-1,-1,-1,-1,-1,-1,-1,-1,-1,-1,-1,-1,-1,-1,-1,-1,-1,-1,-1,-1,-1,-1,-1,-1,-1,-1,-1,-1,-1,-1,-1,-1,-1,-1,-1],"loss_changes":[8.9323565E-2,1.8768421E-1,1.486587E-1,1.7968687E-1,0E0,2.1510208E-1,1.9229196E-1,1.7336039E-1,2.2660649E-1,2.2615692E-1,1.630334E-1,1.857408E-1,1.7067789E-1,2.4156778E-1,1.6382456E-1,5.994113E-1,1.4770196E-1,7.157E-3,0E0,1.3062319E-1,7.20834E-2,1.5155634E-1,1.5692197E-1,1.3765597E-1,2.0913634E-1,3.931656E-1,1.0608663E-1,1.2091476E-1,1.656039E-1,2.0302381E-2,0E0,2.9258192E-1,1.2775807E-1,0E0,0E0,1.17924154E-1,1.3363692E-1,1.4995836E-2,0E0,1.3637373E-1,6.173438E-2,1.7164043E-1,2.0774902E-1,1.2805146E-1,1.9703774E-1,2.0217414E-1,8.680707E-2,0E0,0E0,0E0,0E0,0E0,0E0,0E0,0E0,0E0,0E0,0E0,0E0,0E0,0E0,0E0,0E0,0E0,0E0,0E0,0E0,0E0,0E0,0E0,0E0,0E0,0E0,0E0,0E0,0E0,0E0,0E0,0E0,0E0,0E0,0E0,0E0],"parents":[2147483647,0,0,1,1,2,2,3,3,5,5,6,6,7,7,8,8,9,9,10,10,11,11,12,12,13,13,14,14,15,15,16,16,17,17,19,19,20,20,21,21,22,22,23,23,24,24,25,25,26,26,27,27,28,28,29,29,31,31,32,32,35,35,36,36,37,37,39,39,40,40,41,41,42,42,43,43,44,44,45,45,46,46],"right_children":[2,4,6,8,-1,10,12,14,16,18,20,22,24,26,28,30,32,34,-1,36,38,40,42,44,46,48,50,52,54,56,-1,58,60,-1,-1,62,64,66,-1,68,70,72,74,76,78,80,82,-1,-1,-1,-1,-1,-1,-1,-1,-1,-1,-1,-1,-1,-1,-1,-1,-1,-1,-1,-1,-1,-1,-1,-1,-1,-1,-1,-1,-1,-1,-1,-1,-1,-1,-1,-1],"split_conditions":[-1.02980174E-1,2.9247339E0,-8.3428067E-1,1.9317726E-2,-9.260928E-2,-1.8072408E0,-6.147665E-1,-7.2209406E-1,-7.6092446E-1,1.7851873E-1,4.220143E0,-2.621822E-1,4.1487235E-1,-1.1743765E0,-1.5714753E0,1.9135293E-1,-7.100386E-1,-3.8502745E-2,-1.13387205E-1,7.2155535E-1,-7.676779E-2,-1.5287829E-2,-5.602237E-4,1.1355813E0,5.780534E0,-1.199454E0,-1.4182217E-1,-2.770527E-1,-1.2436721E0,4.8466433E-2,1.2457031E-1,-2.4241698E0,2.7450287E0,-1.50599135E-2,5.0402447E-3,2.3976526E0,-1.7926648E0,5.2247066E0,6.041111E-2,1.7120571E0,-2.8144458E-1,-1.5534819E0,5.298742E-1,2.726095E0,-2.4662702E0,1.7589766E0,4.220143E0,-1.324806E-2,-1.4885335E-1,2.9015676E-3,-1.6306873E-2,-1.2965468E-2,-2.117091E-3,5.088276E-3,-9.6949E-4,-1.1506899E-2,1.1049301E-2,1.01462364E-1,6.0893022E-3,1.5976792E-3,3.151916E-2,1.5529772E-3,-1.6876555E-3,-1.6850943E-2,-1.4864419E-3,-1.1389444E-2,2.22122E-2,-5.2183587E-3,4.4527363E-2,-2.795416E-2,-5.794319E-3,4.975969E-2,-1.0292332E-3,-1.0536729E-1,4.7775293E-3,1.4060979E-4,7.958752E-3,6.338216E-2,3.6362542E-3,-2.3795867E-3,-2.8058492E-2,7.010972E-2,4.1001723E-3],"split_indices":[17,6,11,9,0,2,11,23,22,9,1,4,14,4,13,8,16,3,0,13,17,17,24,8,22,4,17,20,13,8,0,20,4,0,0,8,20,1,0,2,22,9,8,23,20,19,1,0,0,0,0,0,0,0,0,0,0,0,0,0,0,0,0,0,0,0,0,0,0,0,0,0,0,0,0,0,0,0,0,0,0,0,0],"split_type":[0,0,0,0,0,0,0,0,0,0,0,0,0,0,0,0,0,0,0,0,0,0,0,0,0,0,0,0,0,0,0,0,0,0,0,0,0,0,0,0,0,0,0,0,0,0,0,0,0,0,0,0,0,0,0,0,0,0,0,0,0,0,0,0,0,0,0,0,0,0,0,0,0,0,0,0,0,0,0,0,0,0,0],"sum_hessian":[5.7945E4,1.2249E4,4.5696E4,1.2248E4,1E0,1.3819E4,3.1877E4,1.1113E4,1.135E3,7E0,1.3812E4,4.126E3,2.7751E4,1.14E2,1.0999E4,1.7E1,1.118E3,5E0,2E0,1.3804E4,8E0,8.73E2,3.253E3,2.5759E4,1.992E3,8E0,1.06E2,3.72E2,1.0627E4,1.3E1,4E0,1.4E1,1.104E3,3E0,2E0,1.2843E4,9.61E2,3E0,5E0,8.19E2,5.4E1,3.248E3,5E0,2.4857E4,9.02E2,1.985E3,7E0,6E0,2E0,4.3E1,6.3E1,1.71E2,2.01E2,4.22E2,1.0205E4,5E0,8E0,3E0,1.1E1,1.092E3,1.2E1,1.1738E4,1.105E3,5.3E1,9.08E2,2E0,1E0,8.15E2,4E0,3.7E1,1.7E1,5E0,3.243E3,2E0,3E0,2.4668E4,1.89E2,4E0,8.98E2,1.958E3,2.7E1,4E0,3E0],"tree_param":{"num_deleted":"0","num_feature":"25","num_nodes":"83","size_leaf_vector":"1"}},{"base_weights":[1.1262626E-5,1.3283451E-2,-9.098401E-5,-2.0547117E-1,1.726683E-2,-4.8685186E-3,2.089601E-4,-3.0240256E-1,7.095728E-2,5.2954085E-2,7.380419E-4,-5.3778343E-2,-4.002826E-3,9.8633446E-2,1.834836E-4,-1.1375036E-1,-7.365955E-2,1.5745267E-1,1.7277118E-2,2.1468334E-1,-1.4255068E-3,-1.1846919E-1,2.7280044E-2,2.3616113E-2,-6.2844553E-3,1.3582368E-1,1.8859571E-3,1.3803408E-3,-1.0463973E-3,-4.1787387E-3,-2.8968057E-2,6.0033105E-2,2.3633055E-1,1.3653113E-4,8.926075E-2,-9.530564E-3,1.0613807E-1,1.0902891E-1,-4.8603313E-3,-2.03994E-2,-2.0957021E-1,9.390803E-3,7.386005E-2,8.055157E-2,9.336481E-3,3.9691262E-2,-7.0395614E-3,2.0172004E-2,-2.7369838E-2,1.3463005E-3,2.343225E-1,-6.680597E-2,-1.0131248E-3,3.902737E-2,-1.0513108E-2,2.8099315E-2,9.352414E-2,-3.870917E-2,1.441073E-3,9.382946E-3,1.2222383E-1,-1.3342306E-2,4.7772143E-2,3.6851168E-2,-2.400526E-3,7.080344E-3,-2.1855049E-2,-1.02718934E-1,-1.6037522E-2,5.903611E-3,-3.7171002E-2,8.0485E-2,6.665477E-3,5.747309E-3,-1.6029552E-2,-2.2480153E-2,2.5904758E-2,-1.792489E-2,-1.8356912E-3,2.4961887E-3,-3.0457295E-2,-1.073231E-2,4.2871028E-4,7.5030723E-3,8.872696E-2,-9.360039E-4,4.340459E-4],"categories":[],"categories_nodes":[],"categories_segments":[],"categories_sizes":[],"default_left":[0,0,0,0,0,0,0,0,0,0,0,0,0,0,0,0,0,0,0,0,0,0,0,0,0,0,0,0,0,0,0,0,0,0,0,0,0,0,0,0,0,0,0,0,0,0,0,0,0,0,0,0,0,0,0,0,0,0,0,0,0,0,0,0,0,0,0,0,0,0,0,0,0,0,0,0,0,0,0,0,0,0,0,0,0,0,0],"id":8,"left_children":[1,3,5,7,9,11,13,15,-1,17,19,21,23,25,27,-1,29,31,33,35,37,39,41,43,45,-1,47,49,51,-1,-1,53,55,57,59,-1,-1,61,63,65,67,69,-1,71,73,75,77,-1,79,81,83,-1,85,-1,-1,-1,-1,-1,-1,-1,-1,-1,-1,-1,-1,-1,-1,-1,-1,-1,-1,-1,-1,-1,-1,-1,-1,-1,-1,-1,-1,-1,-1,-1,-1,-1,-1],"loss_changes":[7.863604E-2,3.8957042E-1,8.240386E-2,4.1427138E-1,2.5714296E-1,1.4361674E-1,1.3565838E-1,9.498733E-2,0E0,5.1177025E-1,1.3870747E-1,3.1261227E-1,2.1055946E-1,4.7877857E-1,7.962884E-2,0E0,2.758596E-3,2.547611E-1,1.2830736E-1,1.1409144E-1,1.132092E-1,2.9055542E-1,1.0342848E-1,2.0656736E-1,1.07379906E-1,0E0,2.4784165E-2,2.1707806E-1,1.965259E-1,0E0,0E0,1.17794216E-1,1.7522883E-1,5.1860254E-2,3.5621378E-1,0E0,0E0,7.6450855E-2,1.16915815E-1,4.0953E-2,3.3420372E-1,3.809249E-2,0E0,5.525411E-1,1.2739816E-1,2.7387896E-1,1.469545E-1,0E0,2.4664218E-2,8.423999E-2,4.4038594E-2,0E0,1.3826683E-1,0E0,0E0,0E0,0E0,0E0,0E0,0E0,0E0,0E0,0E0,0E0,0E0,0E0,0E0,0E0,0E0,0E0,0E0,0E0,0E0,0E0,0E0,0E0,0E0,0E0,0E0,0E0,0E0,0E0,0E0,0E0,0E0,0E0,0E0],"parents":[2147483647,0,0,1,1,2,2,3,3,4,4,5,5,6,6,7,7,9,9,10,10,11,11,12,12,13,13,14,14,16,16,17,17,18,18,19,19,20,20,21,21,22,22,23,23,24,24,26,26,27,27,28,28,31,31,32,32,33,33,34,34,37,37,38,38,39,39,40,40,41,41,43,43,44,44,45,45,46,46,48,48,49,49,50,50,52,52],"right_children":[2,4,6,8,10,12,14,16,-1,18,20,22,24,26,28,-1,30,32,34,36,38,40,42,44,46,-1,48,50,52,-1,-1,54,56,58,60,-1,-1,62,64,66,68,70,-1,72,74,76,78,-1,80,82,84,-1,86,-1,-1,-1,-1,-1,-1,-1,-1,-1,-1,-1,-1,-1,-1,-1,-1,-1,-1,-1,-1,-1,-1,-1,-1,-1,-1,-1,-1,-1,-1,-1,-1,-1,-1],"split_conditions":[-1.2381151E0,-1.3049579E0,-9.622626E-1,1.7248818E-1,-1.9150071E-1,-1.4515829E-1,-6.260426E-1,-6.1385536E-1,7.095728E-2,-6.387633E-1,-2.3820693E0,-1.7926648E0,-1.3800946E-1,-2.0031664E0,-1.7323044E-1,-1.1375036E-1,-1.8072408E0,-6.5658826E-1,-3.7039387E-1,-1.8072408E0,-1.6669519E0,-2.2927201E-1,-7.915228E-2,-6.341635E-1,-7.788283E-1,1.3582368E-1,-3.503386E-1,9.1636485E-1,-3.3924775E0,-4.1787387E-3,-2.8968057E-2,-7.2641325E-1,-1.8347651E0,-6.341635E-1,1.2628205E0,-9.530564E-3,1.0613807E-1,-1.8347651E0,-1.4563487E-1,-5.757424E-1,-1.5943427E-1,-8.02676E-1,7.386005E-2,-9.90659E-1,3.671532E-2,-9.274163E-1,-7.6092446E-1,2.0172004E-2,-4.0637785E-1,-2.4609225E0,-8.02676E-1,-6.680597E-2,4.38653E-1,3.902737E-2,-1.0513108E-2,2.8099315E-2,9.352414E-2,-3.870917E-2,1.441073E-3,9.382946E-3,1.2222383E-1,-1.3342306E-2,4.7772143E-2,3.6851168E-2,-2.400526E-3,7.080344E-3,-2.1855049E-2,-1.02718934E-1,-1.6037522E-2,5.903611E-3,-3.7171002E-2,8.0485E-2,6.665477E-3,5.747309E-3,-1.6029552E-2,-2.2480153E-2,2.5904758E-2,-1.792489E-2,-1.8356912E-3,2.4961887E-3,-3.0457295E-2,-1.073231E-2,4.2871028E-4,7.5030723E-3,8.872696E-2,-9.360039E-4,4.340459E-4],"split_indices":[4,1,4,17,9,17,14,20,0,22,20,20,17,20,23,0,2,9,22,2,13,10,9,22,22,0,9,22,20,0,0,9,20,22,10,0,0,20,17,22,9,1,0,13,9,2,22,0,4,5,1,0,20,0,0,0,0,0,0,0,0,0,0,0,0,0,0,0,0,0,0,0,0,0,0,0,0,0,0,0,0,0,0,0,0,0,0],"split_type":[0,0,0,0,0,0,0,0,0,0,0,0,0,0,0,0,0,0,0,0,0,0,0,0,0,0,0,0,0,0,0,0,0,0,0,0,0,0,0,0,0,0,0,0,0,0,0,0,0,0,0,0,0,0,0,0,0,0,0,0,0,0,0,0,0,0,0,0,0,0,0,0,0,0,0,0,0,0,0,0,0,0,0,0,0,0,0],"sum_hessian":[5.7945E4,4.42E2,5.7503E4,7E0,4.35E2,3.396E3,5.4107E4,6E0,1E0,1.37E2,2.98E2,5.8E1,3.338E3,1.3E1,5.4094E4,4E0,2E0,3.4E1,1.03E2,2E0,2.96E2,3.2E1,2.6E1,2.54E2,3.084E3,2E0,1.1E1,2.7415E4,2.6679E4,1E0,1E0,1.6E1,1.8E1,8.4E1,1.9E1,1E0,1E0,8E0,2.88E2,1.6E1,1.6E1,2.5E1,1E0,5E1,2.04E2,4.9E1,3.035E3,3E0,8E0,2.7412E4,3E0,3E0,2.6676E4,9E0,7E0,7E0,1.1E1,2E0,8.2E1,1.7E1,2E0,2E0,6E0,6E0,2.82E2,9E0,7E0,8E0,8E0,2.4E1,1E0,1.1E1,3.9E1,1.77E2,2.7E1,1.4E1,3.5E1,5.1E1,2.984E3,6E0,2E0,6E1,2.7352E4,1E0,2E0,1.4369E4,1.2307E4],"tree_param":{"num_deleted":"0","num_feature":"25","num_nodes":"87","size_leaf_vector":"1"}},{"base_weights":[1.565438E-5,1.963447E-4,-7.7781244E-3,-2.8675733E-4,6.2275967E-3,2.281906E-1,-8.312166E-3,5.6806544E-4,-2.92447E-3,7.5991396E-3,-6.1343815E-3,1.1031212E-1,-7.626344E-3,-5.8757034E-3,-3.2445088E-2,5.879376E-4,-7.85802E-2,-3.3703607E-3,1.890953E-2,7.688686E-3,-4.9632967E-2,-7.519987E-3,1.8897149E-1,8.2968116E-2,-6.4705345E-3,-2.1709189E-2,-1.8003404E-1,6.842173E-4,-3.2475434E-2,2.6519438E-2,-3.6386119E-3,1.03835024E-1,1.1693483E-2,7.129409E-3,4.2840216E-2,-1.6019996E-3,-2.0765696E-2,7.748857E-2,7.548597E-3,1.0943405E-2,4.5677096E-2,-6.9522746E-3,8.935011E-2,-1.578731E-2,-1.4646427E-1,2.5131743E-2,-2.8193164E-1,7.221599E-5,2.3386132E-3,-1.2588639E-2,7.238126E-2,9.210599E-3,-4.0704213E-2,8.477046E-3,-1.1641842E-3,1.691082E-2,1.0620514E-1,-1.0439778E-3,1.5386711E-2,1.4828378E-2,2.031695E-3,5.2929763E-3,3.6771063E-2,2.9790249E-2,-1.1161946E-3,-7.1452768E-3,1.0748085E-2,-7.513344E-4,9.7102225E-3,-1.9440311E-3,-2.9478122E-2,2.0245635E-3,5.0910648E-2,-2.903124E-2,-2.259327E-3,2.3161932E-3,-5.6082204E-2,-1.4395176E-1,-1.8905416E-2],"categories":[],"categories_nodes":[],"categories_segments":[],"categories_sizes":[],"default_left":[0,0,0,0,0,0,0,0,0,0,0,0,0,0,0,0,0,0,0,0,0,0,0,0,0,0,0,0,0,0,0,0,0,0,0,0,0,0,0,0,0,0,0,0,0,0,0,0,0,0,0,0,0,0,0,0,0,0,0,0,0,0,0,0,0,0,0,0,0,0,0,0,0,0,0,0,0,0,0],"id":9,"left_children":[1,3,5,7,9,11,13,15,17,19,21,-1,-1,23,25,27,-1,29,31,33,-1,35,37,39,41,43,45,47,49,51,53,55,57,59,61,63,65,-1,-1,67,-1,69,71,73,75,-1,77,-1,-1,-1,-1,-1,-1,-1,-1,-1,-1,-1,-1,-1,-1,-1,-1,-1,-1,-1,-1,-1,-1,-1,-1,-1,-1,-1,-1,-1,-1,-1,-1],"loss_changes":[8.1604585E-2,1.6501683E-1,1.6735712E-1,1.1823087E-1,7.125755E-2,1.1549656E-1,7.68948E-2,2.0673731E-1,1.2501016E-1,5.9859872E-2,1.1496379E-1,0E0,0E0,6.353056E-2,1.8623164E-1,1.2608215E-1,0E0,1.00946575E-1,1.5628222E-1,7.400726E-2,0E0,3.2732897E-2,2.7568452E-2,3.8257875E-2,5.532155E-2,8.1170335E-2,2.3866808E-1,1.24528304E-1,3.087732E-1,8.014769E-2,9.633936E-2,2.175453E-1,1.4316875E-1,5.5884063E-2,1.163657E-1,6.2364977E-2,2.3133501E-2,0E0,0E0,1.5215967E-3,0E0,5.023668E-2,3.8678E-2,7.215051E-2,3.264755E-2,0E0,2.2970942E-1,0E0,0E0,0E0,0E0,0E0,0E0,0E0,0E0,0E0,0E0,0E0,0E0,0E0,0E0,0E0,0E0,0E0,0E0,0E0,0E0,0E0,0E0,0E0,0E0,0E0,0E0,0E0,0E0,0E0,0E0,0E0,0E0],"parents":[2147483647,0,0,1,1,2,2,3,3,4,4,5,5,6,6,7,7,8,8,9,9,10,10,13,13,14,14,15,15,17,17,18,18,19,19,21,21,22,22,23,23,24,24,25,25,26,26,27,27,28,28,29,29,30,30,31,31,32,32,33,33,34,34,35,35,36,36,39,39,41,41,42,42,43,43,44,44,46,46],"right_children":[2,4,6,8,10,12,14,16,18,20,22,-1,-1,24,26,28,-1,30,32,34,-1,36,38,40,42,44,46,48,50,52,54,56,58,60,62,64,66,-1,-1,68,-1,70,72,74,76,-1,78,-1,-1,-1,-1,-1,-1,-1,-1,-1,-1,-1,-1,-1,-1,-1,-1,-1,-1,-1,-1,-1,-1,-1,-1,-1,-1,-1,-1,-1,-1,-1,-1],"split_conditions":[1.701663E0,1.4069607E0,-5.677267E-1,5.64954E-1,1.7248818E-1,-8.02676E-1,1.9017619E0,4.4433026E0,2.3438377E0,8.74068E0,3.2988236E0,1.1031212E-1,-7.626344E-3,-2.6182672E-1,1.9607227E0,5.736442E0,-7.85802E-2,-2.8171833E0,-1.7251395E0,5.780534E0,-4.9632967E-2,1.14279725E-1,3.215579E0,5.8408E-1,1.8179171E0,7.2691345E-1,-1.5620089E-1,1.2058967E0,6.2292705E0,1.3870058E0,-6.466856E-1,1.2806597E0,3.4760514E-1,-2.8634603E0,8.360436E-2,-4.5147976E-1,8.6361927E-1,7.748857E-2,7.548597E-3,1.5463953E-1,4.5677096E-2,1.3608607E0,1.7120571E0,-1.7633235E0,2.2110152E0,2.5131743E-2,1.7120571E0,7.221599E-5,2.3386132E-3,-1.2588639E-2,7.238126E-2,9.210599E-3,-4.0704213E-2,8.477046E-3,-1.1641842E-3,1.691082E-2,1.0620514E-1,-1.0439778E-3,1.5386711E-2,1.4828378E-2,2.031695E-3,5.2929763E-3,3.6771063E-2,2.9790249E-2,-1.1161946E-3,-7.1452768E-3,1.0748085E-2,-7.513344E-4,9.7102225E-3,-1.9440311E-3,-2.9478122E-2,2.0245635E-3,5.0910648E-2,-2.903124E-2,-2.259327E-3,2.3161932E-3,-5.6082204E-2,-1.4395176E-1,-1.8905416E-2],"split_indices":[20,20,22,20,17,1,23,18,23,1,4,0,0,10,18,23,0,9,8,22,0,9,1,22,14,10,10,4,1,23,23,20,8,9,17,23,9,0,0,23,0,11,2,8,1,0,2,0,0,0,0,0,0,0,0,0,0,0,0,0,0,0,0,0,0,0,0,0,0,0,0,0,0,0,0,0,0,0,0],"split_type":[0,0,0,0,0,0,0,0,0,0,0,0,0,0,0,0,0,0,0,0,0,0,0,0,0,0,0,0,0,0,0,0,0,0,0,0,0,0,0,0,0,0,0,0,0,0,0,0,0,0,0,0,0,0,0,0,0,0,0,0,0,0,0,0,0,0,0,0,0,0,0,0,0,0,0,0,0,0,0],"sum_hessian":[5.7945E4,5.6633E4,1.312E3,5.2434E4,4.199E3,2E0,1.31E3,3.9601E4,1.2833E4,3.78E3,4.19E2,1E0,1E0,1.191E3,1.19E2,3.9599E4,2E0,1.2577E4,2.56E2,3.779E3,1E0,4.17E2,2E0,7E0,1.184E3,1.12E2,7E0,3.9485E4,1.14E2,1.11E2,1.2466E4,1.9E1,2.37E2,3.721E3,5.8E1,2.89E2,1.28E2,1E0,1E0,4E0,3E0,1.179E3,5E0,1.08E2,4E0,2E0,5E0,3.7168E4,2.317E3,1.11E2,3E0,1.09E2,2E0,9.3E1,1.2373E4,1.7E1,2E0,1.72E2,6.5E1,3E1,3.691E3,4.5E1,1.3E1,5E0,2.84E2,1.22E2,6E0,3E0,1E0,1.174E3,5E0,3E0,2E0,9E0,9.9E1,1E0,3E0,2E0,3E0],"tree_param":{"num_deleted":"0","num_feature":"25","num_nodes":"79","size_leaf_vector":"1"}},{"base_weights":[1.4056768E-5,1.563458E-3,-7.418665E-4,1.3797259E-4,7.1151773E-3,-1.0123732E-2,-3.3309782E-4,8.288672E-4,-1.712157E-2,8.8322304E-2,6.9652935E-3,-9.366933E-3,-1.8382215E-1,-2.603442E-2,-2.057518E-4,6.3283998E-3,-6.3468213E-4,1.5540125E-3,-3.9160382E-2,7.4864947E-3,-7.3724285E-2,-9.975726E-3,1.5606086E-1,4.7745544E-2,-1.108303E-1,-3.1270802E-2,1.3983357E-1,-2.161129E-4,5.768612E-2,5.5092117E-3,1.304057E-1,7.023459E-3,-2.1651238E-3,-5.7904264E-3,1.1666395E-1,-1.1545794E-1,-2.5207255E-2,5.145004E-3,2.5026029E-2,-1.057155E-1,-1.9707602E-2,-8.083657E-3,-5.4259513E-2,1.9503564E-2,8.583509E-2,-1.5153254E-2,2.9200388E-2,-5.7739213E-2,-6.6823573E-3,-1.8264909E-3,9.992324E-4,2.3250777E-2,1.4802337E-3,3.2116347E-3,1.0535304E-1,3.1805744E-3,-2.7986593E-3,-4.6629026E-3,-3.260027E-4,-1.2116422E-2,9.854599E-4,5.550233E-2,-1.3042465E-4,-2.259608E-2,-1.403704E-1,-2.4752634E-2,-2.8141625E-3,-4.4512454E-2,1.6107766E-3,3.7328083E-2,5.5347984E-3,-1.2247171E-2,2.5656521E-2,-3.0026783E-3,1.5710924E-2,5.5610123E-3,-3.4631383E-2,-5.0296495E-3,1.1154525E-2,-6.893718E-3,-3.449294E-2,3.174707E-2,-7.2043305E-3,-8.4656023E-4,2.2332272E-3,4.580997E-2,2.8039594E-4],"categories":[],"categories_nodes":[],"categories_segments":[],"categories_sizes":[],"default_left":[0,0,0,0,0,0,0,0,0,0,0,0,0,0,0,0,0,0,0,0,0,0,0,0,0,0,0,0,0,0,0,0,0,0,0,0,0,0,0,0,0,0,0,0,0,0,0,0,0,0,0,0,0,0,0,0,0,0,0,0,0,0,0,0,0,0,0,0,0,0,0,0,0,0,0,0,0,0,0,0,0,0,0,0,0,0,0],"id":10,"left_children":[1,3,5,7,9,11,13,15,17,-1,19,21,23,25,27,29,31,33,35,37,39,41,43,45,-1,47,-1,49,-1,51,53,55,57,59,61,63,65,67,69,-1,71,73,75,77,-1,-1,-1,79,81,83,85,-1,-1,-1,-1,-1,-1,-1,-1,-1,-1,-1,-1,-1,-1,-1,-1,-1,-1,-1,-1,-1,-1,-1,-1,-1,-1,-1,-1,-1,-1,-1,-1,-1,-1,-1,-1],"loss_changes":[6.786916E-2,1.5037093E-1,1.4935502E-1,1.80313E-1,1.6511051E-1,2.1202335E-1,1.22144826E-1,1.1702606E-1,2.3960486E-1,0E0,1.6376945E-1,1.6470896E-1,3.185113E-1,4.88756E-1,7.41109E-2,3.099015E-1,1.3461158E-1,2.678276E-1,2.8133506E-1,1.5827307E-1,3.6936352E-1,1.3487892E-1,1.0098037E-1,2.440623E-2,0E0,1.1871369E-1,0E0,7.268507E-2,0E0,1.2535962E-1,5.2476764E-1,1.1204012E-1,1.3808177E-1,9.369982E-2,1.5213686E-1,5.44754E-1,2.0509112E-1,1.17986225E-1,2.9449788E-1,0E0,5.237653E-2,1.8092725E-1,2.960747E-1,3.188056E-3,0E0,0E0,0E0,1.7244059E-1,1.8973754E-1,1.4741535E-1,2.0720506E-1,0E0,0E0,0E0,0E0,0E0,0E0,0E0,0E0,0E0,0E0,0E0,0E0,0E0,0E0,0E0,0E0,0E0,0E0,0E0,0E0,0E0,0E0,0E0,0E0,0E0,0E0,0E0,0E0,0E0,0E0,0E0,0E0,0E0,0E0,0E0,0E0],"parents":[2147483647,0,0,1,1,2,2,3,3,4,4,5,5,6,6,7,7,8,8,10,10,11,11,12,12,13,13,14,14,15,15,16,16,17,17,18,18,19,19,20,20,21,21,22,22,23,23,25,25,27,27,29,29,30,30,31,31,32,32,33,33,34,34,35,35,36,36,37,37,38,38,40,40,41,41,42,42,43,43,47,47,48,48,49,49,50,50],"right_children":[2,4,6,8,10,12,14,16,18,-1,20,22,24,26,28,30,32,34,36,38,40,42,44,46,-1,48,-1,50,-1,52,54,56,58,60,62,64,66,68,70,-1,72,74,76,78,-1,-1,-1,80,82,84,86,-1,-1,-1,-1,-1,-1,-1,-1,-1,-1,-1,-1,-1,-1,-1,-1,-1,-1,-1,-1,-1,-1,-1,-1,-1,-1,-1,-1,-1,-1,-1,-1,-1,-1,-1,-1],"split_conditions":[-3.8502745E-2,-1.2634572E-1,-1.2032601E0,3.4163275E-1,-2.1225646E0,3.1808934E0,-2.7956443E0,-4.084936E-1,-2.1679623E-1,8.8322304E-2,-6.703139E-2,5.5910176E-1,-6.7848533E-1,7.735436E0,7.8708286E0,1.2806597E0,-6.6776025E-1,-1.9739865E-1,-1.4961421E0,-1.7070848E-1,-8.2435703E-1,9.992699E-3,3.717861E0,-7.9075E-1,-1.108303E-1,3.3967793E-1,1.3983357E-1,-5.050094E-1,5.768612E-2,-7.788283E-1,4.4893228E-2,4.38653E-1,-5.385533E-1,4.4662938E-1,-4.8621526E-1,-4.2756227E-1,-2.1383588E-1,-3.4345777E0,-1.044029E-1,-1.057155E-1,2.3960333E0,3.42459E0,-1.8347651E0,-5.361486E-4,8.583509E-2,-1.5153254E-2,2.9200388E-2,-3.1038544E-1,-2.4780641E-1,1.7120571E0,-7.164841E-2,2.3250777E-2,1.4802337E-3,3.2116347E-3,1.0535304E-1,3.1805744E-3,-2.7986593E-3,-4.6629026E-3,-3.260027E-4,-1.2116422E-2,9.854599E-4,5.550233E-2,-1.3042465E-4,-2.259608E-2,-1.403704E-1,-2.4752634E-2,-2.8141625E-3,-4.4512454E-2,1.6107766E-3,3.7328083E-2,5.5347984E-3,-1.2247171E-2,2.5656521E-2,-3.0026783E-3,1.5710924E-2,5.5610123E-3,-3.4631383E-2,-5.0296495E-3,1.1154525E-2,-6.893718E-3,-3.449294E-2,3.174707E-2,-7.2043305E-3,-8.4656023E-4,2.2332272E-3,4.580997E-2,2.8039594E-4],"split_indices":[3,4,20,23,8,3,12,8,10,0,24,10,16,14,2,20,9,4,16,10,20,10,1,9,0,4,0,11,0,22,9,20,9,23,9,9,10,20,4,0,4,22,20,1,0,0,0,22,10,2,24,0,0,0,0,0,0,0,0,0,0,0,0,0,0,0,0,0,0,0,0,0,0,0,0,0,0,0,0,0,0,0,0,0,0,0,0],"split_type":[0,0,0,0,0,0,0,0,0,0,0,0,0,0,0,0,0,0,0,0,0,0,0,0,0,0,0,0,0,0,0,0,0,0,0,0,0,0,0,0,0,0,0,0,0,0,0,0,0,0,0,0,0,0,0,0,0,0,0,0,0,0,0,0,0,0,0,0,0,0,0,0,0,0,0,0,0,0,0,0,0,0,0,0,0,0,0],"sum_hessian":[5.7945E4,1.9E4,3.8945E4,1.5119E4,3.881E3,1.625E3,3.732E4,1.4538E4,5.81E2,1E0,3.88E3,1.619E3,6E0,1.83E2,3.7137E4,3.055E3,1.1483E4,3.15E2,2.66E2,3.856E3,2.4E1,1.614E3,5E0,3E0,3E0,1.82E2,1E0,3.7136E4,1E0,3.036E3,1.9E1,1.912E3,9.571E3,2.97E2,1.8E1,4E1,2.26E2,3.403E3,4.53E2,3E0,2.1E1,1.549E3,6.5E1,3E0,2E0,1E0,2E0,8.7E1,9.5E1,1.5972E4,2.1164E4,2.3E1,3.013E3,1.3E1,6E0,1.569E3,3.43E2,7.13E2,8.858E3,6.1E1,2.36E2,1.1E1,7E0,3.7E1,3E0,4.8E1,1.78E2,4E0,3.399E3,2.7E1,4.26E2,1.8E1,3E0,1.502E3,4.7E1,3E1,3.5E1,1E0,2E0,5.5E1,3.2E1,1.2E1,8.3E1,1.4424E4,1.548E3,8E0,2.1156E4],"tree_param":{"num_deleted":"0","num_feature":"25","num_nodes":"87","size_leaf_vector":"1"}},{"base_weights":[1.3038315E-5,1.3016594E-4,-9.244429E-3,-5.413339E-2,1.5008454E-4,6.306815E-2,-9.838757E-3,-7.326861E-2,-8.882583E-3,-4.1439463E-4,1.726873E-3,-1.3387473E-1,-8.263704E-3,-2.4635272E-2,1.790724E-2,-5.597888E-5,-8.181839E-3,1.6318774E-3,8.580261E-2,-8.134178E-2,-5.5922117E-2,-2.624552E-3,-3.0413305E-2,6.889229E-2,-1.807249E-2,-7.446468E-4,4.7762245E-3,2.0274347E-1,-8.632254E-3,2.1249136E-2,1.3383611E-3,3.0875972E-2,7.6978564E-2,-2.0687945E-2,-4.665571E-3,4.0875293E-2,-7.6223416E-3,-2.6772502E-1,-2.5222057E-2,2.718431E-2,5.0896294E-3,8.226406E-3,-1.3616892E-2,-1.7003046E-2,-2.0623159E-4,2.65044E-3,-1.168678E-4,1.085982E-2,7.385751E-2,-6.476442E-3,-1.3292048E-3,1.9360546E-2,3.0559998E-3,4.2094238E-4,-2.1800645E-2,-1.4914637E-2,2.435188E-2,5.1048502E-2,7.725957E-3,-1.807002E-2,-1.2341035E-3,-1.0139973E-1,-1.9076534E-2,-1.3585759E-2,-3.1771518E-3],"categories":[],"categories_nodes":[],"categories_segments":[],"categories_sizes":[],"default_left":[0,0,0,0,0,0,0,0,0,0,0,0,0,0,0,0,0,0,0,0,0,0,0,0,0,0,0,0,0,0,0,0,0,0,0,0,0,0,0,0,0,0,0,0,0,0,0,0,0,0,0,0,0,0,0,0,0,0,0,0,0,0,0,0,0],"id":11,"left_children":[1,3,5,7,9,-1,11,-1,13,15,17,19,21,-1,23,25,27,29,31,-1,33,35,37,39,41,43,45,47,49,51,53,55,-1,-1,-1,57,59,61,63,-1,-1,-1,-1,-1,-1,-1,-1,-1,-1,-1,-1,-1,-1,-1,-1,-1,-1,-1,-1,-1,-1,-1,-1,-1,-1],"loss_changes":[6.283235E-2,6.1857883E-2,9.650546E-2,1.7847188E-1,5.0915066E-2,0E0,1.4014128E-1,0E0,3.6785644E-2,1.17271684E-1,1.2030135E-1,8.113849E-2,8.9227244E-2,0E0,2.6927054E-2,1.3400343E-1,1.782673E-1,8.670987E-2,1.5155543E-1,0E0,2.6118886E-3,1.2444872E-1,1.7187925E-1,5.2304436E-3,1.2429502E-2,1.12737365E-1,1.05314255E-1,2.0032182E-2,1.0088143E-1,1.0564736E-1,7.1262255E-2,6.0784593E-2,0E0,0E0,0E0,1.1096762E-1,9.44492E-2,2.1543697E-2,4.150013E-2,0E0,0E0,0E0,0E0,0E0,0E0,0E0,0E0,0E0,0E0,0E0,0E0,0E0,0E0,0E0,0E0,0E0,0E0,0E0,0E0,0E0,0E0,0E0,0E0,0E0,0E0],"parents":[2147483647,0,0,1,1,2,2,3,3,4,4,6,6,8,8,9,9,10,10,11,11,12,12,14,14,15,15,16,16,17,17,18,18,20,20,21,21,22,22,23,23,24,24,25,25,26,26,27,27,28,28,29,29,30,30,31,31,35,35,36,36,37,37,38,38],"right_children":[2,4,6,8,10,-1,12,-1,14,16,18,20,22,-1,24,26,28,30,32,-1,34,36,38,40,42,44,46,48,50,52,54,56,-1,-1,-1,58,60,62,64,-1,-1,-1,-1,-1,-1,-1,-1,-1,-1,-1,-1,-1,-1,-1,-1,-1,-1,-1,-1,-1,-1,-1,-1,-1,-1],"split_conditions":[5.529473E0,-3.2578988E0,-2.8030727E0,-1.3872434E-1,7.056947E-1,6.306815E-2,-3.19153E-1,-7.326861E-2,-7.170703E-1,9.0978885E-1,4.3515306E0,7.6392083E-4,5.267542E-2,-2.4635272E-2,-5.5209863E-1,1.8745123E-1,-2.3399692E0,7.153836E-1,2.7450287E0,-8.134178E-2,5.087613E-1,-5.8355206E-1,-1.4794031E0,4.5273113E-1,-1.9189657E0,-2.6423302E0,4.7849625E-1,-3.8965952E-1,-4.8794305E-1,-7.97695E-1,1.893135E0,1.2175957E0,7.6978564E-2,-2.0687945E-2,-4.665571E-3,-1.5075168E-1,-6.199328E-1,-4.7591813E-2,-4.5489803E-1,2.718431E-2,5.0896294E-3,8.226406E-3,-1.3616892E-2,-1.7003046E-2,-2.0623159E-4,2.65044E-3,-1.168678E-4,1.085982E-2,7.385751E-2,-6.476442E-3,-1.3292048E-3,1.9360546E-2,3.0559998E-3,4.2094238E-4,-2.1800645E-2,-1.4914637E-2,2.435188E-2,5.1048502E-2,7.725957E-3,-1.807002E-2,-1.2341035E-3,-1.0139973E-1,-1.9076534E-2,-1.3585759E-2,-3.1771518E-3],"split_indices":[7,3,20,17,9,0,20,0,22,6,2,5,24,0,22,18,20,9,4,0,8,22,8,8,20,9,6,4,8,11,3,9,0,0,0,20,23,2,23,0,0,0,0,0,0,0,0,0,0,0,0,0,0,0,0,0,0,0,0,0,0,0,0,0,0],"split_type":[0,0,0,0,0,0,0,0,0,0,0,0,0,0,0,0,0,0,0,0,0,0,0,0,0,0,0,0,0,0,0,0,0,0,0,0,0,0,0,0,0,0,0,0,0,0,0,0,0,0,0,0,0,0,0,0,0,0,0,0,0,0,0,0,0],"sum_hessian":[5.7945E4,5.7222E4,7.23E2,2E1,5.7202E4,1E0,7.22E2,3E0,1.7E1,4.2123E4,1.5079E4,8E0,7.14E2,4E0,1.3E1,4.0266E4,1.857E3,1.5063E4,1.6E1,2E0,6E0,5.7E2,1.44E2,5E0,8E0,3.5244E4,5.022E3,3E0,1.854E3,2.21E2,1.4842E4,1.3E1,3E0,4E0,2E0,5.8E1,5.12E2,2E0,1.42E2,3E0,2E0,3E0,5E0,3.5E1,3.5209E4,2.812E3,2.21E3,1E0,2E0,4.53E2,1.401E3,4.4E1,1.77E2,1.483E4,1.2E1,5E0,8E0,5E0,5.3E1,3.1E1,4.81E2,1E0,1E0,5.9E1,8.3E1],"tree_param":{"num_deleted":"0","num_feature":"25","num_nodes":"65","size_leaf_vector":"1"}},{"base_weights":[8.04432E-6,-1.1755448E-3,7.17407E-4,-1.143663E-3,-6.946012E-2,3.6932824E-3,-1.5887048E-4,-1.2219063E-3,6.1745536E-2,-1.41270785E-2,4.6160044E-3,-1.3069531E-3,3.555702E-3,-1.1299009E-3,-1.4357209E-1,-2.4810452E-2,8.7657265E-2,-9.477663E-3,-8.1715554E-2,6.668075E-3,-2.0663142E-3,-2.6132487E-2,-9.703615E-4,7.951673E-2,3.1159464E-3,5.970967E-2,-1.2057296E-3,7.400807E-2,-2.0964013E-1,-3.0005641E-2,4.3940735E-3,9.960638E-2,-2.269876E-2,-3.1515323E-2,5.297864E-4,1.1657614E-2,-1.0540446E-1,6.4306837E-3,1.4812754E-1,1.8470261E-2,-5.037094E-3,-2.0005638E-2,-3.6646023E-1,5.730926E-2,-9.976195E-4,1.6409019E-1,1.0550118E-2,1.3402273E-1,2.9359835E-3,8.5400074E-4,2.505065E-2,-2.9785125E-4,-6.387318E-3,2.5867745E-2,5.6032236E-3,-1.9247046E-2,-1.1141663E-1,-2.4086894E-3,5.84803E-3,7.405208E-3,4.141513E-2,-5.7342076E-3,-3.694793E-2,1.2132734E-2,-1.5522947E-3,-8.853129E-2,-2.1503778E-2,2.6980355E-2,1.8617659E-3,6.596077E-2,-4.3357024E-3,-2.3837678E-2,9.507408E-3,2.6569832E-2,-1.7918708E-3,8.683202E-2,-6.6410718E-3,-1.4113319E-1,7.4211853E-3,-1.1551296E-3,1.5091273E-4,1.1044816E-2,6.9049664E-2,2.1798288E-2,-6.983702E-3,7.286527E-4,5.9824463E-2,3.7985502E-4,3.4640862E-3],"categories":[],"categories_nodes":[],"categories_segments":[],"categories_sizes":[],"default_left":[0,0,0,0,0,0,0,0,0,0,0,0,0,0,0,0,0,0,0,0,0,0,0,0,0,0,0,0,0,0,0,0,0,0,0,0,0,0,0,0,0,0,0,0,0,0,0,0,0,0,0,0,0,0,0,0,0,0,0,0,0,0,0,0,0,0,0,0,0,0,0,0,0,0,0,0,0,0,0,0,0,0,0,0,0,0,0,0,0],"id":12,"left_children":[1,3,5,7,-1,9,11,13,15,17,19,21,23,25,27,29,31,33,35,37,39,41,43,45,47,49,51,53,55,-1,57,59,-1,61,63,-1,65,67,69,71,73,75,77,-1,79,81,83,85,87,-1,-1,-1,-1,-1,-1,-1,-1,-1,-1,-1,-1,-1,-1,-1,-1,-1,-1,-1,-1,-1,-1,-1,-1,-1,-1,-1,-1,-1,-1,-1,-1,-1,-1,-1,-1,-1,-1,-1,-1],"loss_changes":[4.865195E-2,1.5921535E-1,9.4482504E-2,1.0691784E-1,0E0,1.3559042E-1,1.19376086E-1,2.8387198E-1,6.273084E-2,1.2680978E-1,1.0747935E-1,1.786524E-1,2.2052127E-1,1.0006243E-1,2.1676642E-1,1.5814459E-2,4.851854E-2,8.404273E-2,7.835896E-2,2.0040071E-1,1.12472795E-1,5.8901775E-1,1.1060814E-1,2.1991313E-1,1.5443215E-1,3.629093E-2,9.25459E-2,1.0935888E-3,2.3502189E-1,0E0,1.2819915E-3,5.4198712E-2,0E0,1.3289058E-1,6.0085382E-2,0E0,1.19595766E-1,1.1182669E-1,1.1981523E-1,3.041906E-1,1.4155637E-1,1.9238943E-1,2.1502835E-1,0E0,9.031618E-2,1.3449076E-1,4.7916897E-2,7.6962516E-2,9.4366506E-2,0E0,0E0,0E0,0E0,0E0,0E0,0E0,0E0,0E0,0E0,0E0,0E0,0E0,0E0,0E0,0E0,0E0,0E0,0E0,0E0,0E0,0E0,0E0,0E0,0E0,0E0,0E0,0E0,0E0,0E0,0E0,0E0,0E0,0E0,0E0,0E0,0E0,0E0,0E0,0E0],"parents":[2147483647,0,0,1,1,2,2,3,3,5,5,6,6,7,7,8,8,9,9,10,10,11,11,12,12,13,13,14,14,15,15,16,16,17,17,18,18,19,19,20,20,21,21,22,22,23,23,24,24,25,25,26,26,27,27,28,28,30,30,31,31,33,33,34,34,36,36,37,37,38,38,39,39,40,40,41,41,42,42,44,44,45,45,46,46,47,47,48,48],"right_children":[2,4,6,8,-1,10,12,14,16,18,20,22,24,26,28,30,32,34,36,38,40,42,44,46,48,50,52,54,56,-1,58,60,-1,62,64,-1,66,68,70,72,74,76,78,-1,80,82,84,86,88,-1,-1,-1,-1,-1,-1,-1,-1,-1,-1,-1,-1,-1,-1,-1,-1,-1,-1,-1,-1,-1,-1,-1,-1,-1,-1,-1,-1,-1,-1,-1,-1,-1,-1,-1,-1,-1,-1,-1,-1],"split_conditions":[-4.481737E-1,2.6700313E0,-3.8502745E-2,1.5874946E0,-6.946012E-2,-1.5432261E0,2.2286195E-1,2.0930233E0,9.2436993E-1,6.834217E-1,-7.096563E-2,-1.3991581E-1,4.1151857E-1,-1.8738179E0,-8.117975E-1,-2.4609225E0,3.55859E-1,-3.7396765E-1,-3.0293316E-1,1.3870058E0,-1.3753287E-1,9.992699E-3,-3.6450794E0,1.6709056E0,-7.2209406E-1,-3.8502745E-2,1.3548018E0,-9.274163E-1,-1.3459243E0,-3.0005641E-2,-9.8111135E-1,-2.2386615E-1,-2.269876E-2,-1.864296E-1,-2.8451407E-1,1.1657614E-2,-2.6845157E-1,-1.3049579E0,-9.90659E-1,-1.9739865E-1,-2.513E-1,-1.4961421E0,2.5918818E0,5.730926E-2,2.0188774E-1,-4.6646944E-1,-3.6687273E-1,-1.2634572E-1,5.2603215E-2,8.5400074E-4,2.505065E-2,-2.9785125E-4,-6.387318E-3,2.5867745E-2,5.6032236E-3,-1.9247046E-2,-1.1141663E-1,-2.4086894E-3,5.84803E-3,7.405208E-3,4.141513E-2,-5.7342076E-3,-3.694793E-2,1.2132734E-2,-1.5522947E-3,-8.853129E-2,-2.1503778E-2,2.6980355E-2,1.8617659E-3,6.596077E-2,-4.3357024E-3,-2.3837678E-2,9.507408E-3,2.6569832E-2,-1.7918708E-3,8.683202E-2,-6.6410718E-3,-1.4113319E-1,7.4211853E-3,-1.1551296E-3,1.5091273E-4,1.1044816E-2,6.9049664E-2,2.1798288E-2,-6.983702E-3,7.286527E-4,5.9824463E-2,3.7985502E-4,3.4640862E-3],"split_indices":[4,18,3,22,0,16,12,23,23,22,22,17,12,13,4,5,8,22,4,23,17,10,20,8,23,3,12,2,16,0,13,10,0,10,22,0,4,1,13,4,10,16,2,0,1,23,22,4,24,0,0,0,0,0,0,0,0,0,0,0,0,0,0,0,0,0,0,0,0,0,0,0,0,0,0,0,0,0,0,0,0,0,0,0,0,0,0,0,0],"split_type":[0,0,0,0,0,0,0,0,0,0,0,0,0,0,0,0,0,0,0,0,0,0,0,0,0,0,0,0,0,0,0,0,0,0,0,0,0,0,0,0,0,0,0,0,0,0,0,0,0,0,0,0,0,0,0,0,0,0,0,0,0,0,0,0,0,0,0,0,0,0,0,0,0,0,0,0,0,0,0,0,0,0,0,0,0,0,0,0,0],"sum_hessian":[5.7945E4,2.1714E4,3.6231E4,2.1712E4,2E0,8.241E3,2.799E4,2.1686E4,2.6E1,4.05E2,7.836E3,2.1382E4,6.608E3,2.1673E4,1.3E1,6E0,2E1,3.8E2,2.5E1,5.995E3,1.841E3,2.85E2,2.1097E4,3.7E1,6.571E3,2.6E1,2.1647E4,3E0,1E1,1E0,5E0,1.9E1,1E0,1.18E2,2.62E2,4E0,2.1E1,5.986E3,9E0,2.32E2,1.609E3,2.81E2,4E0,2E0,2.1095E4,1.6E1,2.1E1,8E0,6.563E3,8E0,1.8E1,2.1421E4,2.26E2,2E0,1E0,6E0,4E0,3E0,2E0,7E0,1.2E1,1.05E2,1.3E1,3.2E1,2.3E2,2E0,1.9E1,1.5E1,5.971E3,6E0,3E0,2.7E1,2.05E2,1.5E1,1.594E3,1E0,2.8E2,3E0,1E0,7.271E3,1.3824E4,6E0,1E1,7E0,1.4E1,3E0,5E0,5.498E3,1.065E3],"tree_param":{"num_deleted":"0","num_feature":"25","num_nodes":"89","size_leaf_vector":"1"}},{"base_weights":[5.3316085E-6,1.0632295E-2,-7.653661E-5,-1.5195158E-1,1.35910995E-2,-3.2520085E-4,3.0481215E-3,-2.3128319E-1,6.0505453E-2,3.9206993E-2,1.7229257E-3,-1.6781002E-4,-8.435475E-3,2.708097E-3,1.054692E-1,-3.4382476E-3,-7.9803035E-2,1.1480154E-1,1.3389528E-2,-1.8198276E-2,2.0347774E-2,-1.0446638E-3,1.1052652E-3,-1.4238213E-1,-7.76402E-3,2.315248E-2,1.190316E-3,2.641646E-1,5.700625E-2,1.5390211E-1,1.6598857E-3,-1.2027669E-3,6.483208E-2,-2.3319058E-2,1.2984739E-1,1.1498086E-1,1.441549E-2,6.541598E-3,-1.4270575E-3,9.94839E-3,4.7492314E-4,-5.4228205E-2,1.669811E-3,-1.1746688E-1,-7.21106E-3,2.1848003E-4,4.7711458E-2,6.866549E-2,8.453994E-4,1.6428327E-2,1.02445744E-1,1.1178829E-2,4.375992E-2,1.4615007E-2,6.83371E-2,3.8293876E-2,-7.956455E-3,1.4535361E-3,-2.3585057E-2,4.8801657E-3,7.092364E-2,2.5303666E-2,-8.871832E-3,-7.214852E-4,4.9053516E-2,-2.9582805E-3,8.204951E-2,5.0282613E-3,-4.9201496E-2,4.138512E-3,-4.094431E-3,7.146818E-4,-6.6323613E-4,3.167812E-3,-6.2602215E-2,-2.2939209E-2,1.5988467E-4,-5.1886938E-3,-4.145573E-2,-3.5834543E-3,1.624693E-3,-4.0682577E-2,3.221627E-3,2.8907958E-2,2.8237663E-3,5.2221186E-2,3.3174756E-3,-2.8828725E-2,3.6535267E-4,1.5186487E-2,-5.0938516E-3],"categories":[],"categories_nodes":[],"categories_segments":[],"categories_sizes":[],"default_left":[0,0,0,0,0,0,0,0,0,0,0,0,0,0,0,0,0,0,0,0,0,0,0,0,0,0,0,0,0,0,0,0,0,0,0,0,0,0,0,0,0,0,0,0,0,0,0,0,0,0,0,0,0,0,0,0,0,0,0,0,0,0,0,0,0,0,0,0,0,0,0,0,0,0,0,0,0,0,0,0,0,0,0,0,0,0,0,0,0,0,0],"id":13,"left_children":[1,3,5,7,9,11,13,15,-1,17,19,21,23,25,27,-1,-1,29,31,33,35,37,39,41,43,45,47,49,51,53,55,57,59,61,63,65,67,69,71,73,75,-1,-1,77,79,81,83,85,87,-1,-1,89,-1,-1,-1,-1,-1,-1,-1,-1,-1,-1,-1,-1,-1,-1,-1,-1,-1,-1,-1,-1,-1,-1,-1,-1,-1,-1,-1,-1,-1,-1,-1,-1,-1,-1,-1,-1,-1,-1,-1],"loss_changes":[5.0414447E-2,2.1517207E-1,4.4681065E-2,2.7108264E-1,1.324825E-1,6.799171E-2,1.4734039E-1,5.038762E-2,0E0,2.6779187E-1,1.11308075E-1,5.8331225E-2,9.009273E-2,1.3110563E-1,9.261282E-2,0E0,0E0,1.5458116E-1,7.814713E-2,1.1295377E-1,8.535797E-2,8.97702E-2,1.18792474E-1,2.9396296E-2,6.042091E-2,1.6445433E-1,9.152245E-2,2.9873863E-2,4.723616E-2,1.9097382E-1,3.8890097E-2,3.877262E-2,1.8780775E-1,9.743018E-2,2.2654168E-2,1.8080345E-1,6.426304E-2,2.1765882E-1,8.795166E-2,1.9161229E-1,8.886074E-2,0E0,0E0,7.987179E-3,6.0195442E-2,2.1865489E-1,2.6180148E-1,1.19517066E-1,1.4150433E-1,0E0,0E0,1.085532E-2,0E0,0E0,0E0,0E0,0E0,0E0,0E0,0E0,0E0,0E0,0E0,0E0,0E0,0E0,0E0,0E0,0E0,0E0,0E0,0E0,0E0,0E0,0E0,0E0,0E0,0E0,0E0,0E0,0E0,0E0,0E0,0E0,0E0,0E0,0E0,0E0,0E0,0E0,0E0],"parents":[2147483647,0,0,1,1,2,2,3,3,4,4,5,5,6,6,7,7,9,9,10,10,11,11,12,12,13,13,14,14,17,17,18,18,19,19,20,20,21,21,22,22,23,23,24,24,25,25,26,26,27,27,28,28,29,29,30,30,31,31,32,32,33,33,34,34,35,35,36,36,37,37,38,38,39,39,40,40,43,43,44,44,45,45,46,46,47,47,48,48,51,51],"right_children":[2,4,6,8,10,12,14,16,-1,18,20,22,24,26,28,-1,-1,30,32,34,36,38,40,42,44,46,48,50,52,54,56,58,60,62,64,66,68,70,72,74,76,-1,-1,78,80,82,84,86,88,-1,-1,90,-1,-1,-1,-1,-1,-1,-1,-1,-1,-1,-1,-1,-1,-1,-1,-1,-1,-1,-1,-1,-1,-1,-1,-1,-1,-1,-1,-1,-1,-1,-1,-1,-1,-1,-1,-1,-1,-1,-1],"split_conditions":[-1.2381151E0,-1.3049579E0,8.478812E-1,1.7248818E-1,-1.9150071E-1,8.4369725E-1,1.0954161E0,-1.3262612E0,6.0505453E-2,-6.387633E-1,-8.48698E-2,3.0866414E-1,-3.1398754E0,-1.3610311E-1,-3.19153E-1,-3.4382476E-3,-7.9803035E-2,-4.5868117E-1,-3.7748876E-1,4.2539763E-1,-6.8910086E-1,-8.079414E-1,-7.822567E-1,1.7013973E-1,-1.4280993E0,-9.90659E-1,-7.08725E-1,-8.02676E-1,9.017567E-1,-1.6242634E0,-1.959096E-2,-4.0103173E-1,7.2691345E-1,-7.119177E-2,-1.3154374E0,6.06222E-1,1.3870058E0,9.1935724E-2,-7.144979E-2,3.215579E0,-7.788283E-1,-5.4228205E-2,1.669811E-3,1.1333197E0,1.8098915E-1,9.6798524E-2,-9.858852E-1,-1.1611598E0,-7.6092446E-1,1.6428327E-2,1.02445744E-1,-4.4980583E-1,4.375992E-2,1.4615007E-2,6.83371E-2,3.8293876E-2,-7.956455E-3,1.4535361E-3,-2.3585057E-2,4.8801657E-3,7.092364E-2,2.5303666E-2,-8.871832E-3,-7.214852E-4,4.9053516E-2,-2.9582805E-3,8.204951E-2,5.0282613E-3,-4.9201496E-2,4.138512E-3,-4.094431E-3,7.146818E-4,-6.6323613E-4,3.167812E-3,-6.2602215E-2,-2.2939209E-2,1.5988467E-4,-5.1886938E-3,-4.145573E-2,-3.5834543E-3,1.624693E-3,-4.0682577E-2,3.221627E-3,2.8907958E-2,2.8237663E-3,5.2221186E-2,3.3174756E-3,-2.8828725E-2,3.6535267E-4,1.5186487E-2,-5.0938516E-3],"split_indices":[4,1,16,17,9,16,8,3,0,22,17,9,20,17,20,0,0,23,22,14,23,8,20,9,8,13,23,1,20,20,8,22,10,24,4,9,23,9,24,1,22,0,0,9,23,8,13,20,22,0,0,22,0,0,0,0,0,0,0,0,0,0,0,0,0,0,0,0,0,0,0,0,0,0,0,0,0,0,0,0,0,0,0,0,0,0,0,0,0,0,0],"split_type":[0,0,0,0,0,0,0,0,0,0,0,0,0,0,0,0,0,0,0,0,0,0,0,0,0,0,0,0,0,0,0,0,0,0,0,0,0,0,0,0,0,0,0,0,0,0,0,0,0,0,0,0,0,0,0,0,0,0,0,0,0,0,0,0,0,0,0,0,0,0,0,0,0,0,0,0,0,0,0,0,0,0,0,0,0,0,0,0,0,0,0],"sum_hessian":[5.7945E4,4.42E2,5.7503E4,7E0,4.35E2,5.3265E4,4.238E3,6E0,1E0,1.37E2,2.98E2,5.2252E4,1.013E3,4.225E3,1.3E1,1E0,5E0,3.4E1,1.03E2,1.44E2,1.54E2,3.0941E4,2.1311E4,4E0,1.009E3,2.91E2,3.934E3,2E0,1.1E1,2.5E1,9E0,8.1E1,2.2E1,1.4E2,4E0,8E0,1.46E2,1.484E3,2.9457E4,1.417E3,1.9894E4,3E0,1E0,4E0,1.005E3,1.51E2,1.4E2,1.9E1,3.915E3,1E0,1E0,8E0,3E0,1.1E1,1.4E1,1E0,8E0,7.6E1,5E0,1.8E1,4E0,7E0,1.33E2,1E0,3E0,5E0,3E0,1.45E2,1E0,1.092E3,3.92E2,5.026E3,2.4431E4,1.414E3,3E0,1.4E1,1.988E4,1E0,3E0,7.31E2,2.74E2,1E1,1.41E2,6.1E1,7.9E1,6E0,1.3E1,1.4E1,3.901E3,3E0,5E0],"tree_param":{"num_deleted":"0","num_feature":"25","num_nodes":"91","size_leaf_vector":"1"}},{"base_weights":[8.127585E-6,1.361066E-4,-5.5120336E-3,-1.9608832E-4,4.2833695E-3,1.9429593E-1,-5.965056E-3,4.156525E-4,-2.0837276E-3,3.8668024E-3,3.5607092E-2,9.368079E-2,-6.2476257E-3,-5.3552226E-3,-8.4768794E-2,4.3153443E-4,-6.2809266E-2,-1.1781796E-2,-1.4165042E-3,3.9359545E-3,-4.241522E-2,1.3104552E-1,1.1486429E-2,-1.260172E-2,-4.739394E-4,1.435069E-3,-1.7125967E-1,3.8643333E-4,6.195943E-2,9.0905085E-2,-1.353559E-2,-1.2777679E-3,-4.6272505E-2,3.5689725E-3,2.9290512E-2,3.1545945E-2,2.0870417E-1,1.8023197E-3,6.563809E-2,-8.693372E-3,-5.208233E-2,-1.1094119E-3,9.811909E-2,-4.189237E-3,1.2625695E-2,1.741564E-3,-6.509316E-2,2.1084732E-5,1.9359805E-3,8.010844E-3,8.269128E-2,9.293992E-2,-8.289825E-3,-3.3043104E-3,-2.2417493E-2,1.9124398E-3,-5.9959246E-4,-2.6376007E-2,2.2490334E-2,-8.476384E-3,1.1457499E-3,5.6850803E-3,4.1152537E-2,4.2552594E-2,-1.771877E-2,1.9580198E-2,9.911557E-2,2.170564E-2,-2.7293134E-3,-3.3083574E-3,1.2790385E-2,-7.313565E-3,-4.5644537E-2,1.7105881E-3,-1.9423027E-3,-3.3075802E-3,3.844845E-2,-8.6712773E-4,5.628363E-3],"categories":[],"categories_nodes":[],"categories_segments":[],"categories_sizes":[],"default_left":[0,0,0,0,0,0,0,0,0,0,0,0,0,0,0,0,0,0,0,0,0,0,0,0,0,0,0,0,0,0,0,0,0,0,0,0,0,0,0,0,0,0,0,0,0,0,0,0,0,0,0,0,0,0,0,0,0,0,0,0,0,0,0,0,0,0,0,0,0,0,0,0,0,0,0,0,0,0,0],"id":14,"left_children":[1,3,5,7,9,11,13,15,17,19,21,-1,-1,23,25,27,-1,29,31,33,-1,35,37,39,41,43,45,47,49,51,53,55,57,59,61,63,65,67,-1,69,71,73,75,-1,77,-1,-1,-1,-1,-1,-1,-1,-1,-1,-1,-1,-1,-1,-1,-1,-1,-1,-1,-1,-1,-1,-1,-1,-1,-1,-1,-1,-1,-1,-1,-1,-1,-1,-1],"loss_changes":[4.0937558E-2,7.802549E-2,1.20008335E-1,6.054998E-2,5.466576E-2,8.263891E-2,6.254892E-2,1.3203259E-1,8.30293E-2,4.220049E-2,1.2510684E-1,0E0,0E0,4.604864E-2,7.480425E-2,1.09865084E-1,0E0,1.4998615E-1,7.4674696E-2,3.8463295E-2,0E0,7.841325E-2,8.994701E-2,8.040251E-2,4.8915662E-2,1.2102663E-3,4.1734427E-2,7.590004E-2,2.1111321E-1,3.7182277E-1,1.246001E-1,6.60622E-2,1.9341734E-1,3.2648858E-2,6.321813E-2,6.83401E-2,8.315793E-2,3.4494024E-2,0E0,5.7746235E-2,1.2658472E-1,2.8357381E-2,1.7807808E-2,0E0,4.3502537E-4,0E0,0E0,0E0,0E0,0E0,0E0,0E0,0E0,0E0,0E0,0E0,0E0,0E0,0E0,0E0,0E0,0E0,0E0,0E0,0E0,0E0,0E0,0E0,0E0,0E0,0E0,0E0,0E0,0E0,0E0,0E0,0E0,0E0,0E0],"parents":[2147483647,0,0,1,1,2,2,3,3,4,4,5,5,6,6,7,7,8,8,9,9,10,10,13,13,14,14,15,15,17,17,18,18,19,19,21,21,22,22,23,23,24,24,25,25,26,26,27,27,28,28,29,29,30,30,31,31,32,32,33,33,34,34,35,35,36,36,37,37,39,39,40,40,41,41,42,42,44,44],"right_children":[2,4,6,8,10,12,14,16,18,20,22,-1,-1,24,26,28,-1,30,32,34,-1,36,38,40,42,44,46,48,50,52,54,56,58,60,62,64,66,68,-1,70,72,74,76,-1,78,-1,-1,-1,-1,-1,-1,-1,-1,-1,-1,-1,-1,-1,-1,-1,-1,-1,-1,-1,-1,-1,-1,-1,-1,-1,-1,-1,-1,-1,-1,-1,-1,-1,-1],"split_conditions":[1.701663E0,1.4069607E0,-5.677267E-1,5.64954E-1,1.8431696E0,-8.02676E-1,1.6604182E0,4.4433026E0,-9.539034E-1,8.74068E0,3.654551E-1,9.368079E-2,-6.2476257E-3,-1.4572731E-2,2.707148E-1,1.7095742E0,-6.2809266E-2,-6.466856E-1,1.7589766E0,5.780534E0,-4.241522E-2,2.0370503E-1,1.7487112E-1,-1.3625987E-1,1.8179171E0,-6.6370174E-2,2.8078791E-1,1.0716791E0,1.2064515E0,-4.8921382E-1,2.601581E0,-7.0752636E-2,3.8233757E-1,-2.6069877E0,1.2175957E0,-2.1829657E-1,-6.343723E-1,-3.4862316E-1,6.563809E-2,2.9895344E0,1.6060684E0,1.3061899E-1,5.6047124E-1,-4.189237E-3,-1.3262612E0,1.741564E-3,-6.509316E-2,2.1084732E-5,1.9359805E-3,8.010844E-3,8.269128E-2,9.293992E-2,-8.289825E-3,-3.3043104E-3,-2.2417493E-2,1.9124398E-3,-5.9959246E-4,-2.6376007E-2,2.2490334E-2,-8.476384E-3,1.1457499E-3,5.6850803E-3,4.1152537E-2,4.2552594E-2,-1.771877E-2,1.9580198E-2,9.911557E-2,2.170564E-2,-2.7293134E-3,-3.3083574E-3,1.2790385E-2,-7.313565E-3,-4.5644537E-2,1.7105881E-3,-1.9423027E-3,-3.3075802E-3,3.844845E-2,-8.6712773E-4,5.628363E-3],"split_indices":[20,20,22,20,10,1,10,18,4,1,8,0,0,10,4,9,0,23,19,22,0,22,17,10,14,22,8,8,1,14,10,24,23,12,9,4,8,23,0,4,18,23,22,0,3,0,0,0,0,0,0,0,0,0,0,0,0,0,0,0,0,0,0,0,0,0,0,0,0,0,0,0,0,0,0,0,0,0,0],"split_type":[0,0,0,0,0,0,0,0,0,0,0,0,0,0,0,0,0,0,0,0,0,0,0,0,0,0,0,0,0,0,0,0,0,0,0,0,0,0,0,0,0,0,0,0,0,0,0,0,0,0,0,0,0,0,0,0,0,0,0,0,0,0,0,0,0,0,0,0,0,0,0,0,0,0,0,0,0,0,0],"sum_hessian":[5.7945E4,5.6633E4,1.312E3,5.2434E4,4.199E3,2E0,1.31E3,3.9601E4,1.2833E4,4.145E3,5.4E1,1E0,1E0,1.301E3,9E0,3.9599E4,2E0,8.25E2,1.2008E4,4.144E3,1E0,1E1,4.4E1,5.23E2,7.78E2,5E0,4E0,3.9571E4,2.8E1,1.3E1,8.12E2,1.1972E4,3.6E1,4.086E3,5.8E1,5E0,5E0,4.3E1,1E0,4.77E2,4.6E1,7.74E2,4E0,2E0,3E0,1E0,3E0,3.7612E4,1.959E3,2.5E1,3E0,4E0,9E0,7.81E2,3.1E1,1.03E3,1.0942E4,2.7E1,9E0,3.1E1,4.055E3,5.4E1,4E0,2E0,3E0,3E0,2E0,5E0,3.8E1,4.57E2,2E1,3.7E1,9E0,3.41E2,4.33E2,1E0,3E0,1E0,2E0],"tree_param":{"num_deleted":"0","num_feature":"25","num_nodes":"79","size_leaf_vector":"1"}},{"base_weights":[1.1341427E-5,4.9952366E-3,-1.2790583E-4,-8.647699E-2,5.6349807E-3,-5.5356584E-3,9.8468976E-5,-1.6042581E-1,8.30399E-2,2.463593E-2,3.0542607E-3,-5.198123E-2,-4.5066243E-3,6.69945E-2,8.11542E-5,-1.8285665E-1,-5.1148655E-4,1.3926454E-1,-1.2845102E-2,7.3196106E-2,6.8631414E-3,3.3042957E-3,-5.1224098E-2,9.7508455E-4,-1.2881663E-1,5.374451E-2,-5.3302543E-3,9.624639E-2,-2.0450626E-3,-4.199641E-4,1.6440236E-3,-2.9256733E-3,-6.30246E-2,5.113924E-2,1.1529804E-2,4.490936E-2,1.9706802E-1,6.2991045E-2,3.84798E-3,-1.7148718E-2,5.4666805E-3,4.934641E-2,-2.9626545E-2,-2.2052902E-1,3.6318056E-2,-6.634622E-2,1.0588828E-1,-6.855678E-2,-4.210283E-3,1.5111117E-2,-2.5113588E-2,-1.1435087E-1,-3.97699E-4,7.756963E-3,2.9042937E-4,-6.6903895E-3,3.042025E-2,8.5652046E-2,4.542845E-3,-1.3085821E-2,4.294668E-3,-8.094041E-3,3.606353E-2,7.154777E-3,5.6083396E-4,2.4684163E-2,8.096556E-4,-1.6323578E-2,9.943127E-3,-1.1136216E-1,-2.3986286E-2,2.783537E-2,6.095389E-4,7.33602E-3,-2.7630841E-2,4.356066E-2,-3.219748E-2,-9.940234E-2,-8.368695E-3,-1.3750375E-3,3.3206776E-2,2.6740015E-3,-2.0962676E-2,1.4609598E-3,-5.605719E-2,-3.1914697E-5,-1.9792656E-3,2.1905752E-3,5.5998705E-2,1.109574E-4,-4.261632E-2],"categories":[],"categories_nodes":[],"categories_segments":[],"categories_sizes":[],"default_left":[0,0,0,0,0,0,0,0,0,0,0,0,0,0,0,0,0,0,0,0,0,0,0,0,0,0,0,0,0,0,0,0,0,0,0,0,0,0,0,0,0,0,0,0,0,0,0,0,0,0,0,0,0,0,0,0,0,0,0,0,0,0,0,0,0,0,0,0,0,0,0,0,0,0,0,0,0,0,0,0,0,0,0,0,0,0,0,0,0,0,0],"id":15,"left_children":[1,3,5,7,9,11,13,15,17,19,21,23,25,27,29,31,-1,33,-1,35,37,39,-1,41,43,45,47,-1,49,51,53,-1,-1,-1,-1,55,57,-1,59,61,63,65,67,69,71,73,75,77,79,-1,81,83,85,87,89,-1,-1,-1,-1,-1,-1,-1,-1,-1,-1,-1,-1,-1,-1,-1,-1,-1,-1,-1,-1,-1,-1,-1,-1,-1,-1,-1,-1,-1,-1,-1,-1,-1,-1,-1,-1],"loss_changes":[4.02148E-2,9.265441E-2,6.900996E-2,1.5121305E-1,7.6666296E-2,1.0801933E-1,6.2667325E-2,2.8170168E-2,3.4267925E-2,1.6088796E-1,6.0490564E-2,1.995027E-1,1.06652305E-1,2.4599335E-1,4.2366948E-2,3.094104E-2,0E0,2.8863437E-3,0E0,1.6634649E-1,8.37033E-2,6.103895E-2,0E0,4.58692E-2,3.1090713E-1,2.0114677E-1,1.5457696E-1,0E0,1.5774747E-2,1.0386213E-1,1.0867423E-1,0E0,0E0,0E0,0E0,1.617282E-1,1.4047983E-1,0E0,6.8695426E-2,1.8150248E-1,8.2415074E-2,1.8213497E-2,3.136334E-2,2.4568039E-1,1.52996825E-2,2.5639102E-2,1.9999325E-1,3.967911E-1,9.269416E-2,0E0,1.4330843E-2,7.006411E-2,7.396896E-2,1.9247462E-1,1.2164002E-1,0E0,0E0,0E0,0E0,0E0,0E0,0E0,0E0,0E0,0E0,0E0,0E0,0E0,0E0,0E0,0E0,0E0,0E0,0E0,0E0,0E0,0E0,0E0,0E0,0E0,0E0,0E0,0E0,0E0,0E0,0E0,0E0,0E0,0E0,0E0,0E0],"parents":[2147483647,0,0,1,1,2,2,3,3,4,4,5,5,6,6,7,7,8,8,9,9,10,10,11,11,12,12,13,13,14,14,15,15,17,17,19,19,20,20,21,21,23,23,24,24,25,25,26,26,28,28,29,29,30,30,35,35,36,36,38,38,39,39,40,40,41,41,42,42,43,43,44,44,45,45,46,46,47,47,48,48,50,50,51,51,52,52,53,53,54,54],"right_children":[2,4,6,8,10,12,14,16,18,20,22,24,26,28,30,32,-1,34,-1,36,38,40,-1,42,44,46,48,-1,50,52,54,-1,-1,-1,-1,56,58,-1,60,62,64,66,68,70,72,74,76,78,80,-1,82,84,86,88,90,-1,-1,-1,-1,-1,-1,-1,-1,-1,-1,-1,-1,-1,-1,-1,-1,-1,-1,-1,-1,-1,-1,-1,-1,-1,-1,-1,-1,-1,-1,-1,-1,-1,-1,-1,-1],"split_conditions":[-1.1043684E0,-1.3049579E0,-9.622626E-1,-1.4572731E-2,-1.3800946E-1,-1.4396682E-1,-6.260426E-1,-1.1743765E0,-1.8072408E0,-6.387633E-1,1.7487112E-1,-2.250981E-1,-7.788283E-1,-2.0031664E0,8.0186045E-1,-1.3262612E0,-5.1148655E-4,-1.3154374E0,-1.2845102E-2,3.671532E-2,-2.5209394E-1,-1.8768654E0,-5.1224098E-2,-2.1989143E-1,-5.399522E-1,-1.0500338E0,-7.6092446E-1,9.624639E-2,-3.503386E-1,-1.4979488E0,6.7381704E-1,-2.9256733E-3,-6.30246E-2,5.113924E-2,1.1529804E-2,-6.356905E-1,-1.6663637E0,6.2991045E-2,-2.341998E-1,9.61014E-1,-8.664574E-1,-4.4401398E-1,-4.1922018E-1,-1.8768654E0,-9.90659E-1,-7.100386E-1,-9.7375643E-1,-6.6265565E-1,9.0978885E-1,1.5111117E-2,-6.352101E-1,5.2604105E-2,1.0108731E0,7.023184E-1,5.2810296E-2,-6.6903895E-3,3.042025E-2,8.5652046E-2,4.542845E-3,-1.3085821E-2,4.294668E-3,-8.094041E-3,3.606353E-2,7.154777E-3,5.6083396E-4,2.4684163E-2,8.096556E-4,-1.6323578E-2,9.943127E-3,-1.1136216E-1,-2.3986286E-2,2.783537E-2,6.095389E-4,7.33602E-3,-2.7630841E-2,4.356066E-2,-3.219748E-2,-9.940234E-2,-8.368695E-3,-1.3750375E-3,3.3206776E-2,2.6740015E-3,-2.0962676E-2,1.4609598E-3,-5.605719E-2,-3.1914697E-5,-1.9792656E-3,2.1905752E-3,5.5998705E-2,1.109574E-4,-4.261632E-2],"split_indices":[4,1,4,10,17,17,14,4,2,22,17,10,22,20,9,3,0,4,0,9,8,20,0,8,22,4,22,0,9,8,13,0,0,0,0,23,20,0,10,9,20,23,23,20,13,16,4,16,6,0,4,24,6,11,24,0,0,0,0,0,0,0,0,0,0,0,0,0,0,0,0,0,0,0,0,0,0,0,0,0,0,0,0,0,0,0,0,0,0,0,0],"split_type":[0,0,0,0,0,0,0,0,0,0,0,0,0,0,0,0,0,0,0,0,0,0,0,0,0,0,0,0,0,0,0,0,0,0,0,0,0,0,0,0,0,0,0,0,0,0,0,0,0,0,0,0,0,0,0,0,0,0,0,0,0,0,0,0,0,0,0,0,0,0,0,0,0,0,0,0,0,0,0,0,0,0,0,0,0,0,0,0,0,0,0],"sum_hessian":[5.7945E4,1.574E3,5.6371E4,1E1,1.564E3,2.264E3,5.4107E4,7E0,3E0,1.86E2,1.378E3,4.8E1,2.216E3,1.3E1,5.4094E4,6E0,1E0,2E0,1E0,4.9E1,1.37E2,1.377E3,1E0,2.9E1,1.9E1,3E1,2.186E3,2E0,1.1E1,4.0961E4,1.3133E4,1E0,5E0,1E0,1E0,4.1E1,8E0,1E0,1.36E2,1.31E2,1.246E3,1.1E1,1.8E1,1.2E1,7E0,9E0,2.1E1,3.7E1,2.149E3,3E0,8E0,7E0,4.0954E4,2.38E3,1.0753E4,1.9E1,2.2E1,5E0,3E0,2.4E1,1.12E2,1.23E2,8E0,2.03E2,1.043E3,6E0,5E0,1.3E1,5E0,5E0,7E0,2E0,5E0,2E0,7E0,1.8E1,3E0,4E0,3.3E1,2.143E3,6E0,5E0,3E0,3E0,4E0,3.9117E4,1.837E3,2.375E3,5E0,1.0748E4,5E0],"tree_param":{"num_deleted":"0","num_feature":"25","num_nodes":"91","size_leaf_vector":"1"}},{"base_weights":[8.205225E-6,1.4518943E-4,-4.8597488E-3,-1.945914E-4,2.169678E-3,-7.3714326E-3,2.2635348E-2,-1.7369355E-4,-1.1221794E-1,8.638854E-3,4.868919E-4,-4.710532E-3,-4.259523E-2,8.2136905E-3,1.8183795E-1,-2.4238994E-4,2.0607408E-2,-3.4172855E-2,-7.7075146E-2,8.375579E-2,8.309869E-3,1.1936864E-3,-2.0658119E-2,1.0267016E-1,-5.3452533E-3,-1.6030902E-1,-3.2234117E-2,1.2298053E-1,-3.0309898E-3,-3.0496625E-2,3.0752864E-1,3.123999E-5,-8.831074E-3,3.2252748E-2,-1.2473576E-1,-1.1008039E-2,-2.5974264E-2,-4.4928167E-2,9.777234E-3,-6.608652E-2,1.3995423E-3,-3.816154E-2,2.1175122E-2,4.8986305E-2,7.1768574E-2,-3.9128363E-2,-2.9221624E-3,-1.8177086E-1,-1.51143E-3,2.806446E-2,-4.9725126E-2,3.3534963E-2,1.05097115E-1,2.8342782E-2,-2.420985E-2,-1.3751079E-2,-4.9907793E-3,1.2374201E-1,3.0111283E-2,1.5412299E-5,-3.1269696E-2,-2.5670644E-2,-1.9942888E-3,8.4411256E-2,8.593194E-3,-2.8490783E-3,-1.05851755E-1,3.6793207E-3,-5.434622E-3,-9.17003E-2,-7.707659E-3,9.777118E-3,2.1436384E-3,-2.4378896E-2,3.106347E-2,6.697489E-4,-4.238363E-3,-2.531697E-2,-1.5929757E-3,-4.404088E-3,2.0459425E-2,-3.6349532E-3,1.8356858E-2,5.023913E-2,-1.2999373E-2,5.647879E-2,-1.1508149E-3,-5.9972312E-2,-1.0942459E-2,3.0203335E-2,-1.6373687E-3,-1.018511E-2,-3.1436022E-2,-3.2305464E-2,1.9394416E-2,-2.2080243E-3,2.1359E-2,1.548958E-2,-1.0554786E-2,9.793645E-4,-3.2252155E-3,-8.497627E-3,2.2047706E-2],"categories":[],"categories_nodes":[],"categories_segments":[],"categories_sizes":[],"default_left":[0,0,0,0,0,0,0,0,0,0,0,0,0,0,0,0,0,0,0,0,0,0,0,0,0,0,0,0,0,0,0,0,0,0,0,0,0,0,0,0,0,0,0,0,0,0,0,0,0,0,0,0,0,0,0,0,0,0,0,0,0,0,0,0,0,0,0,0,0,0,0,0,0,0,0,0,0,0,0,0,0,0,0,0,0,0,0,0,0,0,0,0,0,0,0,0,0,0,0,0,0,0,0],"id":16,"left_children":[1,3,5,7,9,11,13,15,17,19,21,23,25,27,29,31,33,35,-1,-1,37,39,41,43,45,47,49,51,53,55,57,59,61,63,65,67,-1,69,71,73,75,77,79,81,-1,83,85,87,-1,89,91,93,-1,95,97,-1,99,-1,101,-1,-1,-1,-1,-1,-1,-1,-1,-1,-1,-1,-1,-1,-1,-1,-1,-1,-1,-1,-1,-1,-1,-1,-1,-1,-1,-1,-1,-1,-1,-1,-1,-1,-1,-1,-1,-1,-1,-1,-1,-1,-1,-1,-1],"loss_changes":[3.8641E-2,3.8770158E-2,1.0969442E-1,1.12964116E-1,8.8174336E-2,1.3607843E-1,3.0386984E-1,6.8891756E-2,9.2857964E-2,1.464977E-1,9.61072E-2,9.276497E-2,1.1923644E-1,1.5910628E-1,3.0295196E-1,1.130317E-1,2.7314183E-1,7.5450707E-3,0E0,0E0,1.3097712E-1,8.626738E-2,1.5311085E-1,4.6928942E-2,1.1006861E-1,2.574341E-2,1.0159038E-1,2.1193515E-1,7.577023E-2,1.727575E-3,1.9137418E-1,9.785688E-2,2.482468E-1,1.24993816E-1,3.1208557E-1,1.2146095E-3,0E0,2.178477E-1,9.745066E-2,5.732806E-2,8.027172E-2,2.2279732E-1,1.0553488E-1,5.960962E-3,0E0,8.54017E-2,2.2034688E-1,1.115489E-2,0E0,5.410122E-2,6.0717627E-2,4.6505682E-2,0E0,7.0904315E-2,5.840577E-2,0E0,1.7774676E-4,0E0,9.686842E-3,0E0,0E0,0E0,0E0,0E0,0E0,0E0,0E0,0E0,0E0,0E0,0E0,0E0,0E0,0E0,0E0,0E0,0E0,0E0,0E0,0E0,0E0,0E0,0E0,0E0,0E0,0E0,0E0,0E0,0E0,0E0,0E0,0E0,0E0,0E0,0E0,0E0,0E0,0E0,0E0,0E0,0E0,0E0,0E0],"parents":[2147483647,0,0,1,1,2,2,3,3,4,4,5,5,6,6,7,7,8,8,9,9,10,10,11,11,12,12,13,13,14,14,15,15,16,16,17,17,20,20,21,21,22,22,23,23,24,24,25,25,26,26,27,27,28,28,29,29,30,30,31,31,32,32,33,33,34,34,35,35,37,37,38,38,39,39,40,40,41,41,42,42,43,43,45,45,46,46,47,47,49,49,50,50,51,51,53,53,54,54,56,56,58,58],"right_children":[2,4,6,8,10,12,14,16,18,20,22,24,26,28,30,32,34,36,-1,-1,38,40,42,44,46,48,50,52,54,56,58,60,62,64,66,68,-1,70,72,74,76,78,80,82,-1,84,86,88,-1,90,92,94,-1,96,98,-1,100,-1,102,-1,-1,-1,-1,-1,-1,-1,-1,-1,-1,-1,-1,-1,-1,-1,-1,-1,-1,-1,-1,-1,-1,-1,-1,-1,-1,-1,-1,-1,-1,-1,-1,-1,-1,-1,-1,-1,-1,-1,-1,-1,-1,-1,-1],"split_conditions":[2.295351E0,8.454076E-1,1.6100758E-1,9.616793E0,-8.3428067E-1,-4.423144E-2,8.991127E-1,2.259589E0,-1.8858895E-1,-1.8840531E0,4.220143E0,-7.085853E-1,-9.3509525E-1,-9.4554424E-1,-3.19153E-1,6.834217E-1,7.764445E-1,-1.7638E-1,-7.7075146E-2,8.375579E-2,-9.1858757E-1,-2.6346714E0,1.2492558E0,-7.170703E-1,-8.02676E-1,9.992699E-3,-5.944591E-1,-6.714025E-2,4.4893228E-2,-7.2523946E-1,-6.1138314E-1,3.909935E0,-1.3262612E0,-1.6811621E0,-1.8420474E-1,-8.02676E-1,-2.5974264E-2,-7.4015635E-1,-7.1448654E-2,1.2265872E-1,2.5370142E0,-1.0155041E-1,5.2247066E0,-9.50658E-1,7.1768574E-2,-6.571757E-1,-8.2435703E-1,-8.02676E-1,-1.51143E-3,-6.701853E-1,9.243215E-2,2.7354702E-1,1.05097115E-1,7.2691345E-1,-8.117975E-1,-1.3751079E-2,-8.02676E-1,1.2374201E-1,-3.8502745E-2,1.5412299E-5,-3.1269696E-2,-2.5670644E-2,-1.9942888E-3,8.4411256E-2,8.593194E-3,-2.8490783E-3,-1.05851755E-1,3.6793207E-3,-5.434622E-3,-9.17003E-2,-7.707659E-3,9.777118E-3,2.1436384E-3,-2.4378896E-2,3.106347E-2,6.697489E-4,-4.238363E-3,-2.531697E-2,-1.5929757E-3,-4.404088E-3,2.0459425E-2,-3.6349532E-3,1.8356858E-2,5.023913E-2,-1.2999373E-2,5.647879E-2,-1.1508149E-3,-5.9972312E-2,-1.0942459E-2,3.0203335E-2,-1.6373687E-3,-1.018511E-2,-3.1436022E-2,-3.2305464E-2,1.9394416E-2,-2.2080243E-3,2.1359E-2,1.548958E-2,-1.0554786E-2,9.793645E-4,-3.2252155E-3,-8.497627E-3,2.2047706E-2],"split_indices":[8,4,10,5,11,10,9,22,23,9,1,22,4,4,20,22,4,14,0,0,8,20,3,22,1,10,4,24,9,22,23,23,3,16,10,1,0,20,24,9,3,17,1,20,0,23,20,1,0,23,10,10,0,10,4,0,1,0,3,0,0,0,0,0,0,0,0,0,0,0,0,0,0,0,0,0,0,0,0,0,0,0,0,0,0,0,0,0,0,0,0,0,0,0,0,0,0,0,0,0,0,0,0],"split_type":[0,0,0,0,0,0,0,0,0,0,0,0,0,0,0,0,0,0,0,0,0,0,0,0,0,0,0,0,0,0,0,0,0,0,0,0,0,0,0,0,0,0,0,0,0,0,0,0,0,0,0,0,0,0,0,0,0,0,0,0,0,0,0,0,0,0,0,0,0,0,0,0,0,0,0,0,0,0,0,0,0,0,0,0,0,0,0,0,0,0,0,0,0,0,0,0,0,0,0,0,0,0,0],"sum_hessian":[5.7945E4,5.636E4,1.585E3,4.8261E4,8.099E3,1.453E3,1.32E2,4.8253E4,8E0,1.671E3,6.428E3,1.352E3,1.01E2,1.22E2,1E1,4.8095E4,1.58E2,6E0,2E0,1E0,1.67E3,6.221E3,2.07E2,7E0,1.345E3,7E0,9.4E1,1E1,1.12E2,4E0,6E0,4.6611E4,1.484E3,1.47E2,1.1E1,5E0,1E0,4.4E1,1.626E3,1.8E1,6.203E3,1.46E2,6.1E1,6E0,1E0,8.9E1,1.256E3,6E0,1E0,2.1E1,7.3E1,8E0,2E0,4.5E1,6.7E1,2E0,2E0,4E0,2E0,4.6603E4,8E0,4E1,1.444E3,1E0,1.46E2,8E0,3E0,1E0,4E0,2E0,4.2E1,1.67E2,1.459E3,1.7E1,1E0,5.888E3,3.15E2,6E1,8.6E1,3.5E1,2.6E1,1E0,5E0,1E0,8.8E1,5E0,1.251E3,5E0,1E0,6E0,1.5E1,5.8E1,1.5E1,1E0,7E0,2.5E1,2E1,8E0,5.9E1,1E0,1E0,1E0,1E0],"tree_param":{"num_deleted":"0","num_feature":"25","num_nodes":"103","size_leaf_vector":"1"}},{"base_weights":[8.164186E-6,1.8462933E-3,-3.2759647E-4,1.7634478E-3,1.8668967E-1,1.0129373E-2,-4.912406E-4,1.898935E-3,-1.08474106E-1,6.708318E-2,1.1389039E-2,8.821905E-2,6.096761E-3,-6.860281E-3,-1.1690926E-4,1.4783513E-2,1.0358399E-3,-7.779736E-2,-1.948964E-2,1.0447606E-1,6.3409835E-2,9.011214E-3,-6.113887E-2,-5.3055207E-3,-6.471041E-2,2.9390981E-2,-1.9156582E-4,5.9125375E-2,1.12656625E-2,2.1250034E-3,-7.85973E-3,-7.194195E-2,2.6370132E-2,-2.0253269E-2,1.0259931E-1,6.4737075E-3,1.2276742E-1,2.739332E-2,-1.4031662E-1,-7.872988E-3,1.7150868E-2,-4.3936197E-2,-2.4540173E-1,1.2039987E-1,1.7619073E-2,-1.3627383E-2,-7.377678E-5,5.7610575E-2,1.186998E-2,2.3579996E-3,1.5606684E-2,3.5105518E-4,1.1427121E-2,-3.8888042E-3,2.9556723E-3,-3.680669E-2,-4.238986E-3,1.1483889E-2,1.7011773E-3,4.7645643E-3,-2.2205658E-2,1.2736601E-2,5.4766607E-2,-3.6025442E-2,2.393231E-3,1.3626251E-2,9.72346E-2,1.5108759E-2,-1.450879E-2,-6.378563E-2,4.6870094E-3,5.5288626E-3,-3.2031573E-3,2.013399E-2,1.4436494E-3,-9.959893E-3,-7.5353876E-2,-3.0339988E-2,-1.2121456E-1,-5.66225E-4,5.911961E-2,2.7742826E-3,5.395508E-2,1.2472461E-1,-4.731711E-3,-2.814857E-4,4.309568E-4],"categories":[],"categories_nodes":[],"categories_segments":[],"categories_sizes":[],"default_left":[0,0,0,0,0,0,0,0,0,0,0,0,0,0,0,0,0,0,0,0,0,0,0,0,0,0,0,0,0,0,0,0,0,0,0,0,0,0,0,0,0,0,0,0,0,0,0,0,0,0,0,0,0,0,0,0,0,0,0,0,0,0,0,0,0,0,0,0,0,0,0,0,0,0,0,0,0,0,0,0,0,0,0,0,0,0,0],"id":17,"left_children":[1,3,5,7,9,11,13,15,17,-1,-1,19,21,23,25,27,29,-1,31,-1,33,35,37,39,41,43,45,47,49,51,53,55,57,59,61,63,65,67,69,71,73,75,77,79,81,83,85,-1,-1,-1,-1,-1,-1,-1,-1,-1,-1,-1,-1,-1,-1,-1,-1,-1,-1,-1,-1,-1,-1,-1,-1,-1,-1,-1,-1,-1,-1,-1,-1,-1,-1,-1,-1,-1,-1,-1,-1],"loss_changes":[3.576322E-2,1.3672629E-1,8.3849706E-2,1.3383645E-1,1.3475388E-2,2.3721564E-1,1.1501683E-1,9.9369615E-2,1.4260265E-1,0E0,0E0,2.1661362E-1,1.4144261E-1,2.4052423E-1,1.00385614E-1,8.684321E-2,8.1179194E-2,0E0,2.1140724E-2,0E0,1.1683293E-1,1.9837864E-1,2.1413714E-1,1.5055957E-1,2.5197837E-1,1.2108372E-1,7.193097E-2,9.8983526E-2,7.190764E-2,2.5627267E-1,8.2738034E-2,1.0001557E-2,1.0155374E-3,2.448949E-2,1.076625E-1,1.2960729E-1,2.1888196E-1,2.8536472E-2,1.8371844E-1,1.729372E-1,1.6489144E-1,1.3406603E-1,1.1935133E-1,1.2224972E-1,1.3822241E-1,3.703547E-1,5.88321E-2,0E0,0E0,0E0,0E0,0E0,0E0,0E0,0E0,0E0,0E0,0E0,0E0,0E0,0E0,0E0,0E0,0E0,0E0,0E0,0E0,0E0,0E0,0E0,0E0,0E0,0E0,0E0,0E0,0E0,0E0,0E0,0E0,0E0,0E0,0E0,0E0,0E0,0E0,0E0,0E0],"parents":[2147483647,0,0,1,1,2,2,3,3,4,4,5,5,6,6,7,7,8,8,11,11,12,12,13,13,14,14,15,15,16,16,18,18,20,20,21,21,22,22,23,23,24,24,25,25,26,26,27,27,28,28,29,29,30,30,31,31,32,32,33,33,34,34,35,35,36,36,37,37,38,38,39,39,40,40,41,41,42,42,43,43,44,44,45,45,46,46],"right_children":[2,4,6,8,10,12,14,16,18,-1,-1,20,22,24,26,28,30,-1,32,-1,34,36,38,40,42,44,46,48,50,52,54,56,58,60,62,64,66,68,70,72,74,76,78,80,82,84,86,-1,-1,-1,-1,-1,-1,-1,-1,-1,-1,-1,-1,-1,-1,-1,-1,-1,-1,-1,-1,-1,-1,-1,-1,-1,-1,-1,-1,-1,-1,-1,-1,-1,-1,-1,-1,-1,-1,-1,-1],"split_conditions":[-6.82382E-1,1.109827E0,-1.8768654E0,2.3438377E0,-7.1566707E-1,-1.065449E0,-1.1190594E0,-7.542403E-1,-8.248497E-1,6.708318E-2,1.1389039E-2,-5.4859734E-1,1.2492558E0,2.1977878E0,-1.076959E0,-3.0540484E-1,3.81022E-1,-7.779736E-2,2.3029735E-3,1.0447606E-1,2.9082638E-1,2.5548575E0,1.7302432E0,-6.826347E-2,1.1317091E0,-6.4910746E-1,-2.6069877E0,-9.246463E-1,1.2064515E0,2.982756E-1,-6.872295E-2,-4.7591813E-2,-1.4961421E0,-1.9189657E0,-5.361486E-4,-1.7251395E0,-1.3429727E-1,