{"learner":{"attributes":{"scikit_learn":"{\"_estimator_type\": \"regressor\"}"},"feature_names":[],"feature_types":[],"gradient_booster":{"model":{"cats":{"enc":[],"feature_segments":[],"sorted_idx":[]},"gbtree_model_param":{"num_parallel_tree":"1","num_trees":"100"},"iteration_indptr":[0,1,2,3,4,5,6,7,8,9,10,11,12,13,14,15,16,17,18,19,20,21,22,23,24,25,26,27,28,29,30,31,32,33,34,35,36,37,38,39,40,41,42,43,44,45,46,47,48,49,50,51,52,53,54,55,56,57,58,59,60,61,62,63,64,65,66,67,68,69,70,71,72,73,74,75,76,77,78,79,80,81,82,83,84,85,86,87,88,89,90,91,92,93,94,95,96,97,98,99,100],"tree_info":[0,0,0,0,0,0,0,0,0,0,0,0,0,0,0,0,0,0,0,0,0,0,0,0,0,0,0,0,0,0,0,0,0,0,0,0,0,0,0,0,0,0,0,0,0,0,0,0,0,0,0,0,0,0,0,0,0,0,0,0,0,0,0,0,0,0,0,0,0,0,0,0,0,0,0,0,0,0,0,0,0,0,0,0,0,0,0,0,0,0,0,0,0,0,0,0,0,0,0,0],"trees":[{"base_weights":[-0E0,-2.242937E-1,2.2394711E-1,-2.7063626E-1,-1.6042935E-2,2.5507677E-2,3.0839905E-1,-2.891931E-1,-4.6553254E-2,-4.3973893E-2,1.1199256E-2,-2.544765E-2,8.846363E-2,4.0832415E-2,3.3404797E-1,-2.895451E-1,-0E0,-4.8195645E-2,-0E0,-4.5734104E-2,-0E0,-0E0,1.5218411E-2,-4.141891E-2,2.057262E-2,9.260477E-2,-0E0,-0E0,1.32810855E-2,1.0747034E-3,3.401197E-1,-8.696055E-2,-0E0,-0E0,-1.4611531E-2,-1.3901805E-2,-0E0,-0E0,1.6266195E-2,-5.0479192E-2,-0E0,-0E0,2.452005E-2,-0E0,9.550693E-2,1.0234426E-1,-0E0,-0E0,5.267295E-3,-1.6348282E-2,-0E0,-0E0,4.4652142E-4,-0E0,7.982598E-3,2.8821658E-2,-0E0],"categories":[],"categories_nodes":[],"categories_segments":[],"categories_sizes":[],"default_left":[0,0,0,0,0,0,0,0,0,0,0,0,0,0,0,0,0,0,0,0,0,0,0,0,0,0,0,0,0,0,0,0,0,0,0,0,0,0,0,0,0,0,0,0,0,0,0,0,0,0,0,0,0,0,0,0,0],"id":0,"left_children":[1,3,5,7,9,11,13,15,17,19,21,23,25,27,29,31,-1,33,-1,35,-1,-1,37,39,41,43,-1,-1,-1,-1,45,-1,-1,-1,-1,-1,-1,-1,47,49,51,-1,53,-1,55,-1,-1,-1,-1,-1,-1,-1,-1,-1,-1,-1,-1],"loss_changes":[6.5047745E1,5.523258E0,9.73901E0,4.7610855E-1,2.555074E-1,1.2697651E0,1.2944794E0,9.063721E-3,2.3042351E-2,1.7568856E-2,1.6014075E-2,2.8098625E-1,1.002444E-1,4.1721553E-2,3.0895996E-1,1.2283325E-3,0E0,5.625248E-3,0E0,3.9529502E-3,0E0,0E0,5.178608E-3,9.643933E-2,1.8733554E-2,6.271374E-2,0E0,0E0,0E0,0E0,1.4620209E-1,0E0,0E0,0E0,0E0,0E0,0E0,0E0,5.005937E-3,7.117179E-2,2.8577997E-4,0E0,1.1038654E-2,0E0,8.313537E-3,0E0,0E0,0E0,0E0,0E0,0E0,0E0,0E0,0E0,0E0,0E0,0E0],"parents":[2147483647,0,0,1,1,2,2,3,3,4,4,5,5,6,6,7,7,8,8,9,9,10,10,11,11,12,12,13,13,14,14,15,15,17,17,19,19,22,22,23,23,24,24,25,25,30,30,38,38,39,39,40,40,42,42,44,44],"right_children":[2,4,6,8,10,12,14,16,18,20,22,24,26,28,30,32,-1,34,-1,36,-1,-1,38,40,42,44,-1,-1,-1,-1,46,-1,-1,-1,-1,-1,-1,-1,48,50,52,-1,54,-1,56,-1,-1,-1,-1,-1,-1,-1,-1,-1,-1,-1,-1],"split_conditions":[-1.2002291E-1,3.5120595E-1,2.2984473E-1,-3.886902E-1,2.6309615E-1,2.1229373E-1,1.354509E-1,1.127633E0,1.1608844E0,3.7773463E-1,-8.216763E-1,1.0901793E0,2.584744E0,-9.478636E-1,-8.150723E-1,2.2260919E0,-0E0,-9.8891926E-1,-0E0,1.5998114E0,-0E0,-0E0,-1.0594122E0,-1.0266945E-1,-2.9401875E-1,-5.1656675E-2,-0E0,-0E0,1.32810855E-2,1.0747034E-3,1.1006881E1,-8.696055E-2,-0E0,-0E0,-1.4611531E-2,-1.3901805E-2,-0E0,-0E0,-9.478636E-1,1.5998114E0,3.5120595E-1,-0E0,-1.018138E0,-0E0,2.9969683E0,1.0234426E-1,-0E0,-0E0,5.267295E-3,-1.6348282E-2,-0E0,-0E0,4.4652142E-4,-0E0,7.982598E-3,2.8821658E-2,-0E0],"split_indices":[8,6,9,8,9,5,8,9,9,5,8,8,7,5,5,5,0,5,0,6,0,0,7,9,5,8,0,0,0,0,8,0,0,0,0,0,0,0,5,6,6,0,3,0,3,0,0,0,0,0,0,0,0,0,0,0,0],"split_type":[0,0,0,0,0,0,0,0,0,0,0,0,0,0,0,0,0,0,0,0,0,0,0,0,0,0,0,0,0,0,0,0,0,0,0,0,0,0,0,0,0,0,0,0,0,0,0,0,0,0,0,0,0,0,0,0,0],"sum_hessian":[1.095E3,5.47E2,5.48E2,4.19E2,1.28E2,2.06E2,3.42E2,3.56E2,6.3E1,5.1E1,7.7E1,1.38E2,6.8E1,5.6E1,2.86E2,3.55E2,1E0,6.2E1,1E0,4.8E1,3E0,1.2E1,6.5E1,1.26E2,1.2E1,6.5E1,3E0,2E0,5.4E1,1.1E1,2.75E2,3.54E2,1E0,1E0,6.1E1,4.6E1,2E0,1E0,6.4E1,9E1,3.6E1,2E0,1E1,3E0,6.2E1,2.74E2,1E0,7E0,5.7E1,8.7E1,3E0,7E0,2.9E1,1E0,9E0,6.1E1,1E0],"tree_param":{"num_deleted":"0","num_feature":"10","num_nodes":"57","size_leaf_vector":"1"}},{"base_weights":[1.5249611E-3,-1.7481199E-1,1.7889766E-1,-2.1731383E-1,-7.146157E-3,3.5677053E-2,2.7098173E-1,-2.3183382E-1,-3.702186E-2,-2.6434587E-2,7.736962E-3,-2.0673273E-2,7.723729E-2,2.766924E-1,-0E0,-0E0,-2.3222947E-1,-0E0,-3.961269E-2,-2.9109038E-2,-0E0,-0E0,1.1872036E-2,-3.2199815E-2,8.1044035E-3,-0E0,2.397319E-2,-0E0,2.8151074E-1,-6.977438E-2,-0E0,-1.2205291E-2,-0E0,-8.908037E-3,-0E0,-0E0,1.3291584E-2,-4.014695E-2,-0E0,-0E0,1.0146453E-2,-2.5491993E-4,-0E0,-0E0,2.8436857E-1,-0E0,4.3926295E-3,-1.2645482E-2,-0E0,-0E0,3.5253374E-3,-0E0,8.576005E-2],"categories":[],"categories_nodes":[],"categories_segments":[],"categories_sizes":[],"default_left":[0,0,0,0,0,0,0,0,0,0,0,0,0,0,0,0,0,0,0,0,0,0,0,0,0,0,0,0,0,0,0,0,0,0,0,0,0,0,0,0,0,0,0,0,0,0,0,0,0,0,0,0,0],"id":1,"left_children":[1,3,5,7,9,11,13,15,17,19,21,23,25,27,-1,-1,29,-1,31,33,-1,-1,35,37,39,-1,-1,41,43,-1,-1,-1,-1,-1,-1,-1,45,47,-1,-1,49,-1,-1,-1,51,-1,-1,-1,-1,-1,-1,-1,-1],"loss_changes":[4.050788E1,4.230837E0,7.2725983E0,2.0271301E-1,1.0776017E-1,1.0897799E0,7.900543E-1,2.7957916E-2,2.4318814E-2,1.8089592E-2,1.2724315E-2,1.2548895E-1,8.418977E-2,5.1966476E-1,0E0,0E0,1.8669128E-2,0E0,1.1854172E-2,3.3913553E-3,0E0,0E0,4.76446E-3,5.776705E-2,4.0604966E-3,0E0,0E0,7.50928E-5,3.460636E-1,0E0,0E0,0E0,0E0,0E0,0E0,0E0,5.0017405E-3,2.6104838E-2,0E0,0E0,3.799878E-3,0E0,0E0,0E0,2.2670174E-1,0E0,0E0,0E0,0E0,0E0,0E0,0E0,0E0],"parents":[2147483647,0,0,1,1,2,2,3,3,4,4,5,5,6,6,7,7,8,8,9,9,10,10,11,11,12,12,13,13,16,16,18,18,19,19,22,22,23,23,24,24,27,27,28,28,36,36,37,37,40,40,44,44],"right_children":[2,4,6,8,10,12,14,16,18,20,22,24,26,28,-1,-1,30,-1,32,34,-1,-1,36,38,40,-1,-1,42,44,-1,-1,-1,-1,-1,-1,-1,46,48,-1,-1,50,-1,-1,-1,52,-1,-1,-1,-1,-1,-1,-1,-1],"split_conditions":[-1.2002291E-1,1.9659331E-1,5.1446366E-1,9.936022E-2,3.5120595E-1,2.6309615E-1,3.7994626E0,-2.2741308E0,1.3091338E-1,-3.395145E-1,-8.8244253E-1,3.9284116E-1,-9.4542706E-1,-2.5965257E0,-0E0,-0E0,1.5998114E0,-0E0,1.5998114E0,3.2888204E-1,-0E0,-0E0,-8.216763E-1,-2.3567511E-1,3.2023072E-1,-0E0,2.397319E-2,1.6585995E0,-1.018138E0,-6.977438E-2,-0E0,-1.2205291E-2,-0E0,-8.908037E-3,-0E0,-0E0,2.6309615E-1,1.5998114E0,-0E0,-0E0,-2.7309683E-1,-2.5491993E-4,-0E0,-0E0,-8.973996E-1,-0E0,4.3926295E-3,-1.2645482E-2,-0E0,-0E0,3.5253374E-3,-0E0,8.576005E-2],"split_indices":[8,9,8,5,6,9,7,7,5,8,5,5,5,9,0,0,6,0,6,5,0,0,8,9,3,0,0,3,3,0,0,0,0,0,0,0,9,6,0,0,6,0,0,0,6,0,0,0,0,0,0,0,0],"split_type":[0,0,0,0,0,0,0,0,0,0,0,0,0,0,0,0,0,0,0,0,0,0,0,0,0,0,0,0,0,0,0,0,0,0,0,0,0,0,0,0,0,0,0,0,0,0,0,0,0,0,0,0,0],"sum_hessian":[1.095E3,5.47E2,5.48E2,4.08E2,1.39E2,2.73E2,2.75E2,3.46E2,6.2E1,5.6E1,8.3E1,1.27E2,1.46E2,2.7E2,5E0,1E0,3.45E2,5E0,5.7E1,5E1,6E0,1.5E1,6.8E1,1.07E2,2E1,3E0,1.43E2,6E0,2.64E2,3.44E2,1E0,5.6E1,1E0,4.8E1,2E0,7E0,6.1E1,6.9E1,3.8E1,4E0,1.6E1,4E0,2E0,3E0,2.61E2,5E0,5.6E1,6.8E1,1E0,2E0,1.4E1,1E0,2.6E2],"tree_param":{"num_deleted":"0","num_feature":"10","num_nodes":"53","size_leaf_vector":"1"}},{"base_weights":[1.4858821E-3,-1.363768E-1,1.4044972E-1,-1.9201612E-1,-3.459244E-2,8.612922E-3,1.9940962E-1,-2.0401655E-1,-3.3871357E-3,-5.2470054E-2,9.328282E-3,-2.7970782E-2,6.0555685E-2,5.6611042E-2,2.404422E-1,-2.0544705E-1,-0E0,-6.192495E-3,-0E0,-5.3296223E-2,-0E0,-0E0,1.0689559E-2,-4.074057E-2,1.5461598E-2,6.366553E-2,-0E0,-0E0,5.90291E-2,7.2499484E-2,-0E0,-0E0,-6.1760604E-2,-6.5464783E-3,-0E0,-5.3888194E-2,-0E0,-0E0,1.1717705E-2,-4.355314E-2,-0E0,-0E0,5.1556034E-3,-0E0,6.5925814E-2,-0E0,6.0280204E-2,-2.0780426E-3,-0E0,-1.6647402E-2,-0E0,-0E0,3.7303285E-3,-0E0,-1.3732058E-2,1.989729E-2,-0E0,-0E0,1.8125173E-2],"categories":[],"categories_nodes":[],"categories_segments":[],"categories_sizes":[],"default_left":[0,0,0,0,0,0,0,0,0,0,0,0,0,0,0,0,0,0,0,0,0,0,0,0,0,0,0,0,0,0,0,0,0,0,0,0,0,0,0,0,0,0,0,0,0,0,0,0,0,0,0,0,0,0,0,0,0,0,0],"id":2,"left_children":[1,3,5,7,9,11,13,15,17,19,21,23,25,27,29,31,-1,33,-1,35,-1,-1,37,39,41,43,-1,-1,45,-1,-1,-1,-1,47,-1,49,-1,-1,51,53,-1,-1,-1,-1,55,-1,57,-1,-1,-1,-1,-1,-1,-1,-1,-1,-1,-1,-1],"loss_changes":[2.4813204E1,2.77326E0,4.6571865E0,6.0630894E-1,3.7240294E-1,7.9104406E-1,9.081936E-1,4.203129E-2,3.340272E-3,1.3541579E-2,4.229904E-3,2.2082515E-1,4.9845636E-2,5.8463275E-2,1.2080383E-1,1.9355774E-2,0E0,5.2532554E-4,0E0,1.2021601E-2,0E0,0E0,3.7330668E-3,4.1250706E-2,5.83864E-3,3.5877824E-2,0E0,0E0,1.9269586E-3,0E0,0E0,0E0,0E0,5.4457504E-4,0E0,2.7335286E-3,0E0,0E0,2.5816038E-3,2.327758E-2,0E0,0E0,0E0,0E0,4.243672E-3,0E0,3.8206577E-5,0E0,0E0,0E0,0E0,0E0,0E0,0E0,0E0,0E0,0E0,0E0,0E0],"parents":[2147483647,0,0,1,1,2,2,3,3,4,4,5,5,6,6,7,7,8,8,9,9,10,10,11,11,12,12,13,13,14,14,15,15,17,17,19,19,22,22,23,23,24,24,25,25,28,28,33,33,35,35,38,38,39,39,44,44,46,46],"right_children":[2,4,6,8,10,12,14,16,18,20,22,24,26,28,30,32,-1,34,-1,36,-1,-1,38,40,42,44,-1,-1,46,-1,-1,-1,-1,48,-1,50,-1,-1,52,54,-1,-1,-1,-1,56,-1,58,-1,-1,-1,-1,-1,-1,-1,-1,-1,-1,-1,-1],"split_conditions":[-1.2002291E-1,-6.3456875E-1,2.6309615E-1,6.953646E-1,4.2935324E-1,2.1229373E-1,4.8327908E-1,9.698132E-1,9.755087E-1,1.5998114E0,-2.7309683E-1,1.1885307E0,2.584744E0,-9.478636E-1,1.1006881E1,-2.2741308E0,-0E0,1.1941359E0,-0E0,1.6585995E0,-0E0,-0E0,-1.0594122E0,1.5998114E0,-1.018138E0,-5.1656675E-2,-0E0,-0E0,5.956103E-1,7.2499484E-2,-0E0,-0E0,-6.1760604E-2,-1.4368439E-1,-0E0,1.9659331E-1,-0E0,-0E0,-5.458126E-1,-8.883831E-2,-0E0,-0E0,5.1556034E-3,-0E0,2.9969683E0,-0E0,-9.4542706E-1,-2.0780426E-3,-0E0,-1.6647402E-2,-0E0,-0E0,3.7303285E-3,-0E0,-1.3732058E-2,1.989729E-2,-0E0,-0E0,1.8125173E-2],"split_indices":[8,8,9,9,9,5,8,5,6,6,6,8,7,5,8,7,0,9,0,3,0,0,7,6,3,8,0,0,9,0,0,0,0,5,0,9,0,0,8,8,0,0,0,0,3,0,5,0,0,0,0,0,0,0,0,0,0,0,0],"split_type":[0,0,0,0,0,0,0,0,0,0,0,0,0,0,0,0,0,0,0,0,0,0,0,0,0,0,0,0,0,0,0,0,0,0,0,0,0,0,0,0,0,0,0,0,0,0,0,0,0,0,0,0,0,0,0,0,0,0,0],"sum_hessian":[1.095E3,5.47E2,5.48E2,2.9E2,2.57E2,2.1E2,3.38E2,2.6E2,3E1,1.85E2,7.2E1,1.39E2,7.1E1,1.34E2,2.04E2,2.56E2,4E0,2.6E1,4E0,1.81E2,4E0,4E0,6.8E1,1.3E2,9E0,6.7E1,4E0,2E0,1.32E2,2.03E2,1E0,1E0,2.55E2,2.5E1,1E0,1.79E2,2E0,1E0,6.7E1,1.23E2,7E0,1E0,8E0,3E0,6.4E1,9E0,1.23E2,2.3E1,2E0,1.64E2,1.5E1,2E0,6.5E1,1E1,1.13E2,6.3E1,1E0,1E0,1.22E2],"tree_param":{"num_deleted":"0","num_feature":"10","num_nodes":"59","size_leaf_vector":"1"}},{"base_weights":[2.8354612E-3,-9.8316126E-2,1.2567666E-1,-1.3550243E-1,-0E0,4.350418E-2,2.1468747E-1,-1.6691169E-1,-4.563739E-2,-1.9208312E-2,2.1683246E-2,-0E0,7.014062E-2,2.2204183E-1,-0E0,-1.7052831E-1,-4.6907273E-5,-5.185109E-2,-0E0,-2.3237457E-2,-0E0,-0E0,2.5922105E-2,-2.5247706E-2,2.7829073E-2,-0E0,2.1710625E-2,-0E0,2.2557864E-1,-0E0,-5.1265746E-2,-3.070105E-3,-0E0,-1.5619108E-2,-0E0,-2.3964562E-2,-0E0,-0E0,8.06859E-3,-2.8938793E-2,-0E0,-0E0,3.2637797E-2,-0E0,2.2727832E-1,-0E0,-1.31366E-3,-7.287813E-3,-0E0,-0E0,-9.0132225E-3,-0E0,1.0369847E-2,6.86283E-2,-0E0],"categories":[],"categories_nodes":[],"categories_segments":[],"categories_sizes":[],"default_left":[0,0,0,0,0,0,0,0,0,0,0,0,0,0,0,0,0,0,0,0,0,0,0,0,0,0,0,0,0,0,0,0,0,0,0,0,0,0,0,0,0,0,0,0,0,0,0,0,0,0,0,0,0,0,0],"id":3,"left_children":[1,3,5,7,9,11,13,15,17,19,21,23,25,27,-1,29,31,33,-1,35,-1,-1,37,39,41,-1,-1,-1,43,-1,-1,45,-1,-1,-1,47,-1,-1,-1,49,-1,-1,51,-1,53,-1,-1,-1,-1,-1,-1,-1,-1,-1,-1],"loss_changes":[1.6111536E1,2.603602E0,3.1085997E0,4.765234E-1,1.6402733E-1,5.7504445E-1,5.5966663E-1,3.0792236E-2,6.684381E-2,2.7499422E-2,2.4497852E-2,2.4479581E-1,7.478404E-2,2.3679733E-1,0E0,1.0100365E-2,1.0271358E-3,2.6136637E-3,0E0,5.9809685E-3,0E0,0E0,7.912114E-3,3.7251607E-2,4.119405E-2,0E0,0E0,0E0,1.353836E-1,0E0,0E0,1.0434584E-3,0E0,0E0,0E0,2.4186075E-3,0E0,0E0,0E0,1.026541E-2,0E0,0E0,1.4270902E-2,0E0,1.1130142E-1,0E0,0E0,0E0,0E0,0E0,0E0,0E0,0E0,0E0,0E0],"parents":[2147483647,0,0,1,1,2,2,3,3,4,4,5,5,6,6,7,7,8,8,9,9,10,10,11,11,12,12,13,13,15,15,16,16,17,17,19,19,22,22,23,23,24,24,28,28,31,31,35,35,39,39,42,42,44,44],"right_children":[2,4,6,8,10,12,14,16,18,20,22,24,26,28,-1,30,32,34,-1,36,-1,-1,38,40,42,-1,-1,-1,44,-1,-1,46,-1,-1,-1,48,-1,-1,-1,50,-1,-1,52,-1,54,-1,-1,-1,-1,-1,-1,-1,-1,-1,-1],"split_conditions":[8.3137015E-3,9.683906E-2,9.750362E-1,-6.153782E-1,-3.9228842E-1,5.956103E-1,3.7994626E0,2.8587717E-1,-2.3567511E-1,9.755087E-1,-7.13225E-1,2.6358283E-1,-9.4542706E-1,-1.018138E0,-0E0,-2.2741308E0,-3.6868078E-1,3.0864332E0,-0E0,1.6585995E0,-0E0,-0E0,-2.7309683E-1,1.5998114E0,-2.23076E0,-0E0,2.1710625E-2,-0E0,-7.849811E-1,-0E0,-5.1265746E-2,-1.6322347E0,-0E0,-1.5619108E-2,-0E0,1.2273873E0,-0E0,-0E0,8.06859E-3,2.5105407E-2,-0E0,-0E0,3.2023072E-1,-0E0,1.1006881E1,-0E0,-1.31366E-3,-7.287813E-3,-0E0,-0E0,-9.0132225E-3,-0E0,1.0369847E-2,6.86283E-2,-0E0],"split_indices":[8,9,8,8,8,9,7,5,9,6,5,5,5,3,0,7,9,5,0,3,0,0,6,6,9,0,0,0,5,0,0,9,0,0,0,9,0,0,0,8,0,0,3,0,8,0,0,0,0,0,0,0,0,0,0],"split_type":[0,0,0,0,0,0,0,0,0,0,0,0,0,0,0,0,0,0,0,0,0,0,0,0,0,0,0,0,0,0,0,0,0,0,0,0,0,0,0,0,0,0,0,0,0,0,0,0,0,0,0,0,0,0,0],"sum_hessian":[1.095E3,6.07E2,4.88E2,4.14E2,1.93E2,3.37E2,1.51E2,2.35E2,1.79E2,1.05E2,8.8E1,1.52E2,1.85E2,1.46E2,5E0,2.22E2,1.3E1,1.41E2,3.8E1,9.1E1,1.4E1,2E1,6.8E1,1.03E2,4.9E1,3E0,1.82E2,3E0,1.43E2,1E0,2.21E2,9E0,4E0,1.4E2,1E0,9E1,1E0,1E0,6.7E1,9.9E1,4E0,2E0,4.7E1,1E0,1.42E2,1E0,8E0,8.9E1,1E0,3E0,9.6E1,4E0,4.3E1,1.41E2,1E0],"tree_param":{"num_deleted":"0","num_feature":"10","num_nodes":"55","size_leaf_vector":"1"}},{"base_weights":[3.192275E-3,-7.991822E-2,1.0303594E-1,-1.2943855E-1,-1.8879257E-2,3.1968616E-2,1.7598E-1,-1.2986206E-1,-0E0,-3.7733704E-2,2.0625144E-2,-1.14082E-2,4.8216723E-2,1.7957059E-1,-0E0,-1.3025531E-1,-0E0,-5.400095E-2,-0E0,-0E0,2.926377E-2,-1.5064577E-2,-0E0,-0E0,5.7695985E-2,-0E0,1.8098107E-1,-0E0,-3.913919E-2,-1.6515868E-2,-0E0,-9.483629E-3,9.470883E-3,-0E0,-2.8699185E-4,-0E0,9.407344E-3,-1.580123E-2,-0E0,-0E0,5.956182E-2,1.8221179E-1,-0E0,-4.280769E-3,-0E0,-0E0,4.1920175E-3,-1.2363984E-4,-0E0,-4.782099E-3,-0E0,-0E0,1.8060058E-2,5.5028047E-2,-0E0],"categories":[],"categories_nodes":[],"categories_segments":[],"categories_sizes":[],"default_left":[0,0,0,0,0,0,0,0,0,0,0,0,0,0,0,0,0,0,0,0,0,0,0,0,0,0,0,0,0,0,0,0,0,0,0,0,0,0,0,0,0,0,0,0,0,0,0,0,0,0,0,0,0,0,0],"id":4,"left_children":[1,3,5,7,9,11,13,15,-1,17,19,21,23,25,-1,27,-1,29,31,33,35,37,-1,-1,39,-1,41,-1,-1,-1,-1,43,45,-1,47,-1,-1,49,-1,-1,51,53,-1,-1,-1,-1,-1,-1,-1,-1,-1,-1,-1,-1,-1],"loss_changes":[1.076274E1,1.7322483E0,2.2983599E0,6.0243607E-3,4.2340648E-1,3.941705E-1,2.3901844E-1,2.892971E-3,0E0,2.1176392E-1,4.7629885E-2,1.6838972E-2,1.6296887E-1,9.9469185E-2,0E0,2.453804E-3,0E0,2.1929443E-2,2.75751E-2,9.801355E-6,8.225188E-3,3.7975796E-3,0E0,0E0,4.614669E-2,0E0,8.256817E-2,0E0,0E0,0E0,0E0,1.6624786E-2,1.4076408E-2,0E0,1.02413505E-5,0E0,0E0,2.7329847E-4,0E0,0E0,1.4693856E-2,8.0973625E-2,0E0,0E0,0E0,0E0,0E0,0E0,0E0,0E0,0E0,0E0,0E0,0E0,0E0],"parents":[2147483647,0,0,1,1,2,2,3,3,4,4,5,5,6,6,7,7,9,9,10,10,11,11,12,12,13,13,15,15,17,17,18,18,19,19,20,20,21,21,24,24,26,26,31,31,32,32,34,34,37,37,40,40,41,41],"right_children":[2,4,6,8,10,12,14,16,-1,18,20,22,24,26,-1,28,-1,30,32,34,36,38,-1,-1,40,-1,42,-1,-1,-1,-1,44,46,-1,48,-1,-1,50,-1,-1,52,54,-1,-1,-1,-1,-1,-1,-1,-1,-1,-1,-1,-1,-1],"split_conditions":[3.5120595E-1,-6.3456875E-1,7.879286E-1,1.0943816E0,4.2935324E-1,1.3009048E-1,3.7994626E0,1.3350502E0,-0E0,-6.157308E-2,3.237579E-1,1.5998114E0,-3.4431213E-1,-7.849811E-1,-0E0,-2.2741308E0,-0E0,9.642415E-1,9.3718415E-1,1.553065E-1,1.0611302E0,2.855346E0,-0E0,-0E0,-9.628483E-1,-0E0,3.4727197E0,-0E0,-3.913919E-2,-1.6515868E-2,-0E0,2.2260919E0,-1.8649945E0,-0E0,3.2888204E-1,-0E0,9.407344E-3,6.871784E-1,-0E0,-0E0,-1.018138E0,1.1006881E1,-0E0,-4.280769E-3,-0E0,-0E0,4.1920175E-3,-1.2363984E-4,-0E0,-4.782099E-3,-0E0,-0E0,1.8060058E-2,5.5028047E-2,-0E0],"split_indices":[6,8,8,9,9,9,7,5,0,5,8,6,8,5,0,7,0,8,2,7,9,2,0,0,5,0,6,0,0,0,0,5,9,0,5,0,0,8,0,0,3,8,0,0,0,0,0,0,0,0,0,0,0,0,0],"split_type":[0,0,0,0,0,0,0,0,0,0,0,0,0,0,0,0,0,0,0,0,0,0,0,0,0,0,0,0,0,0,0,0,0,0,0,0,0,0,0,0,0,0,0,0,0,0,0,0,0,0,0,0,0,0,0],"sum_hessian":[1.095E3,6.03E2,4.92E2,2.62E2,3.41E2,3.29E2,1.63E2,2.6E2,2E0,2.51E2,9E1,8.1E1,2.48E2,1.6E2,3E0,2.58E2,2E0,1.44E2,1.07E2,4E1,5E1,7.8E1,3E0,5.6E1,1.92E2,1E0,1.59E2,1E0,2.57E2,1.42E2,2E0,5.7E1,5E1,2.1E1,1.9E1,1.1E1,3.9E1,7.7E1,1E0,5E0,1.87E2,1.58E2,1E0,5.1E1,6E0,9E0,4.1E1,1.8E1,1E0,7.5E1,2E0,2E0,1.85E2,1.57E2,1E0],"tree_param":{"num_deleted":"0","num_feature":"10","num_nodes":"55","size_leaf_vector":"1"}},{"base_weights":[3.5804734E-3,-9.849566E-2,5.8700256E-2,-1.0308877E-1,-0E0,1.5757518E-2,1.5391679E-1,-1.0585125E-1,-0E0,1.8110365E-3,-2.5592186E-3,-2.650716E-2,3.3345815E-2,-0E0,1.573101E-1,-3.186737E-2,-0E0,-1.280138E-3,-0E0,1.1160473E-3,-0E0,-4.436871E-3,-0E0,-4.558393E-2,-0E0,-0E0,3.9533567E-2,1.603583E-1,-0E0,-0E0,-2.1559317E-3,-0E0,-1.3724874E-3,-5.031691E-2,-0E0,8.8542765E-3,-1.1152552E-2,-4.970563E-3,-0E0,3.9621633E-3,4.781554E-2,4.847665E-2,-0E0,-6.6751614E-4,-0E0,-1.593465E-2,-0E0,-0E0,4.9202316E-3,-4.89383E-3,-0E0,-1.6678133E-3,-0E0,-0E0,2.529707E-4,-0E0,3.6246094E-3,-0E0,1.5570325E-2],"categories":[],"categories_nodes":[],"categories_segments":[],"categories_sizes":[],"default_left":[0,0,0,0,0,0,0,0,0,0,0,0,0,0,0,0,0,0,0,0,0,0,0,0,0,0,0,0,0,0,0,0,0,0,0,0,0,0,0,0,0,0,0,0,0,0,0,0,0,0,0,0,0,0,0,0,0,0,0],"id":5,"left_children":[1,3,5,7,9,11,13,15,17,19,21,23,25,-1,27,-1,-1,29,-1,-1,-1,31,-1,33,35,37,39,41,-1,-1,43,-1,-1,45,-1,47,49,51,53,55,57,-1,-1,-1,-1,-1,-1,-1,-1,-1,-1,-1,-1,-1,-1,-1,-1,-1,-1],"loss_changes":[7.261942E0,1.9348049E-1,3.042877E0,2.3526192E-2,1.0975986E-3,6.16327E-1,1.5869904E-1,2.1097183E-2,1.933729E-4,1.1160504E-3,1.438472E-3,1.291505E-1,1.4445609E-1,0E0,1.5525198E-1,0E0,0E0,3.504479E-4,0E0,0E0,0E0,1.1719973E-4,0E0,6.0751468E-2,2.9359078E-2,3.705975E-3,7.304245E-2,6.778145E-2,0E0,0E0,3.0479452E-5,0E0,0E0,3.8572133E-2,0E0,2.1943169E-2,1.587047E-2,8.9911954E-4,8.319241E-5,1.4730418E-2,4.8624516E-2,0E0,0E0,0E0,0E0,0E0,0E0,0E0,0E0,0E0,0E0,0E0,0E0,0E0,0E0,0E0,0E0,0E0,0E0],"parents":[2147483647,0,0,1,1,2,2,3,3,4,4,5,5,6,6,7,7,8,8,9,9,10,10,11,11,12,12,14,14,17,17,21,21,23,23,24,24,25,25,26,26,27,27,30,30,33,33,35,35,36,36,37,37,38,38,39,39,40,40],"right_children":[2,4,6,8,10,12,14,16,18,20,22,24,26,-1,28,-1,-1,30,-1,-1,-1,32,-1,34,36,38,40,42,-1,-1,44,-1,-1,46,-1,48,50,52,54,56,58,-1,-1,-1,-1,-1,-1,-1,-1,-1,-1,-1,-1,-1,-1,-1,-1,-1,-1],"split_conditions":[3.2023072E-1,3.7053478E-1,9.750362E-1,2.8587717E-1,1.3700252E0,-2.3567511E-1,-3.8965285E-1,2.848417E0,-5.1656675E-2,9.698132E-1,4.3685336E-2,1.553065E-1,-6.960474E-1,-0E0,3.7994626E0,-3.186737E-2,-0E0,2.997654E-1,-0E0,1.1160473E-3,-0E0,3.8732648E-1,-0E0,1.3945017E0,1.3700252E0,1.2585564E-1,3.5120595E-1,1.1006881E1,-0E0,-0E0,1.3350502E0,-0E0,-1.3724874E-3,3.5120595E-1,-0E0,9.3718415E-1,3.9284116E-1,-7.13225E-1,9.281245E-1,1.1608844E0,-3.8269317E-1,4.847665E-2,-0E0,-6.6751614E-4,-0E0,-1.593465E-2,-0E0,-0E0,4.9202316E-3,-4.89383E-3,-0E0,-1.6678133E-3,-0E0,-0E0,2.529707E-4,-0E0,3.6246094E-3,-0E0,1.5570325E-2],"split_indices":[3,8,8,5,7,9,5,6,8,5,5,7,5,0,7,0,0,5,0,0,0,8,0,5,7,8,6,8,0,0,5,0,0,6,0,2,5,5,9,9,8,0,0,0,0,0,0,0,0,0,0,0,0,0,0,0,0,0,0],"split_type":[0,0,0,0,0,0,0,0,0,0,0,0,0,0,0,0,0,0,0,0,0,0,0,0,0,0,0,0,0,0,0,0,0,0,0,0,0,0,0,0,0,0,0,0,0,0,0,0,0,0,0,0,0,0,0,0,0,0,0],"sum_hessian":[1.095E3,3.5E2,7.45E2,3.29E2,2.1E1,6.01E2,1.44E2,3.09E2,2E1,7E0,1.4E1,1.45E2,4.56E2,4E0,1.4E2,3.08E2,1E0,1.8E1,2E0,6E0,1E0,1.1E1,3E0,4.5E1,1E2,6.8E1,3.88E2,1.37E2,3E0,1E0,1.7E1,1E0,1E1,4.3E1,2E0,7.3E1,2.7E1,5E1,1.8E1,1.24E2,2.64E2,1.36E2,1E0,1.6E1,1E0,4.2E1,1E0,4.1E1,3.2E1,1.9E1,8E0,4.9E1,1E0,1E0,1.7E1,9.9E1,2.5E1,3.7E1,2.27E2],"tree_param":{"num_deleted":"0","num_feature":"10","num_nodes":"59","size_leaf_vector":"1"}},{"base_weights":[3.8290783E-3,-4.9453378E-2,7.332947E-2,-1.14772014E-1,-1.45563735E-2,2.544819E-2,1.3892831E-1,-1.1564148E-1,-0E0,-3.9609145E-2,5.5353893E-3,4.3263353E-2,-1.6340246E-2,-0E0,1.4041749E-1,-1.20309986E-1,-0E0,-0E0,-4.0706065E-2,-3.2720347E-3,1.1689446E-2,-0E0,4.5903265E-2,-2.800395E-2,1.5689683E-3,4.2519134E-2,-0E0,-0E0,-1.20769076E-1,-4.241321E-2,-0E0,-8.336067E-3,-0E0,-2.3572585E-4,1.5801784E-2,-0E0,4.7496416E-2,-0E0,-3.3263206E-2,-0E0,7.67162E-3,-0E0,-3.6404613E-2,-0E0,-1.28676975E-2,-0E0,-2.626428E-3,-3.4641367E-4,-0E0,-0E0,5.148779E-3,-0E0,1.4599988E-2,-1.04447E-2,-0E0,-1.8278361E-4,-0E0,-0E0,3.8522827E-3],"categories":[],"categories_nodes":[],"categories_segments":[],"categories_sizes":[],"default_left":[0,0,0,0,0,0,0,0,0,0,0,0,0,0,0,0,0,0,0,0,0,0,0,0,0,0,0,0,0,0,0,0,0,0,0,0,0,0,0,0,0,0,0,0,0,0,0,0,0,0,0,0,0,0,0,0,0,0,0],"id":6,"left_children":[1,3,5,7,9,11,13,15,-1,17,19,21,23,-1,25,27,-1,-1,29,31,33,-1,35,37,39,-1,-1,-1,41,43,-1,45,-1,47,49,-1,51,-1,53,55,57,-1,-1,-1,-1,-1,-1,-1,-1,-1,-1,-1,-1,-1,-1,-1,-1,-1,-1],"loss_changes":[4.811781E0,1.3630265E0,1.2629983E0,1.9131422E-2,3.5750824E-1,4.3932718E-1,6.681013E-2,1.8457413E-2,0E0,2.154696E-2,3.3814393E-2,7.561791E-2,7.114405E-2,0E0,5.659485E-2,8.767366E-3,0E0,0E0,9.9053085E-3,7.5075645E-3,3.1778578E-2,0E0,4.694897E-2,3.5882547E-2,7.3137404E-3,0E0,0E0,0E0,2.0503998E-5,7.7643394E-3,0E0,8.1274007E-4,0E0,1.4939069E-4,1.3342388E-2,0E0,3.5549283E-2,0E0,1.2689367E-2,3.8606933E-5,1.3454903E-2,0E0,0E0,0E0,0E0,0E0,0E0,0E0,0E0,0E0,0E0,0E0,0E0,0E0,0E0,0E0,0E0,0E0,0E0],"parents":[2147483647,0,0,1,1,2,2,3,3,4,4,5,5,6,6,7,7,9,9,10,10,11,11,12,12,14,14,15,15,18,18,19,19,20,20,22,22,23,23,24,24,28,28,29,29,31,31,33,33,34,34,36,36,38,38,39,39,40,40],"right_children":[2,4,6,8,10,12,14,16,-1,18,20,22,24,-1,26,28,-1,-1,30,32,34,-1,36,38,40,-1,-1,-1,42,44,-1,46,-1,48,50,-1,52,-1,54,56,58,-1,-1,-1,-1,-1,-1,-1,-1,-1,-1,-1,-1,-1,-1,-1,-1,-1,-1],"split_conditions":[6.348645E-2,-1.0099833E0,1.1885307E0,2.8587717E-1,-3.6868078E-1,1.3700252E0,-2.9401875E-1,1.9659331E-1,-0E0,-9.7400105E-1,-3.8965285E-1,-1.7652403E0,1.4833462E-1,-0E0,1.1006881E1,-2.2741308E0,-0E0,-0E0,3.5120595E-1,4.6260464E-1,-8.973996E-1,-0E0,-9.4542706E-1,3.141626E-1,9.3718415E-1,4.2519134E-2,-0E0,-0E0,-1.9980003E0,-8.315189E-1,-0E0,-1.0594122E0,-0E0,2.3860833E-1,-2.2741308E0,-0E0,-8.973996E-1,-0E0,1.0611302E0,3.5120595E-1,-2.23076E0,-0E0,-3.6404613E-2,-0E0,-1.28676975E-2,-0E0,-2.626428E-3,-3.4641367E-4,-0E0,-0E0,5.148779E-3,-0E0,1.4599988E-2,-1.04447E-2,-0E0,-1.8278361E-4,-0E0,-0E0,3.8522827E-3],"split_indices":[8,8,8,5,9,7,5,9,0,8,5,9,5,0,8,7,0,0,6,9,6,0,5,8,2,0,0,0,9,5,0,7,0,5,7,0,6,0,9,6,9,0,0,0,0,0,0,0,0,0,0,0,0,0,0,0,0,0,0],"split_type":[0,0,0,0,0,0,0,0,0,0,0,0,0,0,0,0,0,0,0,0,0,0,0,0,0,0,0,0,0,0,0,0,0,0,0,0,0,0,0,0,0,0,0,0,0,0,0,0,0,0,0,0,0,0,0,0,0,0,0],"sum_hessian":[1.095E3,6.28E2,4.67E2,1.29E2,4.99E2,3.59E2,1.08E2,1.27E2,2E0,2.01E2,2.98E2,2.66E2,9.3E1,1E0,1.07E2,1.11E2,1.6E1,3E0,1.98E2,7.5E1,2.23E2,5E0,2.61E2,5.6E1,3.7E1,1.06E2,1E0,1E0,1.1E2,1.8E2,1.8E1,3.5E1,4E1,1.9E1,2.04E2,3E0,2.58E2,1.3E1,4.3E1,7E0,3E1,2E0,1.08E2,2E0,1.78E2,2E0,3.3E1,1.7E1,2E0,1E0,2.03E2,2E0,2.56E2,4.1E1,2E0,4E0,3E0,2E0,2.8E1],"tree_param":{"num_deleted":"0","num_feature":"10","num_nodes":"59","size_leaf_vector":"1"}},{"base_weights":[1.6081646E-3,-3.8026202E-2,7.156558E-2,-1.08350664E-1,-1.3499844E-2,1.7232683E-2,1.21934906E-1,-1.0884166E-1,-0E0,-3.4007017E-2,9.0918755E-3,-0E0,2.395612E-2,-0E0,1.24161884E-1,-0E0,-3.279024E-2,-5.56875E-2,-1.0919148E-2,-7.104789E-3,2.513713E-2,-0E0,-4.842979E-3,-0E0,2.6163539E-2,3.7426464E-2,-0E0,-0E0,-1.7087493E-2,-0E0,-1.5780509E-2,3.825011E-3,-1.5391381E-2,2.8459156E-2,-0E0,-0E0,2.5537398E-3,-5.9545836E-3,-0E0,2.6905684E-2,-0E0,-9.573629E-4,1.6576161E-3,-5.652707E-3,-0E0,-2.152778E-4,3.8613614E-3,-6.220002E-3,-0E0,9.547068E-3,-0E0,-4.108099E-4,-0E0,9.495154E-4,-0E0,-1.9706925E-3,-0E0,-0E0,8.319756E-3],"categories":[],"categories_nodes":[],"categories_segments":[],"categories_sizes":[],"default_left":[0,0,0,0,0,0,0,0,0,0,0,0,0,0,0,0,0,0,0,0,0,0,0,0,0,0,0,0,0,0,0,0,0,0,0,0,0,0,0,0,0,0,0,0,0,0,0,0,0,0,0,0,0,0,0,0,0,0,0],"id":7,"left_children":[1,3,5,7,9,11,13,15,-1,17,19,21,23,-1,25,-1,-1,27,29,31,33,35,37,-1,39,-1,-1,-1,-1,41,43,45,47,49,51,-1,53,55,-1,57,-1,-1,-1,-1,-1,-1,-1,-1,-1,-1,-1,-1,-1,-1,-1,-1,-1,-1,-1],"loss_changes":[3.6190736E0,1.1444916E0,9.533806E-1,8.095503E-3,3.9496386E-1,5.9285343E-2,7.487106E-2,6.682396E-3,0E0,8.682543E-2,1.408831E-1,3.1428956E-3,2.6276022E-2,0E0,1.6614199E-2,0E0,0E0,1.8419802E-2,2.2041671E-2,3.991515E-2,3.667119E-2,8.086768E-4,1.5374366E-3,0E0,9.540603E-3,0E0,0E0,0E0,0E0,5.7000928E-3,2.5220357E-2,1.8624831E-2,3.766508E-2,2.8422236E-2,1.9501706E-4,0E0,4.234818E-4,9.293533E-4,0E0,5.5921376E-3,0E0,0E0,0E0,0E0,0E0,0E0,0E0,0E0,0E0,0E0,0E0,0E0,0E0,0E0,0E0,0E0,0E0,0E0,0E0],"parents":[2147483647,0,0,1,1,2,2,3,3,4,4,5,5,6,6,7,7,9,9,10,10,11,11,12,12,14,14,17,17,18,18,19,19,20,20,21,21,22,22,24,24,29,29,30,30,31,31,32,32,33,33,34,34,36,36,37,37,39,39],"right_children":[2,4,6,8,10,12,14,16,-1,18,20,22,24,-1,26,-1,-1,28,30,32,34,36,38,-1,40,-1,-1,-1,-1,42,44,46,48,50,52,-1,54,56,-1,58,-1,-1,-1,-1,-1,-1,-1,-1,-1,-1,-1,-1,-1,-1,-1,-1,-1,-1,-1],"split_conditions":[7.618674E-1,-1.0699537E0,1.6585995E0,2.8587717E-1,-9.6171916E-2,3.5120595E-1,-7.849811E-1,-2.2741308E0,-0E0,-1.4327261E0,9.3718415E-1,1.553065E-1,-8.4566444E-1,-0E0,2.9969683E0,-0E0,-3.279024E-2,-1.0303732E0,-6.2377405E-1,1.553065E-1,2.584744E0,-3.395145E-1,1.2273873E0,-0E0,1.7368352E0,3.7426464E-2,-0E0,-0E0,-1.7087493E-2,3.2023072E-1,1.0697894E0,-8.973996E-1,1.3768377E0,5.291075E-1,7.879286E-1,-0E0,9.642415E-1,3.2888204E-1,-0E0,-9.4542706E-1,-0E0,-9.573629E-4,1.6576161E-3,-5.652707E-3,-0E0,-2.152778E-4,3.8613614E-3,-6.220002E-3,-0E0,9.547068E-3,-0E0,-4.108099E-4,-0E0,9.495154E-4,-0E0,-1.9706925E-3,-0E0,-0E0,8.319756E-3],"split_indices":[9,8,3,5,5,6,5,7,0,9,2,7,8,0,3,0,0,8,8,7,7,8,9,0,5,0,0,0,0,3,8,6,8,9,8,0,8,5,0,5,0,0,0,0,0,0,0,0,0,0,0,0,0,0,0,0,0,0,0],"split_type":[0,0,0,0,0,0,0,0,0,0,0,0,0,0,0,0,0,0,0,0,0,0,0,0,0,0,0,0,0,0,0,0,0,0,0,0,0,0,0,0,0,0,0,0,0,0,0,0,0,0,0,0,0,0,0,0,0,0,0],"sum_hessian":[1.095E3,7.19E2,3.76E2,8.7E1,6.32E2,2.55E2,1.21E2,8.6E1,1E0,3.28E2,3.04E2,6.8E1,1.87E2,3E0,1.18E2,1E0,8.5E1,7.4E1,2.54E2,1.48E2,1.56E2,3.4E1,3.4E1,8E0,1.79E2,1.17E2,1E0,2E0,7.2E1,9.6E1,1.58E2,3.5E1,1.13E2,1.45E2,1.1E1,1E1,2.4E1,3.2E1,2E0,1.77E2,2E0,6.4E1,3.2E1,1.52E2,6E0,1.1E1,2.4E1,1.05E2,8E0,1.24E2,2.1E1,4E0,7E0,2.3E1,1E0,3E1,2E0,9E0,1.68E2],"tree_param":{"num_deleted":"0","num_feature":"10","num_nodes":"59","size_leaf_vector":"1"}},{"base_weights":[3.7482593E-4,-1.8164933E-2,1.0989406E-1,-8.120115E-2,1.7272179E-3,1.1113089E-1,-0E0,-8.743294E-2,-0E0,-1.3631049E-2,2.7574504E-2,-0E0,3.3474054E-2,-2.63493E-2,-0E0,-4.218135E-2,-0E0,-0E0,3.321783E-2,-1.3589566E-2,-0E0,-2.7748313E-2,5.279556E-3,-3.0303348E-4,-0E0,-0E0,3.727285E-2,-9.075081E-3,-0E0,-2.2786083E-3,6.002945E-3,-0E0,-3.5398485E-4,-0E0,1.5560928E-3,-0E0,1.1380961E-2],"categories":[],"categories_nodes":[],"categories_segments":[],"categories_sizes":[],"default_left":[0,0,0,0,0,0,0,0,0,0,0,0,0,0,0,0,0,0,0,0,0,0,0,0,0,0,0,0,0,0,0,0,0,0,0,0,0],"id":8,"left_children":[1,3,5,7,9,11,-1,13,-1,15,17,-1,-1,-1,-1,19,21,23,25,-1,-1,27,29,31,-1,33,35,-1,-1,-1,-1,-1,-1,-1,-1,-1,-1],"loss_changes":[2.717751E0,1.4728177E0,4.0956974E-2,8.574605E-2,4.175363E-1,6.961584E-3,0E0,9.796858E-3,0E0,2.0844126E-1,7.577965E-2,0E0,0E0,0E0,0E0,3.526628E-2,1.1131528E-1,1.2672442E-5,1.9427061E-2,0E0,0E0,1.5538633E-2,1.2490353E-1,1.7528544E-4,0E0,3.4707082E-3,1.0058135E-2,0E0,0E0,0E0,0E0,0E0,0E0,0E0,0E0,0E0,0E0],"parents":[2147483647,0,0,1,1,2,2,3,3,4,4,5,5,7,7,9,9,10,10,15,15,16,16,17,17,18,18,21,21,22,22,23,23,25,25,26,26],"right_children":[2,4,6,8,10,12,-1,14,-1,16,18,-1,-1,-1,-1,20,22,24,26,-1,-1,28,30,32,-1,34,36,-1,-1,-1,-1,-1,-1,-1,-1,-1,-1],"split_conditions":[1.2485011E0,-8.973996E-1,1.1006881E1,-1.6917229E-1,7.951188E-1,-1.018138E0,-0E0,1.3945017E0,-0E0,-4.0999794E-1,-6.960474E-1,-0E0,3.3474054E-2,-2.63493E-2,-0E0,3.29599E-1,-1.7652403E0,1.2585564E-1,3.5120595E-1,-1.3589566E-2,-0E0,3.9284116E-1,9.3718415E-1,-1.0069497E0,-0E0,1.1608844E0,-8.4566444E-1,-9.075081E-3,-0E0,-2.2786083E-3,6.002945E-3,-0E0,-3.5398485E-4,-0E0,1.5560928E-3,-0E0,1.1380961E-2],"split_indices":[8,6,8,9,9,3,0,5,0,5,5,0,0,0,0,9,9,8,6,0,0,5,2,5,0,9,8,0,0,0,0,0,0,0,0,0,0],"split_type":[0,0,0,0,0,0,0,0,0,0,0,0,0,0,0,0,0,0,0,0,0,0,0,0,0,0,0,0,0,0,0,0,0,0,0,0,0],"sum_hessian":[1.095E3,1E3,9.5E1,1.78E2,8.22E2,9.4E1,1E0,1.51E2,2.7E1,5.21E2,3.01E2,1E0,9.3E1,1.5E2,1E0,8.2E1,4.39E2,5.6E1,2.45E2,7.5E1,7E0,2.6E1,4.13E2,3.8E1,1.8E1,5.7E1,1.88E2,2.3E1,3E0,2.1E2,2.03E2,3E0,3.5E1,2.8E1,2.9E1,3E0,1.85E2],"tree_param":{"num_deleted":"0","num_feature":"10","num_nodes":"37","size_leaf_vector":"1"}},{"base_weights":[-0E0,-1.6072363E-2,9.392955E-2,-8.780673E-2,-6.864188E-4,9.508409E-2,-0E0,-8.816462E-2,-0E0,-4.361714E-2,6.240051E-3,-0E0,2.863507E-2,-0E0,-8.848828E-2,-0E0,-4.5490738E-2,-1.0662759E-3,3.3582207E-2,-2.677725E-2,-0E0,-4.6971053E-2,-0E0,-1.1390557E-2,7.3214956E-3,-0E0,3.972494E-2,-0E0,-1.4197915E-2,1.0225564E-3,-6.0655177E-3,-2.61876E-3,4.600118E-3,1.2145455E-2,-0E0],"categories":[],"categories_nodes":[],"categories_segments":[],"categories_sizes":[],"default_left":[0,0,0,0,0,0,0,0,0,0,0,0,0,0,0,0,0,0,0,0,0,0,0,0,0,0,0,0,0,0,0,0,0,0,0],"id":9,"left_children":[1,3,5,7,9,11,-1,13,-1,15,17,-1,-1,-1,19,-1,21,23,25,-1,-1,27,-1,29,31,-1,33,-1,-1,-1,-1,-1,-1,-1,-1],"loss_changes":[2.0045915E0,1.1195507E0,3.3512592E-2,3.68917E-3,3.6730516E-1,4.4230223E-3,0E0,2.5186539E-3,0E0,2.2841543E-2,2.2468032E-1,0E0,0E0,0E0,7.100105E-4,0E0,2.1198869E-2,8.281259E-2,7.088122E-2,0E0,0E0,1.2166202E-3,0E0,8.3405584E-2,7.863208E-2,0E0,9.521931E-3,0E0,0E0,0E0,0E0,0E0,0E0,0E0,0E0],"parents":[2147483647,0,0,1,1,2,2,3,3,4,4,5,5,7,7,9,9,10,10,14,14,16,16,17,17,18,18,21,21,23,23,24,24,26,26],"right_children":[2,4,6,8,10,12,-1,14,-1,16,18,-1,-1,-1,20,-1,22,24,26,-1,-1,28,-1,30,32,-1,34,-1,-1,-1,-1,-1,-1,-1,-1],"split_conditions":[1.2485011E0,-1.1203288E0,1.1006881E1,2.8587717E-1,-1.6654861E0,-1.018138E0,-0E0,-2.2741308E0,-0E0,-1.0303732E0,1.127633E0,-0E0,2.863507E-2,-0E0,9.683906E-2,-0E0,2.2260919E0,9.3718415E-1,-3.395145E-1,-2.677725E-2,-0E0,-7.297935E-1,-0E0,1.553065E-1,-3.9294216E-1,-0E0,1.1525486E0,-0E0,-1.4197915E-2,1.0225564E-3,-6.0655177E-3,-2.61876E-3,4.600118E-3,1.2145455E-2,-0E0],"split_indices":[8,8,8,5,9,3,0,7,0,8,9,0,0,0,9,0,5,2,8,0,0,5,0,7,5,0,8,0,0,0,0,0,0,0,0],"split_type":[0,0,0,0,0,0,0,0,0,0,0,0,0,0,0,0,0,0,0,0,0,0,0,0,0,0,0,0,0,0,0,0,0,0,0],"sum_hessian":[1.095E3,1E3,9.5E1,8.2E1,9.18E2,9.4E1,1E0,8.1E1,1E0,7.4E1,8.44E2,1E0,9.3E1,1E0,8E1,3E0,7.1E1,7.13E2,1.31E2,7.7E1,3E0,7E1,1E0,3.57E2,3.56E2,2.1E1,1.1E2,2E0,6.8E1,1.14E2,2.43E2,7.4E1,2.82E2,1.08E2,2E0],"tree_param":{"num_deleted":"0","num_feature":"10","num_nodes":"35","size_leaf_vector":"1"}},{"base_weights":[-0E0,-1.6579976E-2,7.227532E-2,-6.8432495E-2,-8.694633E-4,-2.0164507E-3,8.141569E-2,-6.8979755E-2,-0E0,-1.9476095E-2,7.871411E-3,-2.8239172E-3,-0E0,-0E0,8.318563E-2,-0E0,-6.935173E-2,-2.1076458E-2,-0E0,-4.164786E-3,1.06052505E-2,2.5114482E-2,-0E0,-0E0,-2.0858351E-2,-0E0,-2.2361401E-2,-7.241872E-3,-0E0,-2.396768E-4,1.2703263E-2,-7.3454017E-3,-0E0,-0E0,-2.9411465E-3,-0E0,4.4298875E-3],"categories":[],"categories_nodes":[],"categories_segments":[],"categories_sizes":[],"default_left":[0,0,0,0,0,0,0,0,0,0,0,0,0,0,0,0,0,0,0,0,0,0,0,0,0,0,0,0,0,0,0,0,0,0,0,0,0],"id":10,"left_children":[1,3,5,7,9,11,13,15,-1,17,19,-1,-1,-1,21,-1,23,25,-1,27,29,-1,-1,-1,-1,-1,31,33,-1,-1,35,-1,-1,-1,-1,-1,-1],"loss_changes":[1.5486568E0,7.8336763E-1,2.5946844E-1,7.7046156E-3,1.773755E-1,9.114008E-3,4.5955896E-2,2.0612478E-3,0E0,2.1207362E-2,3.2706257E-2,0E0,0E0,0E0,5.9490204E-3,0E0,6.686449E-4,1.5369922E-2,0E0,4.300273E-3,2.8160162E-2,0E0,0E0,0E0,0E0,0E0,8.137062E-3,4.5500714E-3,0E0,0E0,3.087955E-2,0E0,0E0,0E0,0E0,0E0,0E0],"parents":[2147483647,0,0,1,1,2,2,3,3,4,4,5,5,6,6,7,7,9,9,10,10,14,14,16,16,17,17,19,19,20,20,26,26,27,27,30,30],"right_children":[2,4,6,8,10,12,14,16,-1,18,20,-1,-1,-1,22,-1,24,26,-1,28,30,-1,-1,-1,-1,-1,32,34,-1,-1,36,-1,-1,-1,-1,-1,-1],"split_conditions":[1.6585995E0,-1.0099833E0,-1.0266945E-1,2.8587717E-1,3.2023072E-1,9.486492E-1,-7.849811E-1,-1.9980003E0,-0E0,1.5998114E0,-1.6654861E0,-2.8239172E-3,-0E0,-0E0,2.9969683E0,-0E0,-2.2741308E0,-9.500129E-1,-0E0,9.755087E-1,-9.478636E-1,2.5114482E-2,-0E0,-0E0,-2.0858351E-2,-0E0,5.282235E-2,-4.5705643E-1,-0E0,-2.396768E-4,-8.973996E-1,-7.3454017E-3,-0E0,-0E0,-2.9411465E-3,-0E0,4.4298875E-3],"split_indices":[3,8,9,5,3,8,5,9,0,6,9,0,0,0,3,0,7,8,0,6,5,0,0,0,0,0,5,8,0,0,6,0,0,0,0,0,0],"split_type":[0,0,0,0,0,0,0,0,0,0,0,0,0,0,0,0,0,0,0,0,0,0,0,0,0,0,0,0,0,0,0,0,0,0,0,0,0],"sum_hessian":[1.095E3,9.54E2,1.41E2,1.29E2,8.25E2,1.2E1,1.29E2,1.27E2,2E0,2.61E2,5.64E2,8E0,4E0,3E0,1.26E2,2E0,1.25E2,2.56E2,5E0,2.7E1,5.37E2,1.24E2,2E0,1E0,1.24E2,9E0,2.47E2,2.4E1,3E0,1.9E1,5.18E2,2.03E2,4.4E1,9E0,1.5E1,1.9E1,4.99E2],"tree_param":{"num_deleted":"0","num_feature":"10","num_nodes":"37","size_leaf_vector":"1"}},{"base_weights":[-1.9476743E-4,-1.3916586E-2,7.218204E-2,-6.90408E-2,-2.3020315E-3,7.3247306E-2,-0E0,-7.010128E-2,-0E0,-3.5741623E-2,2.9956521E-3,-0E0,7.817918E-2,-7.090156E-2,-0E0,-0E0,-3.772102E-2,-1.1171511E-3,2.5503043E-2,-0E0,7.945075E-2,-0E0,-2.1344114E-2,-3.915563E-2,-0E0,-5.3394665E-3,1.337834E-2,-0E0,2.7478348E-2,-0E0,2.3933498E-2,-0E0,-1.1838493E-2,1.8794938E-3,-2.6499329E-3,-0E0,5.0706454E-3,-0E0,8.912573E-3],"categories":[],"categories_nodes":[],"categories_segments":[],"categories_sizes":[],"default_left":[0,0,0,0,0,0,0,0,0,0,0,0,0,0,0,0,0,0,0,0,0,0,0,0,0,0,0,0,0,0,0,0,0,0,0,0,0,0,0],"id":11,"left_children":[1,3,5,7,9,11,-1,13,-1,15,17,-1,19,21,-1,-1,23,25,27,-1,29,-1,-1,31,-1,33,35,-1,37,-1,-1,-1,-1,-1,-1,-1,-1,-1,-1],"loss_changes":[1.2289912E0,6.1703116E-1,2.4844527E-2,1.0785103E-2,2.2538844E-1,1.6530752E-2,0E0,9.128869E-3,0E0,2.1033004E-2,1.15452714E-1,0E0,9.4258785E-3,7.9643726E-4,0E0,0E0,1.7326057E-2,5.198516E-2,1.6004384E-2,0E0,2.450347E-3,0E0,0E0,9.753704E-4,0E0,4.0292233E-2,1.499695E-2,0E0,1.8171713E-2,0E0,0E0,0E0,0E0,0E0,0E0,0E0,0E0,0E0,0E0],"parents":[2147483647,0,0,1,1,2,2,3,3,4,4,5,5,7,7,9,9,10,10,12,12,13,13,16,16,17,17,18,18,20,20,23,23,25,25,26,26,28,28],"right_children":[2,4,6,8,10,12,-1,14,-1,16,18,-1,20,22,-1,-1,24,26,28,-1,30,-1,-1,32,-1,34,36,-1,38,-1,-1,-1,-1,-1,-1,-1,-1,-1,-1],"split_conditions":[1.2485011E0,-1.13832E0,1.1006881E1,2.1911603E-1,-1.6654861E0,1.3900312E0,-0E0,9.683906E-2,-0E0,-1.0303732E0,1.1608844E0,-0E0,-6.157308E-2,-2.2741308E0,-0E0,-0E0,2.2260919E0,1.5998114E0,-7.849811E-1,-0E0,-1.018138E0,-0E0,-2.1344114E-2,-7.297935E-1,-0E0,-1.0337092E0,-3.9903352E-1,-0E0,-3.9948487E-1,-0E0,2.3933498E-2,-0E0,-1.1838493E-2,1.8794938E-3,-2.6499329E-3,-0E0,5.0706454E-3,-0E0,8.912573E-3],"split_indices":[8,8,8,5,9,8,0,9,0,8,9,0,5,7,0,0,5,6,5,0,3,0,0,5,0,9,5,0,8,0,0,0,0,0,0,0,0,0,0],"split_type":[0,0,0,0,0,0,0,0,0,0,0,0,0,0,0,0,0,0,0,0,0,0,0,0,0,0,0,0,0,0,0,0,0,0,0,0,0,0,0],"sum_hessian":[1.095E3,1E3,9.5E1,7.3E1,9.27E2,9.4E1,1E0,7E1,3E0,7.4E1,8.53E2,2.1E1,7.3E1,6.8E1,2E0,3E0,7.1E1,7.64E2,8.9E1,4E0,6.9E1,1E0,6.7E1,7E1,1E0,6.94E2,7E1,5E0,8.4E1,1E0,6.8E1,2E0,6.8E1,7.6E1,6.18E2,1.1E1,5.9E1,6E0,7.8E1],"tree_param":{"num_deleted":"0","num_feature":"10","num_nodes":"39","size_leaf_vector":"1"}},{"base_weights":[-0E0,-1.1429564E-2,6.383602E-2,-4.94964E-2,2.033395E-4,6.485827E-2,-0E0,-5.4276627E-2,-0E0,-3.0054832E-2,5.8725523E-3,6.6163324E-2,-0E0,-1.6373077E-2,-0E0,-3.0662809E-2,-0E0,-2.0583423E-2,1.0254264E-2,-0E0,7.0863895E-2,-9.375079E-3,-0E0,-2.3335533E-2,-0E0,-1.3342037E-2,1.4348206E-2,-0E0,7.20169E-2,-0E0,-7.2947713E-3,-4.326798E-3,-0E0,5.538808E-3,-5.360773E-4,-0E0,2.1694317E-2],"categories":[],"categories_nodes":[],"categories_segments":[],"categories_sizes":[],"default_left":[0,0,0,0,0,0,0,0,0,0,0,0,0,0,0,0,0,0,0,0,0,0,0,0,0,0,0,0,0,0,0,0,0,0,0,0,0],"id":12,"left_children":[1,3,5,7,9,11,-1,13,-1,15,17,19,-1,-1,-1,21,-1,23,25,-1,27,-1,-1,29,-1,31,33,-1,35,-1,-1,-1,-1,-1,-1,-1,-1],"loss_changes":[9.383309E-1,5.3741014E-1,2.1447182E-2,5.8363557E-2,1.5162748E-1,1.1283994E-2,0E0,5.2261353E-3,0E0,4.006386E-3,1.13716766E-1,1.2155175E-3,0E0,0E0,0E0,3.8607568E-3,0E0,1.37168355E-2,1.0332382E-1,0E0,6.4367056E-3,0E0,0E0,5.2015185E-3,0E0,4.082434E-3,7.428014E-2,0E0,1.6834736E-3,0E0,0E0,0E0,0E0,0E0,0E0,0E0,0E0],"parents":[2147483647,0,0,1,1,2,2,3,3,4,4,5,5,7,7,9,9,10,10,11,11,15,15,17,17,18,18,20,20,23,23,25,25,26,26,28,28],"right_children":[2,4,6,8,10,12,-1,14,-1,16,18,20,-1,-1,-1,22,-1,24,26,-1,28,-1,-1,30,-1,32,34,-1,36,-1,-1,-1,-1,-1,-1,-1,-1],"split_conditions":[1.2485011E0,-8.973996E-1,1.1006881E1,-1.6917229E-1,-1.018138E0,2.584744E0,-0E0,1.3945017E0,-0E0,4.7213254E0,-1.7652403E0,1.4739897E0,-0E0,-1.6373077E-2,-0E0,2.855346E0,-0E0,3.9284116E-1,-8.8244253E-1,-0E0,-6.157308E-2,-9.375079E-3,-0E0,-1.0303732E0,-0E0,2.937727E-1,1.3700252E0,-0E0,-1.018138E0,-0E0,-7.2947713E-3,-4.326798E-3,-0E0,5.538808E-3,-5.360773E-4,-0E0,2.1694317E-2],"split_indices":[8,6,8,9,3,7,0,5,0,6,9,8,0,0,0,2,0,5,5,0,5,0,0,8,0,8,7,0,3,0,0,0,0,0,0,0,0],"split_type":[0,0,0,0,0,0,0,0,0,0,0,0,0,0,0,0,0,0,0,0,0,0,0,0,0,0,0,0,0,0,0,0,0,0,0,0,0],"sum_hessian":[1.095E3,1E3,9.5E1,1.78E2,8.22E2,9.4E1,1E0,1.51E2,2.7E1,3.4E1,7.88E2,8.9E1,5E0,1.5E2,1E0,3.3E1,1E0,2.7E1,7.61E2,2.4E1,6.5E1,3.2E1,1E0,2.4E1,3E0,4.3E1,7.18E2,4E0,6.1E1,1E0,2.3E1,4.2E1,1E0,6.1E2,1.08E2,1E0,6E1],"tree_param":{"num_deleted":"0","num_feature":"10","num_nodes":"37","size_leaf_vector":"1"}},{"base_weights":[-5.3692266E-4,-1.1625451E-2,5.716089E-2,-5.675696E-2,-1.9172763E-3,-0E0,6.394352E-2,-5.7667553E-2,-0E0,-2.7349373E-2,1.8780149E-3,1.8316931E-3,-0E0,-0E0,6.528321E-2,-1.7493779E-2,-0E0,-3.0910913E-2,-0E0,-6.797065E-4,2.2535387E-2,-0E0,1.4071865E-3,-0E0,1.9977123E-2,-0E0,-3.1754825E-2,-3.913342E-3,9.428124E-3,-0E0,2.4602067E-2,-0E0,-9.665156E-3,1.3958476E-3,-2.619763E-3,-0E0,3.859259E-3,7.6224236E-3,-0E0],"categories":[],"categories_nodes":[],"categories_segments":[],"categories_sizes":[],"default_left":[0,0,0,0,0,0,0,0,0,0,0,0,0,0,0,0,0,0,0,0,0,0,0,0,0,0,0,0,0,0,0,0,0,0,0,0,0,0,0],"id":13,"left_children":[1,3,5,7,9,11,13,15,-1,17,19,21,-1,-1,23,-1,-1,25,-1,27,29,-1,-1,-1,-1,-1,31,33,35,-1,37,-1,-1,-1,-1,-1,-1,-1,-1],"loss_changes":[7.854583E-1,4.124029E-1,2.9333591E-2,8.049011E-3,1.2973593E-1,3.959018E-4,6.9095492E-3,5.917251E-3,0E0,1.699467E-2,7.3739946E-2,2.0683145E-3,0E0,0E0,5.065322E-3,0E0,0E0,6.1274767E-3,0E0,2.7656673E-2,1.228907E-2,0E0,0E0,0E0,0E0,0E0,2.4199635E-3,4.236566E-2,1.1265607E-2,0E0,5.279824E-3,0E0,0E0,0E0,0E0,0E0,0E0,0E0,0E0],"parents":[2147483647,0,0,1,1,2,2,3,3,4,4,5,5,6,6,7,7,9,9,10,10,11,11,14,14,17,17,19,19,20,20,26,26,27,27,28,28,30,30],"right_children":[2,4,6,8,10,12,14,16,-1,18,20,22,-1,-1,24,-1,-1,26,-1,28,30,-1,-1,-1,-1,-1,32,34,36,-1,38,-1,-1,-1,-1,-1,-1,-1,-1],"split_conditions":[1.2485011E0,-1.13832E0,1.6585995E0,2.1911603E-1,-1.6654861E0,4.2220142E-1,-5.6090873E-2,9.683906E-2,-0E0,-6.157308E-2,1.1941359E0,1.5171684E0,-0E0,-0E0,1.3300608E0,-1.7493779E-2,-0E0,-1.0303732E0,-0E0,1.5998114E0,-8.150723E-1,-0E0,1.4071865E-3,-0E0,1.9977123E-2,-0E0,-7.297935E-1,1.553065E-1,-3.9903352E-1,-0E0,1.1525486E0,-0E0,-9.665156E-3,1.3958476E-3,-2.619763E-3,-0E0,3.859259E-3,7.6224236E-3,-0E0],"split_indices":[8,8,3,5,9,5,5,9,0,5,9,8,0,0,8,0,0,8,0,6,5,0,0,0,0,0,5,7,5,0,8,0,0,0,0,0,0,0,0],"split_type":[0,0,0,0,0,0,0,0,0,0,0,0,0,0,0,0,0,0,0,0,0,0,0,0,0,0,0,0,0,0,0,0,0,0,0,0,0,0,0],"sum_hessian":[1.095E3,1E3,9.5E1,7.3E1,9.27E2,3.2E1,6.3E1,7E1,3E0,7.4E1,8.53E2,1.8E1,1.4E1,5E0,5.8E1,6.8E1,2E0,5.4E1,2E1,8.02E2,5.1E1,6E0,1.2E1,5E0,5.3E1,2E0,5.2E1,7.29E2,7.3E1,4E0,4.7E1,2E0,5E1,1.89E2,5.4E2,1.2E1,6.1E1,4.6E1,1E0],"tree_param":{"num_deleted":"0","num_feature":"10","num_nodes":"39","size_leaf_vector":"1"}},{"base_weights":[-0E0,-9.5912805E-3,5.1644467E-2,-5.6129176E-2,-7.6078274E-4,-0E0,5.744775E-2,-1.7038254E-2,-0E0,-1.9697495E-2,3.6579971E-3,1.688545E-3,-0E0,-0E0,5.858187E-2,-2.7487366E-2,-0E0,-1.8196857E-2,7.6182373E-3,-0E0,1.3619416E-3,-0E0,5.967007E-2,-3.522258E-2,-0E0,-3.7711603E-3,3.155436E-3,-2.0891229E-2,-0E0,-7.0896624E-3,1.2872099E-2,1.7984893E-2,-0E0,-1.0689177E-2,-0E0,2.805718E-4,-0E0,-0E0,-2.267642E-3,2.8369655E-3,-0E0,-0E0,-6.555518E-3,-0E0,-4.6948157E-3,4.9321847E-3,-0E0],"categories":[],"categories_nodes":[],"categories_segments":[],"categories_sizes":[],"default_left":[0,0,0,0,0,0,0,0,0,0,0,0,0,0,0,0,0,0,0,0,0,0,0,0,0,0,0,0,0,0,0,0,0,0,0,0,0,0,0,0,0,0,0,0,0,0,0],"id":14,"left_children":[1,3,5,7,9,11,13,-1,-1,15,17,19,-1,-1,21,23,25,27,29,-1,-1,-1,31,33,35,37,39,41,-1,43,45,-1,-1,-1,-1,-1,-1,-1,-1,-1,-1,-1,-1,-1,-1,-1,-1],"loss_changes":[6.212864E-1,3.9088786E-1,1.7845333E-2,8.4891915E-3,1.10603794E-1,3.3643976E-4,4.2902827E-3,0E0,0E0,3.742972E-2,8.0141E-2,1.9718606E-3,0E0,0E0,2.529025E-3,5.6782797E-2,3.313871E-3,1.2066033E-2,8.144058E-2,0E0,0E0,0E0,1.5227795E-3,3.2402277E-3,1.03211365E-4,4.707801E-3,9.873773E-3,4.613258E-3,0E0,3.00099E-2,4.7473848E-2,0E0,0E0,0E0,0E0,0E0,0E0,0E0,0E0,0E0,0E0,0E0,0E0,0E0,0E0,0E0,0E0],"parents":[2147483647,0,0,1,1,2,2,3,3,4,4,5,5,6,6,9,9,10,10,11,11,14,14,15,15,16,16,17,17,18,18,22,22,23,23,24,24,25,25,26,26,27,27,29,29,30,30],"right_children":[2,4,6,8,10,12,14,-1,-1,16,18,20,-1,-1,22,24,26,28,30,-1,-1,-1,32,34,36,38,40,42,-1,44,46,-1,-1,-1,-1,-1,-1,-1,-1,-1,-1,-1,-1,-1,-1,-1,-1],"split_conditions":[1.2485011E0,-1.018138E0,1.6585995E0,4.7213254E0,-8.973996E-1,4.2220142E-1,-5.6090873E-2,-1.7038254E-2,-0E0,1.553065E-1,-1.7652403E0,1.5171684E0,-0E0,-0E0,1.3300608E0,-6.014407E-1,-7.077326E-1,3.9284116E-1,-4.0999794E-1,-0E0,1.3619416E-3,-0E0,3.7994626E0,9.698132E-1,3.2023072E-1,-9.500129E-1,-3.071305E-1,-1.0303732E0,-0E0,9.3718415E-1,1.3700252E0,1.7984893E-2,-0E0,-1.0689177E-2,-0E0,2.805718E-4,-0E0,-0E0,-2.267642E-3,2.8369655E-3,-0E0,-0E0,-6.555518E-3,-0E0,-4.6948157E-3,4.9321847E-3,-0E0],"split_indices":[8,3,3,6,6,5,5,0,0,7,9,8,0,0,8,9,8,5,5,0,0,0,7,5,3,8,8,8,0,2,7,0,0,0,0,0,0,0,0,0,0,0,0,0,0,0,0],"split_type":[0,0,0,0,0,0,0,0,0,0,0,0,0,0,0,0,0,0,0,0,0,0,0,0,0,0,0,0,0,0,0,0,0,0,0,0,0,0,0,0,0,0,0,0,0,0,0],"sum_hessian":[1.095E3,1E3,9.5E1,5.6E1,9.44E2,3.2E1,6.3E1,5.5E1,1E0,1.56E2,7.88E2,1.8E1,1.4E1,5E0,5.8E1,8.1E1,7.5E1,2.7E1,7.61E2,6E0,1.2E1,5E0,5.3E1,5.6E1,2.5E1,3.5E1,4E1,2.4E1,3E0,1.41E2,6.2E2,5.2E1,1E0,5.5E1,1E0,1.8E1,7E0,1.9E1,1.6E1,2.6E1,1.4E1,1E0,2.3E1,6.9E1,7.2E1,5.17E2,1.03E2],"tree_param":{"num_deleted":"0","num_feature":"10","num_nodes":"47","size_leaf_vector":"1"}},{"base_weights":[-8.4526587E-4,-1.088575E-2,4.2834044E-2,-4.6827868E-2,-2.5541943E-3,-0E0,5.3686045E-2,-4.9273815E-2,-0E0,-7.1231294E-3,1.5820641E-2,1.622044E-2,-0E0,-5.007343E-2,-0E0,-9.920233E-3,5.4748245E-3,-0E0,2.0179648E-2,-1.580119E-2,-0E0,-1.1987334E-2,3.3862077E-4,-0E0,8.183418E-3,-0E0,2.2041641E-2,-0E0,-6.813372E-3,-1.793375E-3,3.8496787E-3,2.7254743E-3,-0E0,-0E0,6.792639E-3],"categories":[],"categories_nodes":[],"categories_segments":[],"categories_sizes":[],"default_left":[0,0,0,0,0,0,0,0,0,0,0,0,0,0,0,0,0,0,0,0,0,0,0,0,0,0,0,0,0,0,0,0,0,0,0],"id":15,"left_children":[1,3,5,7,9,-1,11,13,-1,15,17,-1,-1,19,-1,21,23,-1,25,-1,-1,27,29,-1,31,-1,33,-1,-1,-1,-1,-1,-1,-1,-1],"loss_changes":[5.387607E-1,2.5907272E-1,8.868131E-2,1.3958335E-2,8.627331E-2,0E0,1.3170838E-3,5.3471625E-3,0E0,4.1978177E-2,1.5342724E-2,0E0,0E0,3.5899282E-3,0E0,2.9994987E-2,5.3674607E-3,0E0,9.034589E-3,0E0,0E0,9.308756E-2,2.699418E-2,0E0,2.314833E-3,0E0,3.4048185E-3,0E0,0E0,0E0,0E0,0E0,0E0,0E0,0E0],"parents":[2147483647,0,0,1,1,2,2,3,3,4,4,6,6,7,7,9,9,10,10,13,13,15,15,16,16,18,18,21,21,22,22,24,24,26,26],"right_children":[2,4,6,8,10,-1,12,14,-1,16,18,-1,-1,20,-1,22,24,-1,26,-1,-1,28,30,-1,32,-1,34,-1,-1,-1,-1,-1,-1,-1,-1],"split_conditions":[1.0697894E0,-1.13832E0,1.6585995E0,-2.9151929E-3,1.1608844E0,-0E0,2.584744E0,2.1911603E-1,-0E0,1.5998114E0,3.5120595E-1,1.622044E-2,-0E0,-6.014407E-1,-0E0,4.5984593E-1,-3.9903352E-1,-0E0,-4.6425286E-1,-1.580119E-2,-0E0,-2.1957374E-1,-8.044246E-2,-0E0,1.042203E0,-0E0,-8.150723E-1,-0E0,-6.813372E-3,-1.793375E-3,3.8496787E-3,2.7254743E-3,-0E0,-0E0,6.792639E-3],"split_indices":[8,8,3,9,9,0,7,5,0,6,6,0,0,9,0,5,5,0,8,0,0,8,8,0,8,0,5,0,0,0,0,0,0,0,0],"split_type":[0,0,0,0,0,0,0,0,0,0,0,0,0,0,0,0,0,0,0,0,0,0,0,0,0,0,0,0,0,0,0,0,0,0,0],"sum_hessian":[1.095E3,9.7E2,1.25E2,7.3E1,8.97E2,5.1E1,7.4E1,6.2E1,1.1E1,8.11E2,8.6E1,7.2E1,2E0,5.9E1,3E0,7.46E2,6.5E1,3.4E1,5.2E1,4.5E1,1.4E1,6.88E2,5.8E1,1.1E1,5.4E1,6E0,4.6E1,3.88E2,3E2,2E1,3.8E1,5.3E1,1E0,1E0,4.5E1],"tree_param":{"num_deleted":"0","num_feature":"10","num_nodes":"35","size_leaf_vector":"1"}},{"base_weights":[-0E0,-7.854901E-3,4.619541E-2,-4.86358E-2,-2.3347E-4,4.950836E-2,-0E0,-1.4770463E-2,-0E0,-4.1069556E-3,1.9257858E-2,5.0580613E-2,-0E0,-1.5536647E-2,-0E0,-0E0,2.2841055E-2,-0E0,5.2342072E-2,-0E0,-2.3417603E-2,-1.6403176E-2,2.2587662E-3,-0E0,2.3341374E-2,-0E0,5.3274088E-2,-2.2827536E-3,2.5852984E-3,-0E0,-8.513898E-3,-5.688302E-3,-0E0,6.9782673E-3,-3.1535636E-4,7.0827636E-3,-0E0,-0E0,1.6041929E-2],"categories":[],"categories_nodes":[],"categories_segments":[],"categories_sizes":[],"default_left":[0,0,0,0,0,0,0,0,0,0,0,0,0,0,0,0,0,0,0,0,0,0,0,0,0,0,0,0,0,0,0,0,0,0,0,0,0,0,0],"id":16,"left_children":[1,3,5,7,9,11,-1,-1,-1,13,15,17,-1,19,21,-1,23,-1,25,27,29,31,33,-1,35,-1,37,-1,-1,-1,-1,-1,-1,-1,-1,-1,-1,-1,-1],"loss_changes":[4.3219465E-1,2.9965517E-1,3.6742896E-2,6.72251E-3,7.346705E-2,7.2596967E-3,0E0,0E0,0E0,4.4641346E-2,1.3538156E-2,4.1685402E-3,0E0,3.8559116E-2,3.842624E-2,0E0,2.006553E-3,0E0,3.4129024E-3,1.821217E-2,4.0591575E-2,1.0409303E-2,8.263126E-2,0E0,1.102522E-3,0E0,2.4208426E-4,0E0,0E0,0E0,0E0,0E0,0E0,0E0,0E0,0E0,0E0,0E0,0E0],"parents":[2147483647,0,0,1,1,2,2,3,3,4,4,5,5,9,9,10,10,11,11,13,13,14,14,16,16,18,18,19,19,20,20,21,21,22,22,24,24,26,26],"right_children":[2,4,6,8,10,12,-1,-1,-1,14,16,18,-1,20,22,-1,24,-1,26,28,30,32,34,-1,36,-1,38,-1,-1,-1,-1,-1,-1,-1,-1,-1,-1,-1,-1],"split_conditions":[1.4739897E0,-1.018138E0,1.3945017E0,4.7213254E0,1.1941359E0,2.584744E0,-0E0,-1.4770463E-2,-0E0,-8.973996E-1,3.5120595E-1,1.5375583E0,-0E0,-2.6124734E-1,-1.7652403E0,-0E0,-8.150723E-1,-0E0,-6.157308E-2,-1.4327261E0,-1.6987375E0,3.9284116E-1,-1.0004578E0,-0E0,1.3768377E0,-0E0,-1.018138E0,-2.2827536E-3,2.5852984E-3,-0E0,-8.513898E-3,-5.688302E-3,-0E0,6.9782673E-3,-3.1535636E-4,7.0827636E-3,-0E0,-0E0,1.6041929E-2],"split_indices":[8,3,5,6,9,7,0,0,0,6,6,8,0,5,9,0,5,0,5,9,9,5,9,0,8,0,3,0,0,0,0,0,0,0,0,0,0,0,0],"split_type":[0,0,0,0,0,0,0,0,0,0,0,0,0,0,0,0,0,0,0,0,0,0,0,0,0,0,0,0,0,0,0,0,0,0,0,0,0,0,0],"sum_hessian":[1.095E3,1.025E3,7E1,5.6E1,9.69E2,6.3E1,7E0,5.5E1,1E0,9.17E2,5.2E1,5.9E1,4E0,1.56E2,7.61E2,1.8E1,3.4E1,9E0,5E1,7.3E1,8.3E1,2.7E1,7.34E2,2E0,3.2E1,4E0,4.6E1,2.6E1,4.7E1,8E0,7.5E1,2.4E1,3E0,5.9E1,6.75E2,3.1E1,1E0,1E0,4.5E1],"tree_param":{"num_deleted":"0","num_feature":"10","num_nodes":"39","size_leaf_vector":"1"}},{"base_weights":[-0E0,-8.492346E-3,3.691912E-2,-4.382788E-2,-1.2878929E-3,-0E0,4.045446E-2,-1.3282183E-2,-0E0,-5.806484E-3,1.5939392E-2,4.3102004E-2,-0E0,-1.047157E-2,-0E0,-0E0,1.7712792E-2,4.397462E-2,-0E0,-1.9543523E-2,-0E0,8.982355E-3,-2.7580867E-3,-0E0,5.7748146E-3,-0E0,4.5143604E-2,-9.182032E-3,-0E0,1.0800048E-3,-1.7940061E-3,-5.629698E-4,5.2102227E-3,1.4532201E-3,-2.349459E-3,-0E0,1.37528125E-2],"categories":[],"categories_nodes":[],"categories_segments":[],"categories_sizes":[],"default_left":[0,0,0,0,0,0,0,0,0,0,0,0,0,0,0,0,0,0,0,0,0,0,0,0,0,0,0,0,0,0,0,0,0,0,0,0,0],"id":17,"left_children":[1,3,5,7,9,-1,11,-1,-1,13,15,17,-1,19,21,-1,23,25,-1,27,29,31,33,-1,-1,-1,35,-1,-1,-1,-1,-1,-1,-1,-1,-1,-1],"loss_changes":[3.8901174E-1,2.2061473E-1,4.4638872E-2,4.0917695E-3,7.789945E-2,0E0,2.9648036E-2,0E0,0E0,2.7722677E-2,9.829935E-3,1.0003507E-2,0E0,3.4421198E-2,1.6142223E-2,0E0,9.0818405E-3,7.0908368E-3,0E0,6.137217E-2,1.260092E-2,3.331837E-2,2.3172975E-2,0E0,0E0,0E0,6.2898993E-3,0E0,0E0,0E0,0E0,0E0,0E0,0E0,0E0,0E0,0E0],"parents":[2147483647,0,0,1,1,2,2,3,3,4,4,6,6,9,9,10,10,11,11,13,13,14,14,16,16,17,17,19,19,20,20,21,21,22,22,26,26],"right_children":[2,4,6,8,10,-1,12,-1,-1,14,16,18,-1,20,22,-1,24,26,-1,28,30,32,34,-1,-1,-1,36,-1,-1,-1,-1,-1,-1,-1,-1,-1,-1],"split_conditions":[1.5998114E0,-1.018138E0,-6.7034197E-1,4.4205922E-1,1.1608844E0,-0E0,1.3945017E0,-1.3282183E-2,-0E0,-1.0177595E-1,-7.849811E-1,2.584744E0,-0E0,-6.014407E-1,-1.0004578E0,-0E0,-4.6425286E-1,-3.3471686E-1,-0E0,1.553065E-1,-5.338185E-1,-2.23076E0,1.553065E-1,-0E0,5.7748146E-3,-0E0,-1.018138E0,-9.182032E-3,-0E0,1.0800048E-3,-1.7940061E-3,-5.629698E-4,5.2102227E-3,1.4532201E-3,-2.349459E-3,-0E0,1.37528125E-2],"split_indices":[6,3,5,5,9,0,5,0,0,5,5,7,0,9,9,0,8,8,0,7,8,9,7,0,0,0,3,0,0,0,0,0,0,0,0,0,0],"split_type":[0,0,0,0,0,0,0,0,0,0,0,0,0,0,0,0,0,0,0,0,0,0,0,0,0,0,0,0,0,0,0,0,0,0,0,0,0],"sum_hessian":[1.095E3,9.66E2,1.29E2,5.4E1,9.12E2,1.1E1,1.18E2,5.3E1,1E0,8.21E2,9.1E1,1.08E2,1E1,4.36E2,3.85E2,5E0,8.6E1,1.05E2,3E0,1.44E2,2.92E2,6E1,3.25E2,4E0,8.2E1,7E0,9.8E1,6.5E1,7.9E1,1.19E2,1.73E2,8E0,5.2E1,5.3E1,2.72E2,3E0,9.5E1],"tree_param":{"num_deleted":"0","num_feature":"10","num_nodes":"37","size_leaf_vector":"1"}},{"base_weights":[-0E0,-6.302652E-3,4.0665574E-2,-3.810172E-2,-0E0,4.3920778E-2,-0E0,-4.02623E-2,-0E0,-1.8467475E-2,2.6927367E-3,4.4943098E-2,-0E0,-4.09459E-2,-0E0,-0E0,-2.0123202E-2,1.2006093E-2,-1.7664621E-4,-0E0,1.3782814E-2,-1.2999705E-2,-0E0,-2.1401001E-2,-0E0,-0E0,2.638268E-2,1.6472872E-2,-5.0626853E-3,-0E0,-6.5457397E-3,9.322351E-4,-1.0320912E-3,-0E0,8.39437E-3,-0E0,5.9991484E-3,-2.6621188E-3,1.6218704E-3],"categories":[],"categories_nodes":[],"categories_segments":[],"categories_sizes":[],"default_left":[0,0,0,0,0,0,0,0,0,0,0,0,0,0,0,0,0,0,0,0,0,0,0,0,0,0,0,0,0,0,0,0,0,0,0,0,0,0,0],"id":18,"left_children":[1,3,5,7,9,11,-1,13,-1,15,17,19,-1,21,-1,-1,23,25,27,-1,-1,-1,-1,29,-1,31,33,35,37,-1,-1,-1,-1,-1,-1,-1,-1,-1,-1],"loss_changes":[3.1129026E-1,2.0610484E-1,3.0827433E-2,1.1459351E-2,6.649886E-2,5.910963E-3,0E0,3.96353E-3,0E0,9.903017E-3,3.8417708E-2,5.18468E-3,0E0,5.6913197E-3,0E0,0E0,8.615173E-3,5.6768514E-2,5.965052E-2,0E0,0E0,0E0,0E0,2.120033E-3,0E0,3.972891E-3,1.1208922E-2,1.8337037E-2,3.695115E-2,0E0,0E0,0E0,0E0,0E0,0E0,0E0,0E0,0E0,0E0],"parents":[2147483647,0,0,1,1,2,2,3,3,4,4,5,5,7,7,9,9,10,10,11,11,13,13,16,16,17,17,18,18,23,23,25,25,26,26,27,27,28,28],"right_children":[2,4,6,8,10,12,-1,14,-1,16,18,20,-1,22,-1,-1,24,26,28,-1,-1,-1,-1,30,-1,32,34,36,38,-1,-1,-1,-1,-1,-1,-1,-1,-1,-1],"split_conditions":[1.5375583E0,-1.13832E0,1.3945017E0,-2.9151929E-3,-1.6654861E0,2.584744E0,-0E0,2.1911603E-1,-0E0,-1.0303732E0,1.553065E-1,-6.157308E-2,-0E0,-6.014407E-1,-0E0,-0E0,2.2260919E0,2.937727E-1,-1.0337092E0,-0E0,1.3782814E-2,-1.2999705E-2,-0E0,-7.297935E-1,-0E0,-6.2377405E-1,3.2023072E-1,9.3718415E-1,1.5998114E0,-0E0,-6.5457397E-3,9.322351E-4,-1.0320912E-3,-0E0,8.39437E-3,-0E0,5.9991484E-3,-2.6621188E-3,1.6218704E-3],"split_indices":[8,8,5,9,9,7,0,5,0,8,7,5,0,9,0,0,5,8,9,0,0,0,0,5,0,8,3,2,6,0,0,0,0,0,0,0,0,0,0],"split_type":[0,0,0,0,0,0,0,0,0,0,0,0,0,0,0,0,0,0,0,0,0,0,0,0,0,0,0,0,0,0,0,0,0,0,0,0,0,0,0],"sum_hessian":[1.095E3,1.034E3,6.1E1,7.3E1,9.61E2,5.4E1,7E0,6.2E1,1.1E1,7.4E1,8.87E2,5E1,4E0,5.9E1,3E0,3E0,7.1E1,2.16E2,6.71E2,4E0,4.6E1,4.5E1,1.4E1,7E1,1E0,1.69E2,4.7E1,5.2E1,6.19E2,2E0,6.8E1,8.1E1,8.8E1,2E0,4.5E1,3E0,4.9E1,5.35E2,8.4E1],"tree_param":{"num_deleted":"0","num_feature":"10","num_nodes":"39","size_leaf_vector":"1"}},{"base_weights":[-0E0,-3.382888E-2,5.9157275E-3,-1.1750537E-2,-0E0,3.5148187E-5,3.961779E-2,-3.4113098E-3,-0E0,-1.5820514E-2,3.8731312E-3,4.0870298E-2,-0E0,-3.4808253E-3,-0E0,2.1470778E-3,-7.638524E-4,-1.8857274E-2,-0E0,1.2301278E-4,1.722406E-2,-0E0,1.3155476E-2,-1.0896948E-3,-0E0,-4.264445E-3,-0E0,-0E0,-1.9560758E-2,6.492748E-3,-4.015392E-3,1.9359866E-2,-0E0,-1.5717394E-3,-0E0,-0E0,-6.027373E-3,3.377377E-3,-1.0143275E-3,1.3349479E-3,-2.8759295E-3,-0E0,6.8830783E-3],"categories":[],"categories_nodes":[],"categories_segments":[],"categories_sizes":[],"default_left":[0,0,0,0,0,0,0,0,0,0,0,0,0,0,0,0,0,0,0,0,0,0,0,0,0,0,0,0,0,0,0,0,0,0,0,0,0,0,0,0,0,0,0],"id":19,"left_children":[1,3,5,-1,7,9,11,13,15,17,19,21,-1,23,-1,-1,25,27,-1,29,31,-1,-1,-1,-1,33,-1,-1,35,37,39,41,-1,-1,-1,-1,-1,-1,-1,-1,-1,-1,-1],"loss_changes":[2.4722993E-1,6.503895E-3,1.8079068E-1,0E0,1.314985E-3,5.9476193E-2,1.2443274E-2,2.9907096E-5,5.805083E-3,1.0210533E-2,3.2258272E-2,6.2642246E-3,0E0,8.002948E-5,0E0,0E0,1.9503235E-3,3.3968166E-3,0E0,2.9757917E-2,1.2048852E-2,0E0,0E0,0E0,0E0,1.000745E-3,0E0,0E0,1.9863173E-3,3.530263E-2,3.458587E-2,1.3425276E-2,0E0,0E0,0E0,0E0,0E0,0E0,0E0,0E0,0E0,0E0,0E0],"parents":[2147483647,0,0,1,1,2,2,4,4,5,5,6,6,7,7,8,8,9,9,10,10,11,11,13,13,16,16,17,17,19,19,20,20,25,25,28,28,29,29,30,30,31,31],"right_children":[2,4,6,-1,8,10,12,14,16,18,20,22,-1,24,-1,-1,26,28,-1,30,32,-1,-1,-1,-1,34,-1,-1,36,38,40,42,-1,-1,-1,-1,-1,-1,-1,-1,-1,-1,-1],"split_conditions":[-1.1203288E0,-1.3254275E0,1.8110232E0,-1.1750537E-2,-6.960474E-1,-1.6654861E0,1.1006881E1,9.683906E-2,-3.3434343E-1,-6.157308E-2,1.1941359E0,6.621132E-1,-0E0,-8.150723E-1,-0E0,2.1470778E-3,-6.014407E-1,-1.0303732E0,-0E0,1.3009048E-1,1.7642463E0,-0E0,1.3155476E-2,-1.0896948E-3,-0E0,2.1911603E-1,-0E0,-0E0,-7.13225E-1,1.3700252E0,1.553065E-1,3.5120595E-1,-0E0,-1.5717394E-3,-0E0,-0E0,-6.027373E-3,3.377377E-3,-1.0143275E-3,1.3349479E-3,-2.8759295E-3,-0E0,6.8830783E-3],"split_indices":[8,8,8,0,5,9,8,9,5,5,9,9,0,5,0,0,9,8,0,9,8,0,0,0,0,5,0,0,5,7,7,6,0,0,0,0,0,0,0,0,0,0,0],"split_type":[0,0,0,0,0,0,0,0,0,0,0,0,0,0,0,0,0,0,0,0,0,0,0,0,0,0,0,0,0,0,0,0,0,0,0,0,0,0,0,0,0,0,0],"sum_hessian":[1.095E3,8.2E1,1.013E3,4E1,4.2E1,9.73E2,4E1,1.3E1,2.9E1,7.8E1,8.95E2,3.9E1,1E0,1.1E1,2E0,1.2E1,1.7E1,5.4E1,2.4E1,8.36E2,5.9E1,1.5E1,2.4E1,8E0,3E0,1.1E1,6E0,2E0,5.2E1,4.02E2,4.34E2,5.8E1,1E0,1E1,1E0,3E0,4.9E1,3.3E2,7.2E1,1.09E2,3.25E2,2E1,3.8E1],"tree_param":{"num_deleted":"0","num_feature":"10","num_nodes":"43","size_leaf_vector":"1"}},{"base_weights":[-0E0,-3.5605036E-2,5.2302256E-3,-3.6299113E-2,-0E0,-0E0,3.7554763E-2,-1.0981168E-2,-0E0,-2.5171917E-3,1.2603767E-2,3.8801394E-2,-0E0,-1.4067832E-2,-0E0,-0E0,1.7939718E-2,3.962542E-2,-0E0,-5.2852184E-3,-0E0,3.1239642E-3,-7.279021E-3,-0E0,2.210719E-2,-0E0,4.096593E-2,-1.3083458E-3,2.218021E-3,-4.5169755E-3,1.6265368E-3,7.212395E-3,-0E0,-0E0,1.2496986E-2],"categories":[],"categories_nodes":[],"categories_segments":[],"categories_sizes":[],"default_left":[0,0,0,0,0,0,0,0,0,0,0,0,0,0,0,0,0,0,0,0,0,0,0,0,0,0,0,0,0,0,0,0,0,0,0],"id":20,"left_children":[1,3,5,7,-1,9,11,-1,-1,13,15,17,-1,19,21,-1,23,25,-1,-1,-1,27,29,-1,31,-1,33,-1,-1,-1,-1,-1,-1,-1,-1],"loss_changes":[2.301621E-1,5.2001774E-3,1.6490977E-1,2.1041036E-3,0E0,4.542181E-2,1.17256045E-2,0E0,0E0,2.0889154E-2,2.3683336E-2,4.2078495E-3,0E0,1.374387E-2,2.5077512E-2,0E0,2.391418E-2,6.193474E-3,0E0,0E0,0E0,2.7476238E-2,5.2470412E-2,0E0,1.5309781E-2,0E0,3.9481074E-3,0E0,0E0,0E0,0E0,0E0,0E0,0E0,0E0],"parents":[2147483647,0,0,1,1,2,2,3,3,5,5,6,6,9,9,10,10,11,11,13,13,14,14,16,16,17,17,21,21,22,22,24,24,26,26],"right_children":[2,4,6,8,-1,10,12,-1,-1,14,16,18,-1,20,22,-1,24,26,-1,-1,-1,28,30,-1,32,-1,34,-1,-1,-1,-1,-1,-1,-1,-1],"split_conditions":[-1.018138E0,2.848417E0,1.8110232E0,4.4205922E-1,-0E0,1.127633E0,1.1006881E1,-1.0981168E-2,-0E0,-1.2750524E0,3.5120595E-1,2.584744E0,-0E0,1.553065E-1,2.4819522E-1,-0E0,-3.6350265E-1,9.0710506E-2,-0E0,-5.2852184E-3,-0E0,-4.1816035E-1,4.0015078E-1,-0E0,1.7642463E0,-0E0,3.5120595E-1,-1.3083458E-3,2.218021E-3,-4.5169755E-3,1.6265368E-3,7.212395E-3,-0E0,-0E0,1.2496986E-2],"split_indices":[3,6,8,5,0,9,8,0,0,8,6,7,0,7,8,0,8,5,0,0,0,5,5,0,8,0,6,0,0,0,0,0,0,0,0],"split_type":[0,0,0,0,0,0,0,0,0,0,0,0,0,0,0,0,0,0,0,0,0,0,0,0,0,0,0,0,0,0,0,0,0,0,0],"sum_hessian":[1.095E3,5.7E1,1.038E3,5.5E1,2E0,9.99E2,3.9E1,5.4E1,1E0,8.51E2,1.48E2,3.8E1,1E0,3.6E1,8.15E2,5.2E1,9.6E1,3.5E1,3E0,3.1E1,5E0,5.64E2,2.51E2,1.8E1,7.8E1,5E0,3E1,1.19E2,4.45E2,1.93E2,5.8E1,7.7E1,1E0,2E0,2.8E1],"tree_param":{"num_deleted":"0","num_feature":"10","num_nodes":"35","size_leaf_vector":"1"}},{"base_weights":[-0E0,-5.8141095E-3,2.7761271E-2,-3.2611396E-2,-1.7360265E-4,-0E0,3.0926727E-2,-1.0082897E-2,-0E0,-1.0260098E-2,1.6949757E-3,3.359737E-2,-0E0,-0E0,-1.8301537E-2,-7.947876E-3,5.932053E-3,3.430391E-2,-0E0,-3.814175E-3,8.184913E-3,-0E0,-2.345387E-2,-0E0,-1.3501098E-2,1.0160903E-2,-3.8928767E-3,-0E0,3.5720974E-2,-1.8367768E-3,-0E0,-0E0,2.7444668E-3,-8.080969E-3,-0E0,-0E0,1.07212756E-4,-4.1954378E-3,-0E0,5.151955E-3,-0E0,2.8726447E-4,-3.4334215E-3,1.0834154E-2,-0E0],"categories":[],"categories_nodes":[],"categories_segments":[],"categories_sizes":[],"default_left":[0,0,0,0,0,0,0,0,0,0,0,0,0,0,0,0,0,0,0,0,0,0,0,0,0,0,0,0,0,0,0,0,0,0,0,0,0,0,0,0,0,0,0,0,0],"id":21,"left_children":[1,3,5,7,9,-1,11,-1,-1,13,15,17,-1,19,21,23,25,27,-1,29,31,-1,33,35,37,39,41,-1,43,-1,-1,-1,-1,-1,-1,-1,-1,-1,-1,-1,-1,-1,-1,-1,-1],"loss_changes":[2.1252252E-1,1.2777504E-1,3.202121E-2,2.273053E-3,2.9377759E-2,0E0,2.6278093E-2,0E0,0E0,3.434614E-2,3.767293E-2,6.448567E-3,0E0,1.1680981E-2,3.4969546E-2,1.5420994E-2,4.03044E-2,5.0302E-3,0E0,2.8152368E-3,2.2871047E-3,0E0,2.345571E-2,1.7880448E-5,1.6069114E-3,3.5155326E-2,1.9604992E-2,0E0,4.1425973E-3,0E0,0E0,0E0,0E0,0E0,0E0,0E0,0E0,0E0,0E0,0E0,0E0,0E0,0E0,0E0,0E0],"parents":[2147483647,0,0,1,1,2,2,3,3,4,4,6,6,9,9,10,10,11,11,13,13,14,14,15,15,16,16,17,17,19,19,20,20,22,22,23,23,24,24,25,25,26,26,28,28],"right_children":[2,4,6,8,10,-1,12,-1,-1,14,16,18,-1,20,22,24,26,28,-1,30,32,-1,34,36,38,40,42,-1,44,-1,-1,-1,-1,-1,-1,-1,-1,-1,-1,-1,-1,-1,-1,-1,-1],"split_conditions":[1.5998114E0,-1.018138E0,-6.7034197E-1,3.5120595E-1,-8.973996E-1,-0E0,1.3945017E0,-1.0082897E-2,-0E0,-2.6124734E-1,-4.0999794E-1,2.584744E0,-0E0,-1.4327261E0,-1.6987375E0,9.3718415E-1,1.3700252E0,-1.4281166E-1,-0E0,-3.5213017E-1,-2.0306792E0,-0E0,-1.3592087E-1,-1.4640987E-1,1.1608844E0,1.633419E-1,2.937727E-1,-0E0,2.9969683E0,-1.8367768E-3,-0E0,-0E0,2.7444668E-3,-8.080969E-3,-0E0,-0E0,1.07212756E-4,-4.1954378E-3,-0E0,5.151955E-3,-0E0,2.8726447E-4,-3.4334215E-3,1.0834154E-2,-0E0],"split_indices":[6,3,5,6,6,0,5,0,0,5,5,7,0,9,9,2,7,8,0,5,8,0,9,8,9,9,8,0,3,0,0,0,0,0,0,0,0,0,0,0,0,0,0,0,0],"split_type":[0,0,0,0,0,0,0,0,0,0,0,0,0,0,0,0,0,0,0,0,0,0,0,0,0,0,0,0,0,0,0,0,0,0,0,0,0,0,0,0,0,0,0,0,0],"sum_hessian":[1.095E3,9.66E2,1.29E2,5.4E1,9.12E2,1.1E1,1.18E2,4.7E1,7E0,1.56E2,7.56E2,1.08E2,1E1,7.3E1,8.3E1,1.32E2,6.24E2,1.05E2,3E0,2.6E1,4.7E1,8E0,7.5E1,6.7E1,6.5E1,5.05E2,1.19E2,1.2E1,9.3E1,2.4E1,2E0,2E0,4.5E1,6.5E1,1E1,2.7E1,4E1,6.2E1,3E0,2.31E2,2.74E2,4.5E1,7.4E1,9.2E1,1E0],"tree_param":{"num_deleted":"0","num_feature":"10","num_nodes":"45","size_leaf_vector":"1"}},{"base_weights":[-0E0,-4.59301E-3,3.3531483E-2,-3.2681547E-2,-0E0,-0E0,3.685345E-2,-0E0,-9.860362E-3,-1.5893744E-2,2.2167712E-3,-0E0,1.1250027E-2,-2.0815695E-2,-0E0,-0E0,1.3299468E-2,-6.344258E-3,-0E0,7.907391E-4,-0E0,5.762177E-3,-2.2760122E-3,1.5410435E-2,-0E0,6.2085193E-4,-0E0,-1.6812419E-3,3.9120098E-3,3.534055E-3,-1.9738772E-3,-0E0,5.2568456E-3],"categories":[],"categories_nodes":[],"categories_segments":[],"categories_sizes":[],"default_left":[0,0,0,0,0,0,0,0,0,0,0,0,0,0,0,0,0,0,0,0,0,0,0,0,0,0,0,0,0,0,0,0,0],"id":22,"left_children":[1,3,5,7,9,-1,11,-1,-1,13,15,-1,-1,17,19,21,23,-1,-1,25,-1,27,29,31,-1,-1,-1,-1,-1,-1,-1,-1,-1],"loss_changes":[1.8177603E-1,1.251661E-1,1.3719827E-2,6.2958896E-4,5.278534E-2,0E0,3.2455623E-3,0E0,0E0,2.2016697E-2,2.308142E-2,0E0,0E0,1.7946586E-3,7.503219E-5,1.4550539E-2,9.39882E-3,0E0,0E0,4.1749637E-4,0E0,4.138032E-2,4.7616772E-2,9.456441E-3,0E0,0E0,0E0,0E0,0E0,0E0,0E0,0E0,0E0],"parents":[2147483647,0,0,1,1,2,2,3,3,4,4,6,6,9,9,10,10,13,13,14,14,15,15,16,16,19,19,21,21,22,22,23,23],"right_children":[2,4,6,8,10,-1,12,-1,-1,14,16,-1,-1,18,20,22,24,-1,-1,26,-1,28,30,32,-1,-1,-1,-1,-1,-1,-1,-1,-1],"split_conditions":[1.8110232E0,-1.3254275E0,1.6585995E0,-1.898246E0,-1.5989833E0,-0E0,3.5120595E-1,-0E0,-9.860362E-3,-4.683203E-2,1.1941359E0,-0E0,1.1250027E-2,3.7994626E0,3.7773463E-1,-6.2377405E-1,1.7642463E0,-6.344258E-3,-0E0,1.3700252E0,-0E0,-5.6045413E-1,-8.342006E-1,-7.297935E-1,-0E0,6.2085193E-4,-0E0,-1.6812419E-3,3.9120098E-3,3.534055E-3,-1.9738772E-3,-0E0,5.2568456E-3],"split_indices":[8,8,3,9,9,0,6,0,0,5,9,0,0,7,5,8,8,0,0,7,0,5,9,5,0,0,0,0,0,0,0,0,0],"split_type":[0,0,0,0,0,0,0,0,0,0,0,0,0,0,0,0,0,0,0,0,0,0,0,0,0,0,0,0,0,0,0,0,0],"sum_hessian":[1.095E3,1.055E3,4E1,4E1,1.015E3,1.4E1,2.6E1,1E0,3.9E1,8.9E1,9.26E2,2E0,2.4E1,6.1E1,2.8E1,8.67E2,5.9E1,6E1,1E0,2E1,8E0,2.22E2,6.45E2,5.8E1,1E0,1.5E1,5E0,4.2E1,1.8E2,5.6E1,5.89E2,5E0,5.3E1],"tree_param":{"num_deleted":"0","num_feature":"10","num_nodes":"33","size_leaf_vector":"1"}},{"base_weights":[-0E0,-2.1705559E-2,5.916817E-3,-3.4966554E-2,-0E0,5.960758E-4,3.1602826E-2,-0E0,-3.600317E-2,-7.870748E-3,6.320427E-3,-2.2506907E-3,9.550685E-3,-0E0,3.4710497E-2,-3.641078E-2,-0E0,-0E0,-8.4742755E-3,1.0344855E-2,-0E0,-0E0,-1.0996195E-2,-0E0,1.7688666E-2,-0E0,3.5322573E-2,-3.6705077E-2,-0E0,-2.6493568E-3,-0E0,1.2771903E-2,-0E0,-1.4854117E-3,5.588939E-3,-0E0,-1.7665513E-2,7.576942E-5,-1.6583193E-3,-0E0,1.8122334E-2,1.0650661E-2,-0E0,-0E0,-1.13177225E-2,4.0649655E-3,-0E0,-2.3636273E-3,-0E0,4.83114E-3,-0E0,-0E0,5.0521936E-5,-6.8086544E-3,-0E0,-0E0,5.23121E-4,-9.797291E-4,-0E0,5.592815E-3,-0E0],"categories":[],"categories_nodes":[],"categories_segments":[],"categories_sizes":[],"default_left":[0,0,0,0,0,0,0,0,0,0,0,0,0,0,0,0,0,0,0,0,0,0,0,0,0,0,0,0,0,0,0,0,0,0,0,0,0,0,0,0,0,0,0,0,0,0,0,0,0,0,0,0,0,0,0,0,0,0,0,0,0],"id":23,"left_children":[1,3,5,7,9,11,13,-1,15,17,19,21,23,-1,25,27,-1,-1,29,31,-1,33,35,37,39,-1,41,43,-1,-1,-1,45,-1,47,49,51,53,55,57,-1,59,-1,-1,-1,-1,-1,-1,-1,-1,-1,-1,-1,-1,-1,-1,-1,-1,-1,-1,-1,-1],"loss_changes":[1.6745062E-1,8.32714E-2,1.04635954E-1,1.0355532E-2,1.5004244E-2,3.4303952E-2,1.1983752E-2,0E0,3.8101524E-3,1.1387812E-3,1.0599708E-2,2.4928873E-2,3.1968586E-2,0E0,2.9056966E-3,1.0280758E-3,0E0,0E0,7.1260985E-4,8.222571E-3,0E0,9.699678E-3,2.8139634E-2,5.453082E-4,2.7931333E-3,0E0,3.171414E-4,8.720949E-3,0E0,0E0,0E0,2.868304E-3,0E0,9.257974E-3,2.3639154E-2,3.9137813E-6,2.9222615E-2,4.0663898E-4,1.44989E-3,0E0,2.7837157E-3,0E0,0E0,0E0,0E0,0E0,0E0,0E0,0E0,0E0,0E0,0E0,0E0,0E0,0E0,0E0,0E0,0E0,0E0,0E0,0E0],"parents":[2147483647,0,0,1,1,2,2,3,3,4,4,5,5,6,6,8,8,9,9,10,10,11,11,12,12,14,14,15,15,18,18,19,19,21,21,22,22,23,23,24,24,26,26,27,27,31,31,33,33,34,34,35,35,36,36,37,37,38,38,40,40],"right_children":[2,4,6,8,10,12,14,-1,16,18,20,22,24,-1,26,28,-1,-1,30,32,-1,34,36,38,40,-1,42,44,-1,-1,-1,46,-1,48,50,52,54,56,58,-1,60,-1,-1,-1,-1,-1,-1,-1,-1,-1,-1,-1,-1,-1,-1,-1,-1,-1,-1,-1,-1],"split_conditions":[-8.7445027E-1,-6.014407E-1,1.8110232E0,-2.0312517E0,-5.245152E-1,9.9462736E-1,1.6585995E0,-0E0,9.698132E-1,-5.3493786E-1,2.6309615E-1,1.3700252E0,9.755087E-1,-0E0,3.5120595E-1,-8.8644433E-1,-0E0,-0E0,-9.29623E-1,2.7604189E-2,-0E0,-3.0961826E-3,3.225585E-1,1.553065E-1,-9.628483E-1,-0E0,2.584744E0,-1.898246E0,-0E0,-2.6493568E-3,-0E0,1.3700252E0,-0E0,-8.973996E-1,-9.672063E-1,-3.4910974E-1,3.9832336E-1,-3.395145E-1,1.2273873E0,-0E0,7.1824074E-1,1.0650661E-2,-0E0,-0E0,-1.13177225E-2,4.0649655E-3,-0E0,-2.3636273E-3,-0E0,4.83114E-3,-0E0,-0E0,5.0521936E-5,-6.8086544E-3,-0E0,-0E0,5.23121E-4,-9.797291E-4,-0E0,5.592815E-3,-0E0],"split_indices":[8,9,8,9,5,9,3,0,5,9,9,7,6,0,6,8,0,0,8,5,0,5,8,7,5,0,7,9,0,0,0,7,0,6,9,8,5,8,9,0,5,0,0,0,0,0,0,0,0,0,0,0,0,0,0,0,0,0,0,0,0],"split_type":[0,0,0,0,0,0,0,0,0,0,0,0,0,0,0,0,0,0,0,0,0,0,0,0,0,0,0,0,0,0,0,0,0,0,0,0,0,0,0,0,0,0,0,0,0,0,0,0,0,0,0,0,0,0,0,0,0,0,0,0,0],"sum_hessian":[1.095E3,1.8E2,9.15E2,7.6E1,1.04E2,8.75E2,4E1,2E0,7.4E1,3E1,7.4E1,6.36E2,2.39E2,1.4E1,2.6E1,7.3E1,1E0,2E0,2.8E1,6.4E1,1E1,4.99E2,1.37E2,1.38E2,1.01E2,2E0,2.4E1,7.1E1,2E0,2.7E1,1E0,5.8E1,6E0,3.18E2,1.81E2,5.5E1,8.2E1,4E1,9.8E1,1E0,1E2,2.3E1,1E0,3E0,6.8E1,5.6E1,2E0,6.4E1,2.54E2,2.5E1,1.56E2,1.7E1,3.8E1,6.7E1,1.5E1,6E0,3.4E1,8.7E1,1.1E1,9.7E1,3E0],"tree_param":{"num_deleted":"0","num_feature":"10","num_nodes":"61","size_leaf_vector":"1"}},{"base_weights":[-0E0,-1.9514527E-2,5.6849774E-3,-3.059398E-2,-0E0,6.059705E-4,2.9853078E-2,-0E0,-3.1580333E-2,-7.320507E-3,5.012293E-3,-1.592136E-3,8.149361E-3,-0E0,3.2766335E-2,-3.196238E-2,-0E0,-0E0,-7.915437E-3,8.956956E-3,-0E0,-0E0,-9.079595E-3,-0E0,1.49898715E-2,-0E0,3.334705E-2,-3.220465E-2,-0E0,-2.4803854E-3,-0E0,1.1331298E-2,-0E0,3.928218E-3,-3.2206585E-3,-0E0,-1.5159166E-2,-0E0,-1.2279665E-3,-0E0,1.5410047E-2,1.0053186E-2,-0E0,-0E0,-9.943483E-3,3.6272437E-3,-0E0,-2.682686E-4,2.265971E-3,-0E0,-2.3873753E-3,-0E0,4.63465E-5,-5.9892144E-3,-0E0,-0E0,4.832674E-4,-8.430287E-4,-0E0,4.7667376E-3,-0E0],"categories":[],"categories_nodes":[],"categories_segments":[],"categories_sizes":[],"default_left":[0,0,0,0,0,0,0,0,0,0,0,0,0,0,0,0,0,0,0,0,0,0,0,0,0,0,0,0,0,0,0,0,0,0,0,0,0,0,0,0,0,0,0,0,0,0,0,0,0,0,0,0,0,0,0,0,0,0,0,0,0],"id":24,"left_children":[1,3,5,7,9,11,13,-1,15,17,19,21,23,-1,25,27,-1,-1,29,31,-1,33,35,37,39,-1,41,43,-1,-1,-1,45,-1,47,49,51,53,55,57,-1,59,-1,-1,-1,-1,-1,-1,-1,-1,-1,-1,-1,-1,-1,-1,-1,-1,-1,-1,-1,-1],"loss_changes":[1.3943245E-1,5.8105834E-2,9.232314E-2,8.798704E-3,1.1338092E-2,2.4021361E-2,1.0508835E-2,0E0,3.2024682E-3,1.0530539E-3,8.7858215E-3,1.767237E-2,2.2650251E-2,0E0,2.6134998E-3,6.1514974E-4,0E0,0E0,6.61863E-4,7.129699E-3,0E0,9.536808E-3,2.2285609E-2,2.9856453E-4,2.3299567E-3,0E0,2.3306906E-4,7.211834E-3,0E0,0E0,0E0,2.5183484E-3,0E0,1.52360555E-2,1.0863589E-2,3.2935968E-6,2.4736382E-2,3.4772602E-4,1.1781068E-3,0E0,2.2415556E-3,0E0,0E0,0E0,0E0,0E0,0E0,0E0,0E0,0E0,0E0,0E0,0E0,0E0,0E0,0E0,0E0,0E0,0E0,0E0,0E0],"parents":[2147483647,0,0,1,1,2,2,3,3,4,4,5,5,6,6,8,8,9,9,10,10,11,11,12,12,14,14,15,15,18,18,19,19,21,21,22,22,23,23,24,24,26,26,27,27,31,31,33,33,34,34,35,35,36,36,37,37,38,38,40,40],"right_children":[2,4,6,8,10,12,14,-1,16,18,20,22,24,-1,26,28,-1,-1,30,32,-1,34,36,38,40,-1,42,44,-1,-1,-1,46,-1,48,50,52,54,56,58,-1,60,-1,-1,-1,-1,-1,-1,-1,-1,-1,-1,-1,-1,-1,-1,-1,-1,-1,-1,-1,-1],"split_conditions":[-8.7445027E-1,-6.014407E-1,1.8110232E0,-2.0312517E0,-5.245152E-1,9.9462736E-1,1.6585995E0,-0E0,9.698132E-1,-5.3493786E-1,2.6309615E-1,1.3700252E0,9.755087E-1,-0E0,3.5120595E-1,-8.8644433E-1,-0E0,-0E0,-9.29623E-1,2.7604189E-2,-0E0,2.2984473E-1,3.225585E-1,1.553065E-1,-9.628483E-1,-0E0,2.584744E0,-1.898246E0,-0E0,-2.4803854E-3,-0E0,1.3700252E0,-0E0,-3.8965285E-1,1.553065E-1,-3.4910974E-1,3.9832336E-1,-3.395145E-1,1.2273873E0,-0E0,7.1824074E-1,1.0053186E-2,-0E0,-0E0,-9.943483E-3,3.6272437E-3,-0E0,-2.682686E-4,2.265971E-3,-0E0,-2.3873753E-3,-0E0,4.63465E-5,-5.9892144E-3,-0E0,-0E0,4.832674E-4,-8.430287E-4,-0E0,4.7667376E-3,-0E0],"split_indices":[8,9,8,9,5,9,3,0,5,9,9,7,6,0,6,8,0,0,8,5,0,9,8,7,5,0,7,9,0,0,0,7,0,5,7,8,5,8,9,0,5,0,0,0,0,0,0,0,0,0,0,0,0,0,0,0,0,0,0,0,0],"split_type":[0,0,0,0,0,0,0,0,0,0,0,0,0,0,0,0,0,0,0,0,0,0,0,0,0,0,0,0,0,0,0,0,0,0,0,0,0,0,0,0,0,0,0,0,0,0,0,0,0,0,0,0,0,0,0,0,0,0,0,0,0],"sum_hessian":[1.095E3,1.8E2,9.15E2,7.6E1,1.04E2,8.75E2,4E1,2E0,7.4E1,3E1,7.4E1,6.36E2,2.39E2,1.4E1,2.6E1,7.3E1,1E0,2E0,2.8E1,6.4E1,1E1,4.99E2,1.37E2,1.38E2,1.01E2,2E0,2.4E1,7.1E1,2E0,2.7E1,1E0,5.8E1,6E0,3.52E2,1.47E2,5.5E1,8.2E1,4E1,9.8E1,1E0,1E2,2.3E1,1E0,3E0,6.8E1,5.6E1,2E0,6.5E1,2.87E2,3.5E1,1.12E2,1.7E1,3.8E1,6.7E1,1.5E1,6E0,3.4E1,8.7E1,1.1E1,9.7E1,3E0],"tree_param":{"num_deleted":"0","num_feature":"10","num_nodes":"61","size_leaf_vector":"1"}},{"base_weights":[-0E0,-3.6271168E-3,2.5435004E-2,-2.5658302E-2,-0E0,2.9013295E-2,-0E0,-2.6434444E-2,-0E0,-1.0055749E-2,1.1724811E-3,-0E0,3.1131163E-2,-2.6637455E-2,-0E0,-1.1688285E-2,-0E0,-6.7801573E-3,4.360671E-3,3.210525E-2,-0E0,-8.047063E-3,-0E0,-0E0,-1.3673534E-2,4.9476966E-4,-1.5406816E-2,-5.887247E-3,7.4877413E-3,-0E0,9.676614E-3,-0E0,-4.3826774E-3,-1.4342001E-4,2.328505E-3,-0E0,-5.827646E-3,-2.3239693E-3,-0E0,3.7361053E-3,-0E0],"categories":[],"categories_nodes":[],"categories_segments":[],"categories_sizes":[],"default_left":[0,0,0,0,0,0,0,0,0,0,0,0,0,0,0,0,0,0,0,0,0,0,0,0,0,0,0,0,0,0,0,0,0,0,0,0,0,0,0,0,0],"id":25,"left_children":[1,3,5,7,9,11,-1,13,-1,15,17,-1,19,21,-1,23,-1,25,27,29,-1,-1,-1,-1,31,33,35,37,39,-1,-1,-1,-1,-1,-1,-1,-1,-1,-1,-1,-1],"loss_changes":[1.24780186E-1,8.790189E-2,2.7229004E-2,4.210949E-3,1.4473934E-2,4.287079E-3,0E0,2.2935867E-4,0E0,4.4426145E-3,2.6905818E-2,0E0,6.931752E-3,6.3195825E-5,0E0,4.7620498E-3,0E0,3.1175632E-2,3.4625754E-2,3.5101175E-4,0E0,0E0,0E0,0E0,2.9347409E-3,8.842356E-3,2.3546923E-2,1.6359282E-3,1.980818E-2,0E0,0E0,0E0,0E0,0E0,0E0,0E0,0E0,0E0,0E0,0E0,0E0],"parents":[2147483647,0,0,1,1,2,2,3,3,4,4,5,5,7,7,9,9,10,10,12,12,13,13,15,15,17,17,18,18,19,19,24,24,25,25,26,26,27,27,28,28],"right_children":[2,4,6,8,10,12,-1,14,-1,16,18,-1,20,22,-1,24,-1,26,28,30,-1,-1,-1,-1,32,34,36,38,40,-1,-1,-1,-1,-1,-1,-1,-1,-1,-1,-1,-1],"split_conditions":[1.4739897E0,-1.018138E0,1.3945017E0,1.5998114E0,-1.8649945E0,1.7367461E-1,-0E0,3.7994626E0,-0E0,9.698132E-1,-8.973996E-1,-0E0,2.584744E0,2.855346E0,-0E0,-8.973996E-1,-0E0,-2.6124734E-1,-6.7034197E-1,-1.018138E0,-0E0,-8.047063E-3,-0E0,-0E0,-1.0303732E0,-1.4327261E0,-1.6987375E0,9.281245E-1,1.633419E-1,-0E0,9.676614E-3,-0E0,-4.3826774E-3,-1.4342001E-4,2.328505E-3,-0E0,-5.827646E-3,-2.3239693E-3,-0E0,3.7361053E-3,-0E0],"split_indices":[8,3,5,6,9,5,0,7,0,5,6,0,7,2,0,6,0,5,5,3,0,0,0,0,8,9,9,9,9,0,0,0,0,0,0,0,0,0,0,0,0],"split_type":[0,0,0,0,0,0,0,0,0,0,0,0,0,0,0,0,0,0,0,0,0,0,0,0,0,0,0,0,0,0,0,0,0,0,0,0,0,0,0,0,0],"sum_hessian":[1.095E3,1.025E3,7E1,5.6E1,9.69E2,6.3E1,7E0,5.3E1,3E0,2.9E1,9.4E2,1.7E1,4.6E1,5.1E1,2E0,2.8E1,1E0,1.47E2,7.93E2,4.4E1,2E0,4.9E1,2E0,9E0,1.9E1,6.8E1,7.9E1,9E1,7.03E2,1E0,4.3E1,1E0,1.8E1,2.1E1,4.7E1,4E0,7.5E1,3.7E1,5.3E1,3.18E2,3.85E2],"tree_param":{"num_deleted":"0","num_feature":"10","num_nodes":"41","size_leaf_vector":"1"}},{"base_weights":[-0E0,-4.7465605E-3,2.0038426E-2,-2.5074523E-2,-5.354779E-4,-0E0,2.2673354E-2,-0E0,-7.5618364E-3,-1.0594092E-2,4.5973907E-4,2.5396993E-2,-0E0,-1.6045177E-2,-0E0,1.0338812E-2,-2.8860895E-3,-0E0,2.834719E-2,-4.904544E-3,-0E0,-0E0,6.625042E-4,-0E0,2.3898518E-2,1.3846539E-2,-7.7455714E-3,2.9077247E-2,-0E0,3.2441117E-4,-0E0,2.1306253E-3,-1.8254289E-3,-0E0,7.693918E-3,-0E0,5.0079348E-3,-0E0,-3.499269E-3,-0E0,8.775583E-3],"categories":[],"categories_nodes":[],"categories_segments":[],"categories_sizes":[],"default_left":[0,0,0,0,0,0,0,0,0,0,0,0,0,0,0,0,0,0,0,0,0,0,0,0,0,0,0,0,0,0,0,0,0,0,0,0,0,0,0,0,0],"id":26,"left_children":[1,3,5,7,9,-1,11,-1,-1,13,15,17,-1,19,21,23,25,-1,27,-1,-1,-1,29,31,33,35,37,39,-1,-1,-1,-1,-1,-1,-1,-1,-1,-1,-1,-1,-1],"loss_changes":[1.1596912E-1,6.429982E-2,2.0117328E-2,2.9100478E-4,2.0892182E-2,0E0,2.2091873E-2,0E0,0E0,2.0203723E-2,4.1474003E-2,6.4620376E-3,0E0,1.3047382E-3,5.310832E-5,4.87201E-2,6.1867554E-2,0E0,4.800096E-3,0E0,0E0,0E0,8.604578E-5,1.6649261E-2,1.1501074E-2,7.571606E-3,3.139222E-2,8.969456E-4,0E0,0E0,0E0,0E0,0E0,0E0,0E0,0E0,0E0,0E0,0E0,0E0,0E0],"parents":[2147483647,0,0,1,1,2,2,3,3,4,4,6,6,9,9,10,10,11,11,13,13,14,14,15,15,16,16,18,18,22,22,23,23,24,24,25,25,26,26,27,27],"right_children":[2,4,6,8,10,-1,12,-1,-1,14,16,18,-1,20,22,24,26,-1,28,-1,-1,-1,30,32,34,36,38,40,-1,-1,-1,-1,-1,-1,-1,-1,-1,-1,-1,-1,-1],"split_conditions":[1.5998114E0,-1.3254275E0,-6.7034197E-1,-1.898246E0,-1.5989833E0,-0E0,1.3945017E0,-0E0,-7.5618364E-3,-4.683203E-2,1.553065E-1,3.7053478E-1,-0E0,3.7994626E0,-2.23076E0,2.937727E-1,-1.0337092E0,-0E0,2.584744E0,-4.904544E-3,-0E0,-0E0,1.3945017E0,3.2023072E-1,3.2023072E-1,-3.9948487E-1,-5.338185E-1,-1.018138E0,-0E0,3.2441117E-4,-0E0,2.1306253E-3,-1.8254289E-3,-0E0,7.693918E-3,-0E0,5.0079348E-3,-0E0,-3.499269E-3,-0E0,8.775583E-3],"split_indices":[6,8,5,9,9,0,5,0,0,5,7,8,0,7,9,8,9,0,7,0,0,0,5,3,3,8,8,3,0,0,0,0,0,0,0,0,0,0,0,0,0],"split_type":[0,0,0,0,0,0,0,0,0,0,0,0,0,0,0,0,0,0,0,0,0,0,0,0,0,0,0,0,0,0,0,0,0,0,0,0,0,0,0,0,0],"sum_hessian":[1.095E3,9.66E2,1.29E2,4E1,9.26E2,1.1E1,1.18E2,1E0,3.9E1,8.7E1,8.39E2,1.08E2,1E1,6E1,2.7E1,2.35E2,6.04E2,3.3E1,7.5E1,5.9E1,1E0,6E0,2.1E1,1.87E2,4.8E1,4.8E1,5.56E2,7.2E1,3E0,1.9E1,2E0,7.3E1,1.14E2,2E0,4.6E1,1.9E1,2.9E1,1.36E2,4.2E2,1E0,7.1E1],"tree_param":{"num_deleted":"0","num_feature":"10","num_nodes":"41","size_leaf_vector":"1"}},{"base_weights":[-0E0,-6.382048E-3,1.2046022E-2,-1.4565021E-2,9.292586E-4,-0E0,2.4727847E-2,-3.0861631E-2,-1.363642E-3,-1.23179965E-2,7.90484E-3,3.4940059E-3,-1.343797E-3,-0E0,3.054747E-2,-9.337906E-3,-0E0,3.8941544E-3,-1.2749391E-2,-0E0,-1.3379139E-2,-2.9068727E-3,1.1628291E-2,-0E0,7.758305E-3,-0E0,-4.259274E-3,9.288393E-3,-0E0,6.6839186E-3,-0E0,-1.8855276E-2,1.4225132E-3,-0E0,-4.479983E-3,-5.4314453E-3,-0E0,1.5958577E-2,-0E0,1.1393184E-2,-0E0,-7.908456E-3,-0E0,2.598374E-3,-0E0,-0E0,-6.5578683E-3,4.6192444E-4,-0E0,-0E0,-2.125635E-3,-0E0,5.241384E-3,-0E0,-1.17575335E-4,3.463576E-3,-0E0,-2.7931677E-3,-0E0],"categories":[],"categories_nodes":[],"categories_segments":[],"categories_sizes":[],"default_left":[0,0,0,0,0,0,0,0,0,0,0,0,0,0,0,0,0,0,0,0,0,0,0,0,0,0,0,0,0,0,0,0,0,0,0,0,0,0,0,0,0,0,0,0,0,0,0,0,0,0,0,0,0,0,0,0,0,0,0],"id":27,"left_children":[1,3,5,7,9,11,13,15,17,19,21,23,25,-1,27,-1,-1,29,31,-1,33,35,37,-1,39,-1,41,-1,-1,43,-1,45,47,-1,-1,49,-1,51,53,55,-1,57,-1,-1,-1,-1,-1,-1,-1,-1,-1,-1,-1,-1,-1,-1,-1,-1,-1],"loss_changes":[1.0242908E-1,6.398855E-2,6.6063315E-2,6.188424E-2,4.8016198E-2,2.7148507E-3,1.9768462E-2,1.7551482E-3,3.722685E-2,2.0939633E-3,2.8727705E-2,6.867015E-3,3.2985746E-3,0E0,3.2668859E-3,0E0,0E0,6.7726425E-3,3.8027074E-2,0E0,5.4031797E-3,2.3449282E-3,3.406263E-2,0E0,9.992396E-3,0E0,4.714386E-3,0E0,0E0,6.6247117E-3,0E0,2.1719068E-2,3.444089E-5,0E0,0E0,2.1386256E-3,0E0,1.6785353E-2,2.0735937E-5,3.7947856E-4,0E0,3.1100502E-3,0E0,0E0,0E0,0E0,0E0,0E0,0E0,0E0,0E0,0E0,0E0,0E0,0E0,0E0,0E0,0E0,0E0],"parents":[2147483647,0,0,1,1,2,2,3,3,4,4,5,5,6,6,7,7,8,8,9,9,10,10,11,11,12,12,14,14,17,17,18,18,20,20,21,21,22,22,24,24,26,26,29,29,31,31,32,32,35,35,37,37,38,38,39,39,41,41],"right_children":[2,4,6,8,10,12,14,16,18,20,22,24,26,-1,28,-1,-1,30,32,-1,34,36,38,-1,40,-1,42,-1,-1,44,-1,46,48,-1,-1,50,-1,52,54,56,-1,58,-1,-1,-1,-1,-1,-1,-1,-1,-1,-1,-1,-1,-1,-1,-1,-1,-1],"split_conditions":[7.618674E-1,9.3718415E-1,1.6585995E0,-7.0119494E-1,-5.6045413E-1,1.553065E-1,9.755087E-1,2.2260919E0,-1.3081758E-1,-8.973996E-1,-2.23076E0,-1.6919862E-1,2.2706592E-2,-0E0,2.9969683E0,-9.337906E-3,-0E0,3.223361E-2,3.0864332E0,-0E0,-1.5989833E0,9.642415E-1,2.2984473E-1,-0E0,1.1153668E0,-0E0,-1.5537977E-1,9.288393E-3,-0E0,2.6309615E-1,-0E0,-1.0594122E0,1.553065E-1,-0E0,-4.479983E-3,-2.2197254E-1,-0E0,-2.2741308E0,-8.6303934E-2,9.3718415E-1,-0E0,1.2273873E0,-0E0,2.598374E-3,-0E0,-0E0,-6.5578683E-3,4.6192444E-4,-0E0,-0E0,-2.125635E-3,-0E0,5.241384E-3,-0E0,-1.17575335E-4,3.463576E-3,-0E0,-2.7931677E-3,-0E0],"split_indices":[9,2,3,9,5,7,6,5,8,6,9,8,8,0,3,0,0,5,5,0,9,8,9,0,8,0,5,0,0,9,0,7,7,0,0,8,0,7,5,2,0,9,0,0,0,0,0,0,0,0,0,0,0,0,0,0,0,0,0],"split_type":[0,0,0,0,0,0,0,0,0,0,0,0,0,0,0,0,0,0,0,0,0,0,0,0,0,0,0,0,0,0,0,0,0,0,0,0,0,0,0,0,0,0,0,0,0,0,0,0,0,0,0,0,0,0,0,0,0,0,0],"sum_hessian":[1.095E3,7.19E2,3.76E2,3.57E2,3.62E2,2.55E2,1.21E2,6.6E1,2.91E2,4.9E1,3.13E2,8.2E1,1.73E2,5.5E1,6.6E1,6.5E1,1E0,1.84E2,1.07E2,1.1E1,3.8E1,1.7E1,2.96E2,3.1E1,5.1E1,6.4E1,1.09E2,6.5E1,1E0,1.48E2,3.6E1,1.01E2,6E0,3E0,3.5E1,1.3E1,4E0,2.44E2,5.2E1,4.7E1,4E0,3.6E1,7.3E1,1.36E2,1.2E1,6E0,9.5E1,5E0,1E0,4E0,9E0,2E0,2.42E2,1.7E1,3.5E1,4.6E1,1E0,3.4E1,2E0],"tree_param":{"num_deleted":"0","num_feature":"10","num_nodes":"59","size_leaf_vector":"1"}},{"base_weights":[-0E0,-3.2649778E-3,2.4255535E-2,-2.1655077E-2,-0E0,-0E0,2.7475784E-2,-2.2395583E-2,-0E0,-1.6963988E-3,8.690466E-3,8.634565E-3,-0E0,-2.26117E-2,-0E0,-5.39268E-3,6.158187E-5,1.0824871E-2,-0E0,-2.2749938E-2,-0E0,-0E0,-1.3719606E-2,8.566029E-3,-9.4853505E-4,-0E0,1.3011135E-2,-6.8869563E-3,-0E0,-1.4900555E-3,3.999077E-3,-4.6018953E-3,-0E0,3.8073154E-3,-0E0,-1.4986356E-3,1.0671718E-3,-0E0,4.214967E-3],"categories":[],"categories_nodes":[],"categories_segments":[],"categories_sizes":[],"default_left":[0,0,0,0,0,0,0,0,0,0,0,0,0,0,0,0,0,0,0,0,0,0,0,0,0,0,0,0,0,0,0,0,0,0,0,0,0,0,0],"id":28,"left_children":[1,3,5,7,9,-1,11,13,-1,15,17,-1,-1,19,-1,21,23,25,-1,27,-1,29,31,33,35,-1,37,-1,-1,-1,-1,-1,-1,-1,-1,-1,-1,-1,-1],"loss_changes":[9.467873E-2,6.0842615E-2,1.1998497E-2,3.5839975E-3,1.492858E-2,0E0,8.35637E-3,4.6563148E-4,0E0,1.2128715E-2,6.4640986E-3,0E0,0E0,4.293248E-4,0E0,3.438174E-2,1.3764705E-2,7.335104E-3,0E0,3.6230683E-4,0E0,3.6982395E-2,1.1910718E-2,1.2810957E-2,1.306184E-2,0E0,9.168945E-4,0E0,0E0,0E0,0E0,0E0,0E0,0E0,0E0,0E0,0E0,0E0,0E0],"parents":[2147483647,0,0,1,1,2,2,3,3,4,4,6,6,7,7,9,9,10,10,13,13,15,15,16,16,17,17,19,19,21,21,22,22,23,23,24,24,26,26],"right_children":[2,4,6,8,10,-1,12,14,-1,16,18,-1,-1,20,-1,22,24,26,-1,28,-1,30,32,34,36,-1,38,-1,-1,-1,-1,-1,-1,-1,-1,-1,-1,-1,-1],"split_conditions":[1.8110232E0,-1.018138E0,6.621132E-1,1.5998114E0,1.1941359E0,-0E0,1.1006881E1,3.7994626E0,-0E0,-1.7158274E-1,1.7642463E0,8.634565E-3,-0E0,7.951188E-1,-0E0,-3.1984606E-1,-6.2377405E-1,-7.297935E-1,-0E0,3.7053478E-1,-0E0,-3.9294216E-1,2.2241142E0,2.0815161E-1,4.2220142E-1,-0E0,3.5120595E-1,-6.8869563E-3,-0E0,-1.4900555E-3,3.999077E-3,-4.6018953E-3,-0E0,3.8073154E-3,-0E0,-1.4986356E-3,1.0671718E-3,-0E0,4.214967E-3],"split_indices":[8,3,9,6,9,0,8,7,0,5,8,0,0,9,0,5,8,5,0,8,0,5,6,5,5,0,6,0,0,0,0,0,0,0,0,0,0,0,0],"split_type":[0,0,0,0,0,0,0,0,0,0,0,0,0,0,0,0,0,0,0,0,0,0,0,0,0,0,0,0,0,0,0,0,0,0,0,0,0,0,0],"sum_hessian":[1.095E3,1.055E3,4E1,5.6E1,9.99E2,1.5E1,2.5E1,5.3E1,3E0,9.41E2,5.8E1,2.4E1,1E0,5.1E1,2E0,4.2E2,5.21E2,5.7E1,1E0,5E1,1E0,2.57E2,1.63E2,8.1E1,4.4E2,5E0,5.2E1,4.8E1,2E0,1.89E2,6.8E1,1.61E2,2E0,6.2E1,1.9E1,3.43E2,9.7E1,1.7E1,3.5E1],"tree_param":{"num_deleted":"0","num_feature":"10","num_nodes":"39","size_leaf_vector":"1"}},{"base_weights":[-0E0,-5.664857E-3,1.085049E-2,-1.1753076E-2,-0E0,-0E0,1.8038115E-2,-2.6404174E-2,-0E0,-1.0459695E-2,5.545115E-3,-1.8003983E-4,-0E0,-0E0,2.0420393E-2,-7.990624E-3,-0E0,3.069611E-3,-9.792461E-3,-0E0,-1.1608774E-2,-2.4681091E-3,9.03763E-3,-0E0,-2.7707173E-3,-0E0,2.1377817E-2,6.3379644E-3,-0E0,3.786095E-3,-1.9409565E-2,-0E0,-3.955684E-3,-5.0036674E-3,-0E0,1.2882984E-2,-0E0,-3.2918686E-3,-0E0,6.59963E-3,-0E0,2.428512E-3,-0E0,-0E0,1.8584358E-3,-6.3436124E-3,-0E0,-0E0,-2.0258694E-3,-0E0,6.1731134E-3,-0E0,-6.5212254E-5,-0E0,-1.1281716E-3],"categories":[],"categories_nodes":[],"categories_segments":[],"categories_sizes":[],"default_left":[0,0,0,0,0,0,0,0,0,0,0,0,0,0,0,0,0,0,0,0,0,0,0,0,0,0,0,0,0,0,0,0,0,0,0,0,0,0,0,0,0,0,0,0,0,0,0,0,0,0,0,0,0,0,0],"id":29,"left_children":[1,3,5,7,9,11,13,15,17,19,21,23,-1,-1,25,-1,-1,27,29,-1,31,33,35,-1,37,-1,39,41,-1,43,45,-1,-1,47,-1,49,51,53,-1,-1,-1,-1,-1,-1,-1,-1,-1,-1,-1,-1,-1,-1,-1,-1,-1],"loss_changes":[8.232317E-2,3.6845393E-2,4.3523338E-2,5.2604355E-2,2.9000426E-2,8.460142E-6,7.602766E-3,1.3265014E-3,2.140159E-2,2.2960026E-3,2.0358447E-2,1.2889317E-3,0E0,0E0,7.999711E-3,0E0,0E0,7.5653195E-3,4.8305877E-2,0E0,4.873777E-3,2.1164329E-3,2.4749335E-2,0E0,4.7977758E-4,0E0,6.3035935E-3,5.756492E-3,0E0,2.793817E-3,1.1284187E-2,0E0,0E0,2.1414317E-3,0E0,2.631858E-2,6.3789566E-6,4.7139276E-4,0E0,0E0,0E0,0E0,0E0,0E0,0E0,0E0,0E0,0E0,0E0,0E0,0E0,0E0,0E0,0E0,0E0],"parents":[2147483647,0,0,1,1,2,2,3,3,4,4,5,5,6,6,7,7,8,8,9,9,10,10,11,11,14,14,17,17,18,18,20,20,21,21,22,22,24,24,26,26,27,27,29,29,30,30,33,33,35,35,36,36,37,37],"right_children":[2,4,6,8,10,12,14,16,18,20,22,24,-1,-1,26,-1,-1,28,30,-1,32,34,36,-1,38,-1,40,42,-1,44,46,-1,-1,48,-1,50,52,54,-1,-1,-1,-1,-1,-1,-1,-1,-1,-1,-1,-1,-1,-1,-1,-1,-1],"split_conditions":[7.618674E-1,9.3718415E-1,3.141626E-1,-7.0119494E-1,-5.6045413E-1,1.2273873E0,3.5120595E-1,2.2260919E0,-3.7263785E-2,-8.973996E-1,-2.23076E0,1.0943816E0,-0E0,-0E0,-6.7034197E-1,-7.990624E-3,-0E0,3.223361E-2,1.553065E-1,-0E0,-1.5989833E0,9.642415E-1,2.2984473E-1,-0E0,1.5998114E0,-0E0,1.1006881E1,2.6309615E-1,-0E0,3.2023072E-1,6.621132E-1,-0E0,-3.955684E-3,-2.2197254E-1,-0E0,-1.0203179E-1,-8.6303934E-2,-1.0594122E0,-0E0,6.59963E-3,-0E0,2.428512E-3,-0E0,-0E0,1.8584358E-3,-6.3436124E-3,-0E0,-0E0,-2.0258694E-3,-0E0,6.1731134E-3,-0E0,-6.5212254E-5,-0E0,-1.1281716E-3],"split_indices":[9,2,8,9,5,9,6,5,8,6,9,9,0,0,5,0,0,5,7,0,9,8,9,0,6,0,8,9,0,3,9,0,0,8,0,8,5,7,0,0,0,0,0,0,0,0,0,0,0,0,0,0,0,0,0],"split_type":[0,0,0,0,0,0,0,0,0,0,0,0,0,0,0,0,0,0,0,0,0,0,0,0,0,0,0,0,0,0,0,0,0,0,0,0,0,0,0,0,0,0,0,0,0,0,0,0,0,0,0,0,0,0,0],"sum_hessian":[1.095E3,7.19E2,3.76E2,3.57E2,3.62E2,1.7E2,2.06E2,6.6E1,2.91E2,4.9E1,3.13E2,1.61E2,9E0,4.9E1,1.57E2,6.5E1,1E0,1.97E2,9.4E1,1.1E1,3.8E1,1.7E1,2.96E2,9.2E1,6.9E1,5E0,1.52E2,1.58E2,3.9E1,2.1E1,7.3E1,3E0,3.5E1,1.3E1,4E0,2.44E2,5.2E1,6.4E1,5E0,1.51E2,1E0,1.46E2,1.2E1,3E0,1.8E1,7.1E1,2E0,4E0,9E0,1.47E2,9.7E1,1.7E1,3.5E1,5E0,5.9E1],"tree_param":{"num_deleted":"0","num_feature":"10","num_nodes":"55","size_leaf_vector":"1"}},{"base_weights":[-0E0,-2.863217E-3,2.1745756E-2,-1.8867608E-2,-0E0,2.3830654E-2,-0E0,-2.0055907E-2,-0E0,-1.398005E-3,6.9092074E-3,-0E0,2.5277756E-2,-2.0282837E-2,-0E0,-3.8561125E-3,-0E0,9.074302E-3,-0E0,2.6295193E-2,-0E0,-6.12555E-3,-0E0,-0E0,-1.1081333E-2,7.4905003E-3,-1.4924544E-3,-0E0,1.1195559E-2,-0E0,2.6836772E-2,-9.945332E-4,3.334427E-3,-3.7990764E-3,-0E0,3.2975236E-3,-0E0,-1.5347702E-3,7.0114527E-4,-0E0,3.5966919E-3,-0E0,8.109852E-3],"categories":[],"categories_nodes":[],"categories_segments":[],"categories_sizes":[],"default_left":[0,0,0,0,0,0,0,0,0,0,0,0,0,0,0,0,0,0,0,0,0,0,0,0,0,0,0,0,0,0,0,0,0,0,0,0,0,0,0,0,0,0,0],"id":30,"left_children":[1,3,5,7,9,11,-1,13,-1,15,17,-1,19,21,-1,23,25,27,-1,29,-1,-1,-1,31,33,35,37,-1,39,-1,41,-1,-1,-1,-1,-1,-1,-1,-1,-1,-1,-1,-1],"loss_changes":[7.567162E-2,4.6065215E-2,1.0463588E-2,3.5952814E-3,9.577018E-3,5.1210076E-3,0E0,5.228631E-4,0E0,5.6976443E-3,5.385376E-3,0E0,5.3335726E-3,3.8371235E-4,0E0,2.4563137E-2,1.13582825E-2,6.123919E-3,0E0,2.1852478E-3,0E0,0E0,0E0,2.3930449E-2,9.399947E-3,1.0987756E-2,1.1467652E-2,0E0,3.5252236E-4,0E0,5.788952E-4,0E0,0E0,0E0,0E0,0E0,0E0,0E0,0E0,0E0,0E0,0E0,0E0],"parents":[2147483647,0,0,1,1,2,2,3,3,4,4,5,5,7,7,9,9,10,10,12,12,13,13,15,15,16,16,17,17,19,19,23,23,24,24,25,25,26,26,28,28,30,30],"right_children":[2,4,6,8,10,12,-1,14,-1,16,18,-1,20,22,-1,24,26,28,-1,30,-1,-1,-1,32,34,36,38,-1,40,-1,42,-1,-1,-1,-1,-1,-1,-1,-1,-1,-1,-1,-1],"split_conditions":[1.8110232E0,-1.018138E0,1.3945017E0,3.5120595E-1,1.1941359E0,1.7367461E-1,-0E0,2.855346E0,-0E0,-1.7158274E-1,1.7642463E0,-0E0,2.584744E0,7.951188E-1,-0E0,-3.1984606E-1,-6.2377405E-1,-7.297935E-1,-0E0,3.5120595E-1,-0E0,-6.12555E-3,-0E0,-3.9294216E-1,9.3665516E-1,3.9832336E-1,4.2220142E-1,-0E0,3.5120595E-1,-0E0,-1.018138E0,-9.945332E-4,3.334427E-3,-3.7990764E-3,-0E0,3.2975236E-3,-0E0,-1.5347702E-3,7.0114527E-4,-0E0,3.5966919E-3,-0E0,8.109852E-3],"split_indices":[8,3,5,6,9,5,0,2,0,5,8,0,7,9,0,5,8,5,0,6,0,0,0,5,8,5,5,0,6,0,3,0,0,0,0,0,0,0,0,0,0,0,0],"split_type":[0,0,0,0,0,0,0,0,0,0,0,0,0,0,0,0,0,0,0,0,0,0,0,0,0,0,0,0,0,0,0,0,0,0,0,0,0,0,0,0,0,0,0],"sum_hessian":[1.095E3,1.055E3,4E1,5.6E1,9.99E2,3.5E1,5E0,4.7E1,9E0,9.41E2,5.8E1,7E0,2.8E1,4.5E1,2E0,4.2E2,5.21E2,5.7E1,1E0,2.6E1,2E0,4.4E1,1E0,2.57E2,1.63E2,8.1E1,4.4E2,5E0,5.2E1,2E0,2.4E1,1.89E2,6.8E1,1.6E2,3E0,7.5E1,6E0,3.43E2,9.7E1,1.7E1,3.5E1,1E0,2.3E1],"tree_param":{"num_deleted":"0","num_feature":"10","num_nodes":"43","size_leaf_vector":"1"}},{"base_weights":[-0E0,-9.229908E-3,5.4771006E-3,-2.0953534E-2,-1.0699591E-3,-0E0,1.5350259E-2,-2.3230901E-2,-0E0,4.383978E-3,-4.9522854E-3,2.9847056E-3,-6.602723E-3,-2.1859142E-3,2.2776315E-2,-0E0,-7.0584393E-3,-0E0,5.675544E-3,-7.1888524E-3,-0E0,-6.749712E-4,7.340252E-3,1.120725E-3,-1.2291406E-2,-0E0,-3.9424016E-3,-0E0,2.5291352E-2,-0E0,5.8477335E-3,-1.0043095E-2,-0E0,2.0603968E-3,-0E0,-7.151393E-3,-0E0,1.41132595E-2,-0E0,-0E0,3.2695052E-3,-1.6791204E-2,-0E0,-0E0,-4.7025546E-3,2.6228935E-2,-0E0,1.7658409E-3,-0E0,-0E0,-4.323349E-3,9.6271564E-5,-4.657908E-4,-0E0,1.6126245E-3,-0E0,-2.365926E-3,-0E0,4.1439923E-4,4.984013E-3,-0E0,-7.908292E-4,-0E0,1.386113E-3,-0E0,-5.3406507E-3,-0E0,-1.6499205E-3,-0E0,8.057012E-3,-0E0],"categories":[],"categories_nodes":[],"categories_segments":[],"categories_sizes":[],"default_left":[0,0,0,0,0,0,0,0,0,0,0,0,0,0,0,0,0,0,0,0,0,0,0,0,0,0,0,0,0,0,0,0,0,0,0,0,0,0,0,0,0,0,0,0,0,0,0,0,0,0,0,0,0,0,0,0,0,0,0,0,0,0,0,0,0,0,0,0,0,0,0],"id":31,"left_children":[1,3,5,7,9,11,13,15,-1,17,19,21,23,25,27,-1,-1,-1,29,31,33,35,37,39,41,-1,43,-1,45,-1,47,49,51,53,-1,55,57,59,61,-1,63,65,-1,-1,67,69,-1,-1,-1,-1,-1,-1,-1,-1,-1,-1,-1,-1,-1,-1,-1,-1,-1,-1,-1,-1,-1,-1,-1,-1,-1],"loss_changes":[6.368489E-2,1.8783446E-2,4.8167862E-2,9.742472E-3,1.1653616E-2,1.5028341E-2,6.6199176E-2,1.155898E-3,0E0,1.4432501E-3,9.776517E-3,1.4939394E-2,2.331259E-2,1.5034329E-3,2.728182E-2,0E0,0E0,0E0,1.9795401E-4,5.528504E-3,4.924473E-4,6.849674E-3,2.4041915E-2,1.0987119E-3,1.6062565E-2,0E0,9.044658E-4,0E0,1.049532E-2,0E0,1.7623883E-5,1.2475297E-2,4.4013833E-4,2.7726972E-3,0E0,1.4410396E-3,3.4154532E-4,1.611796E-2,9.3811605E-4,0E0,1.1829673E-3,5.5563226E-3,0E0,0E0,1.0176408E-3,7.84339E-3,0E0,0E0,0E0,0E0,0E0,0E0,0E0,0E0,0E0,0E0,0E0,0E0,0E0,0E0,0E0,0E0,0E0,0E0,0E0,0E0,0E0,0E0,0E0,0E0,0E0],"parents":[2147483647,0,0,1,1,2,2,3,3,4,4,5,5,6,6,7,7,9,9,10,10,11,11,12,12,13,13,14,14,18,18,19,19,20,20,21,21,22,22,23,23,24,24,26,26,28,28,30,30,31,31,32,32,33,33,35,35,36,36,37,37,38,38,40,40,41,41,44,44,45,45],"right_children":[2,4,6,8,10,12,14,16,-1,18,20,22,24,26,28,-1,-1,-1,30,32,34,36,38,40,42,-1,44,-1,46,-1,48,50,52,54,-1,56,58,60,62,-1,64,66,-1,-1,68,70,-1,-1,-1,-1,-1,-1,-1,-1,-1,-1,-1,-1,-1,-1,-1,-1,-1,-1,-1,-1,-1,-1,-1,-1,-1],"split_conditions":[3.2023072E-1,-1.3566121E0,1.8256797E-1,-1.7158274E-1,-1.1850969E0,4.97672E-1,-6.365075E-2,-1.898246E0,-0E0,-1.0398428E0,3.7053478E-1,1.553065E-1,1.553065E-1,2.0815161E-1,-1.7319889E0,-0E0,-7.0584393E-3,-0E0,-1.0594122E0,-5.0168645E-1,-4.019322E-1,-1.0266945E-1,1.9659331E-1,6.5599376E-1,1.0943816E0,-0E0,-1.1850969E0,-0E0,2.584744E0,-0E0,1.3700252E0,-2.9401875E-1,-2.6892653E-1,-2.23076E0,-0E0,-7.297935E-1,-9.29623E-1,1.6585995E0,3.5120595E-1,-0E0,1.2293106E0,2.9969683E0,-0E0,-0E0,1.5998114E0,1.1006881E1,-0E0,1.7658409E-3,-0E0,-0E0,-4.323349E-3,9.6271564E-5,-4.657908E-4,-0E0,1.6126245E-3,-0E0,-2.365926E-3,-0E0,4.1439923E-4,4.984013E-3,-0E0,-7.908292E-4,-0E0,1.386113E-3,-0E0,-5.3406507E-3,-0E0,-1.6499205E-3,-0E0,8.057012E-3,-0E0],"split_indices":[3,8,5,5,8,8,8,9,0,5,8,7,7,5,9,0,0,0,7,9,9,9,9,8,9,0,8,0,7,0,7,5,9,9,0,5,8,3,6,0,8,3,0,0,6,8,0,0,0,0,0,0,0,0,0,0,0,0,0,0,0,0,0,0,0,0,0,0,0,0,0],"split_type":[0,0,0,0,0,0,0,0,0,0,0,0,0,0,0,0,0,0,0,0,0,0,0,0,0,0,0,0,0,0,0,0,0,0,0,0,0,0,0,0,0,0,0,0,0,0,0,0,0,0,0,0,0,0,0,0,0,0,0,0,0,0,0,0,0,0,0,0,0,0,0],"sum_hessian":[1.095E3,3.5E2,7.45E2,2.9E1,3.21E2,5.33E2,2.12E2,2.3E1,6E0,2.1E1,3E2,3.88E2,1.45E2,4.4E1,1.68E2,1E0,2.2E1,4E0,1.7E1,2.79E2,2.1E1,1.32E2,2.56E2,2.1E1,1.24E2,3E0,4.1E1,8E0,1.6E2,1E0,1.6E1,1.49E2,1.3E2,1.6E1,5E0,3.6E1,9.6E1,1.17E2,1.39E2,4E0,1.7E1,7.7E1,4.7E1,1E0,4E1,1.57E2,3E0,1.5E1,1E0,6.8E1,8.1E1,5.4E1,7.6E1,3E0,1.3E1,1E0,3.5E1,1.7E1,7.9E1,1.15E2,2E0,3.5E1,1.04E2,1.4E1,3E0,7.5E1,2E0,3.6E1,4E0,1.56E2,1E0],"tree_param":{"num_deleted":"0","num_feature":"10","num_nodes":"71","size_leaf_vector":"1"}},{"base_weights":[-0E0,-2.6028315E-3,1.898128E-2,-1.8146113E-2,-0E0,-0E0,2.2041108E-2,-1.9749818E-2,-0E0,-8.736312E-3,1.1553104E-3,-0E0,6.7932066E-3,-2.1968469E-2,-0E0,-1.1986768E-2,-0E0,8.363032E-3,-8.255645E-4,-0E0,-6.6766054E-3,-1.4023819E-2,-0E0,4.890124E-4,-0E0,-0E0,1.7041923E-2,-8.238484E-3,3.4997235E-3,-4.6854154E-3,-0E0,9.217239E-4,-1.4485053E-3,4.255013E-4,-0E0,2.3672602E-3,-1.4782933E-3,-0E0,5.6025116E-3,-0E0,-4.8437505E-3,-1.3260788E-3,2.386481E-3],"categories":[],"categories_nodes":[],"categories_segments":[],"categories_sizes":[],"default_left":[0,0,0,0,0,0,0,0,0,0,0,0,0,0,0,0,0,0,0,0,0,0,0,0,0,0,0,0,0,0,0,0,0,0,0,0,0,0,0,0,0,0,0],"id":32,"left_children":[1,3,5,7,9,-1,11,13,-1,15,17,-1,-1,19,-1,21,23,25,27,-1,-1,29,31,33,-1,35,37,39,41,-1,-1,-1,-1,-1,-1,-1,-1,-1,-1,-1,-1,-1,-1],"loss_changes":[5.8265273E-2,3.8274582E-2,1.0771662E-2,4.21774E-3,1.5794523E-2,0E0,2.3690797E-3,9.044338E-3,0E0,8.707822E-3,2.2876702E-2,0E0,0E0,1.065202E-3,0E0,1.6472042E-3,2.8695975E-5,1.9563882E-2,3.285559E-2,0E0,0E0,4.2467974E-3,3.7721386E-3,2.0264741E-4,0E0,1.6041104E-2,7.993646E-3,4.002978E-2,2.405844E-2,0E0,0E0,0E0,0E0,0E0,0E0,0E0,0E0,0E0,0E0,0E0,0E0,0E0,0E0],"parents":[2147483647,0,0,1,1,2,2,3,3,4,4,6,6,7,7,9,9,10,10,13,13,15,15,16,16,17,17,18,18,21,21,22,22,23,23,25,25,26,26,27,27,28,28],"right_children":[2,4,6,8,10,-1,12,14,-1,16,18,-1,-1,20,-1,22,24,26,28,-1,-1,30,32,34,-1,36,38,40,42,-1,-1,-1,-1,-1,-1,-1,-1,-1,-1,-1,-1,-1,-1],"split_conditions":[1.8110232E0,-1.3254275E0,1.6585995E0,3.2023072E-1,-1.5989833E0,-0E0,3.5120595E-1,-1.7158274E-1,-0E0,-4.683203E-2,1.553065E-1,-0E0,6.7932066E-3,-1.898246E0,-0E0,-6.3456875E-1,3.7773463E-1,2.937727E-1,9.3718415E-1,-0E0,-6.6766054E-3,3.2023072E-1,2.5105407E-2,1.3700252E0,-0E0,3.2023072E-1,3.2023072E-1,-3.7263785E-2,-3.9903352E-1,-4.6854154E-3,-0E0,9.217239E-4,-1.4485053E-3,4.255013E-4,-0E0,2.3672602E-3,-1.4782933E-3,-0E0,5.6025116E-3,-0E0,-4.8437505E-3,-1.3260788E-3,2.386481E-3],"split_indices":[8,8,3,3,9,0,6,5,0,5,7,0,0,9,0,8,5,8,2,0,0,3,8,7,0,3,3,8,5,0,0,0,0,0,0,0,0,0,0,0,0,0,0],"split_type":[0,0,0,0,0,0,0,0,0,0,0,0,0,0,0,0,0,0,0,0,0,0,0,0,0,0,0,0,0,0,0,0,0,0,0,0,0,0,0,0,0,0,0],"sum_hessian":[1.095E3,1.055E3,4E1,4E1,1.015E3,1.4E1,2.6E1,2.9E1,1.1E1,8.9E1,9.26E2,2E0,2.4E1,2.3E1,6E0,6.1E1,2.8E1,2.39E2,6.87E2,1E0,2.2E1,2.6E1,3.5E1,2E1,8E0,1.9E2,4.9E1,3.05E2,3.82E2,1.9E1,7E0,2.3E1,1.2E1,1.5E1,5E0,7.3E1,1.17E2,2E0,4.7E1,1.46E2,1.59E2,5.7E1,3.25E2],"tree_param":{"num_deleted":"0","num_feature":"10","num_nodes":"43","size_leaf_vector":"1"}},{"base_weights":[-0E0,-2.5744534E-3,1.7816762E-2,-1.7096922E-2,-0E0,2.0145811E-2,-0E0,-1.8611161E-2,-0E0,1.4291838E-3,-7.181905E-3,-0E0,2.1288924E-2,-2.0774268E-2,-0E0,-3.1287243E-4,7.982088E-3,-0E0,-1.1548412E-2,2.2296958E-2,-0E0,-0E0,-2.105136E-2,-3.3058831E-3,3.393243E-4,9.817708E-3,-0E0,-0E0,2.3119E-4,-1.3896389E-2,-0E0,-0E0,2.2903996E-2,-6.6066342E-3,-0E0,-0E0,-2.0818845E-3,2.7280573E-3,-5.213927E-4,-0E0,3.1324185E-3,-0E0,3.0774862E-4,-0E0,-4.8074285E-3,-0E0,6.9243596E-3],"categories":[],"categories_nodes":[],"categories_segments":[],"categories_sizes":[],"default_left":[0,0,0,0,0,0,0,0,0,0,0,0,0,0,0,0,0,0,0,0,0,0,0,0,0,0,0,0,0,0,0,0,0,0,0,0,0,0,0,0,0,0,0,0,0,0,0],"id":33,"left_children":[1,3,5,7,9,11,-1,13,-1,15,17,-1,19,21,-1,23,25,27,29,31,-1,-1,33,35,37,39,-1,-1,41,43,-1,-1,45,-1,-1,-1,-1,-1,-1,-1,-1,-1,-1,-1,-1,-1,-1],"loss_changes":[5.20963E-2,3.326754E-2,1.0349076E-2,3.7597567E-3,1.5807223E-2,3.221687E-3,0E0,8.400716E-3,0E0,1.8718043E-2,1.3331668E-2,0E0,4.6295077E-3,9.823553E-4,0E0,4.490054E-3,1.0360818E-2,7.3759375E-6,1.0063531E-2,2.4080947E-3,0E0,0E0,7.365085E-4,9.115167E-3,1.6391873E-2,2.7476605E-3,0E0,0E0,1.3468784E-4,1.1263713E-2,0E0,0E0,4.7767907E-4,0E0,0E0,0E0,0E0,0E0,0E0,0E0,0E0,0E0,0E0,0E0,0E0,0E0,0E0],"parents":[2147483647,0,0,1,1,2,2,3,3,4,4,5,5,7,7,9,9,10,10,12,12,13,13,15,15,16,16,17,17,18,18,19,19,22,22,23,23,24,24,25,25,28,28,29,29,32,32],"right_children":[2,4,6,8,10,12,-1,14,-1,16,18,-1,20,22,-1,24,26,28,30,32,-1,-1,34,36,38,40,-1,-1,42,44,-1,-1,46,-1,-1,-1,-1,-1,-1,-1,-1,-1,-1,-1,-1,-1,-1],"split_conditions":[1.8110232E0,-1.3254275E0,1.3945017E0,3.2023072E-1,1.3700252E0,1.7367461E-1,-0E0,-1.7158274E-1,-0E0,3.141626E-1,2.937727E-1,-0E0,2.584744E0,-1.898246E0,-0E0,9.3718415E-1,1.7642463E0,-6.6794354E-1,7.1824074E-1,3.5120595E-1,-0E0,-0E0,-7.0119494E-1,-6.44164E-1,-1.0004578E0,-6.7034197E-1,-0E0,-0E0,-4.0999794E-1,-2.7309683E-1,-0E0,-0E0,-1.018138E0,-6.6066342E-3,-0E0,-0E0,-2.0818845E-3,2.7280573E-3,-5.213927E-4,-0E0,3.1324185E-3,-0E0,3.0774862E-4,-0E0,-4.8074285E-3,-0E0,6.9243596E-3],"split_indices":[8,8,5,3,7,5,0,5,0,8,8,0,7,9,0,2,8,9,5,6,0,0,9,8,9,5,0,0,5,6,0,0,3,0,0,0,0,0,0,0,0,0,0,0,0,0,0],"split_type":[0,0,0,0,0,0,0,0,0,0,0,0,0,0,0,0,0,0,0,0,0,0,0,0,0,0,0,0,0,0,0,0,0,0,0,0,0,0,0,0,0,0,0,0,0,0,0],"sum_hessian":[1.095E3,1.055E3,4E1,4E1,1.015E3,3.5E1,5E0,2.9E1,1.1E1,8.46E2,1.69E2,7E0,2.8E1,2.3E1,6E0,6.23E2,2.23E2,6.5E1,1.04E2,2.6E1,2E0,1E0,2.2E1,3.13E2,3.1E2,2.21E2,2E0,2.7E1,3.8E1,9.3E1,1.1E1,2E0,2.4E1,1.3E1,9E0,1.3E2,1.83E2,8.7E1,2.23E2,1.2E1,2.09E2,3E0,3.5E1,4E0,8.9E1,1E0,2.3E1],"tree_param":{"num_deleted":"0","num_feature":"10","num_nodes":"47","size_leaf_vector":"1"}},{"base_weights":[-0E0,-4.8278985E-3,7.638044E-3,-9.518214E-3,-0E0,-0E0,1.3136154E-2,-2.0698244E-2,-0E0,-4.1815448E-3,7.6881475E-3,2.6122385E-4,-0E0,-0E0,1.5013236E-2,-6.273981E-3,-0E0,2.311195E-3,-8.5687395E-3,-8.428324E-3,-0E0,1.415574E-2,-0E0,-0E0,3.1885593E-3,-0E0,-8.5549126E-4,1.563098E-2,-0E0,5.3165886E-3,-0E0,1.5307326E-3,-1.6530585E-2,-0E0,-9.419641E-3,3.6878868E-3,-3.5461793E-3,-0E0,1.8475618E-2,-2.3418032E-3,3.4619425E-4,4.0526E-3,-0E0,-1.6992495E-3,-0E0,4.75066E-3,-0E0,2.2208586E-3,-0E0,-0E0,1.1787749E-3,-0E0,-5.501917E-3,-0E0,-3.294364E-3,2.2761405E-3,-0E0,-3.2273047E-3,-0E0,-0E0,5.758828E-3,-0E0,-9.938701E-4,-0E0,8.420585E-4,1.451113E-3,-0E0,-7.5435784E-4,-0E0],"categories":[],"categories_nodes":[],"categories_segments":[],"categories_sizes":[],"default_left":[0,0,0,0,0,0,0,0,0,0,0,0,0,0,0,0,0,0,0,0,0,0,0,0,0,0,0,0,0,0,0,0,0,0,0,0,0,0,0,0,0,0,0,0,0,0,0,0,0,0,0,0,0,0,0,0,0,0,0,0,0,0,0,0,0,0,0,0,0],"id":34,"left_children":[1,3,5,7,9,11,13,15,17,19,21,23,25,-1,27,-1,-1,29,31,33,35,37,39,-1,41,-1,43,45,-1,47,-1,49,51,-1,53,55,57,-1,59,61,63,65,-1,67,-1,-1,-1,-1,-1,-1,-1,-1,-1,-1,-1,-1,-1,-1,-1,-1,-1,-1,-1,-1,-1,-1,-1,-1,-1],"loss_changes":[4.6263926E-2,2.2641325E-2,1.7742176E-2,2.898994E-2,1.9723732E-2,1.09863E-5,1.02514215E-2,1.0479316E-3,1.607756E-2,4.691907E-3,1.4423099E-2,1.5140502E-3,1.5369171E-4,0E0,4.355725E-3,0E0,0E0,5.7925526E-3,3.33711E-2,1.6602324E-3,5.0524957E-3,1.3731582E-2,6.305415E-4,0E0,8.728041E-4,0E0,4.4401022E-4,1.3068952E-3,0E0,6.0756598E-3,0E0,1.5644736E-3,9.6314475E-3,0E0,4.03456E-3,6.163512E-3,1.4605146E-2,0E0,2.6014224E-3,5.985549E-4,1.3805554E-3,9.011342E-4,0E0,6.921576E-4,0E0,0E0,0E0,0E0,0E0,0E0,0E0,0E0,0E0,0E0,0E0,0E0,0E0,0E0,0E0,0E0,0E0,0E0,0E0,0E0,0E0,0E0,0E0,0E0,0E0],"parents":[2147483647,0,0,1,1,2,2,3,3,4,4,5,5,6,6,7,7,8,8,9,9,10,10,11,11,12,12,14,14,17,17,18,18,19,19,20,20,21,21,22,22,24,24,26,26,27,27,29,29,31,31,32,32,34,34,35,35,36,36,38,38,39,39,40,40,41,41,43,43],"right_children":[2,4,6,8,10,12,14,16,18,20,22,24,26,-1,28,-1,-1,30,32,34,36,38,40,-1,42,-1,44,46,-1,48,-1,50,52,-1,54,56,58,-1,60,62,64,66,-1,68,-1,-1,-1,-1,-1,-1,-1,-1,-1,-1,-1,-1,-1,-1,-1,-1,-1,-1,-1,-1,-1,-1,-1,-1,-1],"split_conditions":[7.951188E-1,9.3718415E-1,9.755087E-1,-7.0119494E-1,-5.3781836E-4,1.553065E-1,-6.7034197E-1,2.2260919E0,-3.7263785E-2,-5.6045413E-1,-1.0004578E0,-9.955904E-1,-1.0203179E-1,-0E0,1.1006881E1,-6.273981E-3,-0E0,3.223361E-2,1.553065E-1,-8.973996E-1,-3.1984606E-1,-1.7319889E0,-5.0168645E-1,-0E0,1.0110184E0,-0E0,1.2606387E0,2.9969683E0,-0E0,2.6309615E-1,-0E0,3.2023072E-1,-5.3493786E-1,-0E0,-1.5989833E0,-8.342006E-1,-8.342006E-1,-0E0,1.27413105E-2,-1.1850969E0,-1.0594122E0,1.6585995E0,-0E0,1.9033777E0,-0E0,4.75066E-3,-0E0,2.2208586E-3,-0E0,-0E0,1.1787749E-3,-0E0,-5.501917E-3,-0E0,-3.294364E-3,2.2761405E-3,-0E0,-3.2273047E-3,-0E0,-0E0,5.758828E-3,-0E0,-9.938701E-4,-0E0,8.420585E-4,1.451113E-3,-0E0,-7.5435784E-4,-0E0],"split_indices":[9,2,6,9,5,7,5,5,8,5,9,8,8,0,8,0,0,5,7,6,5,9,9,0,8,0,9,3,0,9,0,3,9,0,9,9,9,0,5,8,7,3,0,8,0,0,0,0,0,0,0,0,0,0,0,0,0,0,0,0,0,0,0,0,0,0,0,0,0],"split_type":[0,0,0,0,0,0,0,0,0,0,0,0,0,0,0,0,0,0,0,0,0,0,0,0,0,0,0,0,0,0,0,0,0,0,0,0,0,0,0,0,0,0,0,0,0,0,0,0,0,0,0,0,0,0,0,0,0,0,0,0,0,0,0,0,0,0,0,0,0],"sum_hessian":[1.095E3,7.36E2,3.59E2,3.65E2,3.71E2,2.01E2,1.58E2,6.6E1,2.99E2,2.37E2,1.34E2,6.1E1,1.4E2,1.5E1,1.43E2,6.5E1,1E0,2.02E2,9.7E1,4.9E1,1.88E2,4.1E1,9.3E1,1.1E1,5E1,3E1,1.1E2,1.42E2,1E0,1.62E2,4E1,2.3E1,7.4E1,1.1E1,3.8E1,6.9E1,1.19E2,1.8E1,2.3E1,1.1E1,8.2E1,4.6E1,4E0,1.07E2,3E0,1.41E2,1E0,1.46E2,1.6E1,3E0,2E1,4E0,7E1,3E0,3.5E1,4.7E1,2.2E1,5E1,6.9E1,2E0,2.1E1,1E0,1E1,4E0,7.8E1,4.1E1,5E0,1.04E2,3E0],"tree_param":{"num_deleted":"0","num_feature":"10","num_nodes":"69","size_leaf_vector":"1"}},{"base_weights":[-0E0,-2.615715E-3,1.6272184E-2,-1.474279E-2,-0E0,-0E0,1.9360801E-2,-1.55699365E-2,-0E0,-1.369415E-3,4.457504E-3,2.0601457E-2,-0E0,-1.5872475E-2,-0E0,-0E0,-5.6243115E-3,6.6226423E-3,-0E0,-0E0,6.317621E-3,-1.6190978E-2,-0E0,-8.955401E-3,1.5506527E-3,-0E0,-9.74956E-3,-0E0,2.6310005E-3,-4.9121063E-3,-0E0,-4.0681562E-3,-0E0,-1.5494194E-3,1.0865448E-3,-0E0,4.497802E-4,-0E0,-4.232595E-3],"categories":[],"categories_nodes":[],"categories_segments":[],"categories_sizes":[],"default_left":[0,0,0,0,0,0,0,0,0,0,0,0,0,0,0,0,0,0,0,0,0,0,0,0,0,0,0,0,0,0,0,0,0,0,0,0,0,0,0],"id":35,"left_children":[1,3,5,7,9,-1,11,13,-1,15,17,19,-1,21,-1,23,25,27,-1,-1,-1,29,-1,31,33,35,37,-1,-1,-1,-1,-1,-1,-1,-1,-1,-1,-1,-1],"loss_changes":[4.4972226E-2,2.600411E-2,9.785324E-3,3.1841286E-3,5.0915405E-3,0E0,5.773004E-3,9.515509E-4,0E0,6.8417564E-3,3.746569E-3,1.0318309E-3,0E0,1.0177568E-3,0E0,1.23510705E-2,1.5254699E-2,4.80484E-3,0E0,0E0,0E0,3.5033375E-4,0E0,1.1536937E-2,1.1927474E-2,2.5849725E-4,2.2529995E-2,0E0,0E0,0E0,0E0,0E0,0E0,0E0,0E0,0E0,0E0,0E0,0E0],"parents":[2147483647,0,0,1,1,2,2,3,3,4,4,6,6,7,7,9,9,10,10,11,11,13,13,15,15,16,16,17,17,21,21,23,23,24,24,25,25,26,26],"right_children":[2,4,6,8,10,-1,12,14,-1,16,18,20,-1,22,-1,24,26,28,-1,-1,-1,30,-1,32,34,36,38,-1,-1,-1,-1,-1,-1,-1,-1,-1,-1,-1,-1],"split_conditions":[1.8110232E0,-1.018138E0,6.621132E-1,1.5998114E0,1.1941359E0,-0E0,1.1006881E1,3.7994626E0,-0E0,6.0801744E-1,1.7642463E0,2.2313632E-1,-0E0,3.7053478E-1,-0E0,-1.0594122E0,1.553065E-1,-7.297935E-1,-0E0,-0E0,6.317621E-3,6.953646E-1,-0E0,-1.3081758E-1,-1.8649945E0,8.1071734E-1,-6.6794354E-1,-0E0,2.6310005E-3,-4.9121063E-3,-0E0,-4.0681562E-3,-0E0,-1.5494194E-3,1.0865448E-3,-0E0,4.497802E-4,-0E0,-4.232595E-3],"split_indices":[8,3,9,6,9,0,8,7,0,8,8,5,0,8,0,7,7,5,0,0,0,9,0,8,9,8,9,0,0,0,0,0,0,0,0,0,0,0,0],"split_type":[0,0,0,0,0,0,0,0,0,0,0,0,0,0,0,0,0,0,0,0,0,0,0,0,0,0,0,0,0,0,0,0,0,0,0,0,0,0,0],"sum_hessian":[1.095E3,1.055E3,4E1,5.6E1,9.99E2,1.5E1,2.5E1,5.3E1,3E0,9.41E2,5.8E1,2.4E1,1E0,5.1E1,2E0,7.63E2,1.78E2,5.7E1,1E0,3E0,2.1E1,4.9E1,2E0,2.9E1,7.34E2,2.5E1,1.53E2,5E0,5.2E1,4.7E1,2E0,1.9E1,1E1,2.4E1,7.1E2,1E1,1.5E1,1.9E1,1.34E2],"tree_param":{"num_deleted":"0","num_feature":"10","num_nodes":"39","size_leaf_vector":"1"}},{"base_weights":[-0E0,-2.6176923E-3,1.532447E-2,-1.5143183E-2,-0E0,1.7766424E-2,-0E0,-1.6595256E-2,-0E0,-7.5777397E-3,5.1540334E-4,-0E0,1.8724665E-2,-1.8811079E-2,-0E0,-1.0611439E-2,-0E0,6.8639456E-3,-1.0140708E-3,1.9705364E-2,-0E0,-1.9930765E-2,-0E0,-1.2777336E-2,-0E0,3.6016305E-4,-0E0,-0E0,1.3743516E-2,8.7768E-3,-4.190853E-3,-0E0,2.0277185E-2,-0E0,-6.08751E-3,-4.2308094E-3,-0E0,9.3072833E-4,-1.2434364E-3,3.7020643E-4,-0E0,2.1065928E-3,-1.2936057E-3,-0E0,4.6123136E-3,-0E0,3.4155801E-3,-0E0,-2.676291E-3,-0E0,6.1274855E-3],"categories":[],"categories_nodes":[],"categories_segments":[],"categories_sizes":[],"default_left":[0,0,0,0,0,0,0,0,0,0,0,0,0,0,0,0,0,0,0,0,0,0,0,0,0,0,0,0,0,0,0,0,0,0,0,0,0,0,0,0,0,0,0,0,0,0,0,0,0,0,0],"id":36,"left_children":[1,3,5,7,9,11,-1,13,-1,15,17,-1,19,21,-1,23,25,27,29,31,-1,33,-1,35,37,39,-1,41,43,45,47,-1,49,-1,-1,-1,-1,-1,-1,-1,-1,-1,-1,-1,-1,-1,-1,-1,-1,-1,-1],"loss_changes":[4.0791936E-2,2.4189817E-2,9.734664E-3,3.4226887E-3,1.1125332E-2,2.266299E-3,0E0,7.997442E-3,0E0,7.2762417E-3,1.6508317E-2,0E0,4.0474944E-3,1.7604604E-3,0E0,2.605034E-3,1.5566091E-5,1.2172187E-2,2.3570705E-2,2.0583943E-3,0E0,1.2432672E-3,0E0,3.1322688E-3,3.0983347E-3,1.5955692E-4,0E0,1.2565099E-2,6.602861E-3,5.320767E-3,1.1055037E-2,0E0,3.2861158E-4,0E0,0E0,0E0,0E0,0E0,0E0,0E0,0E0,0E0,0E0,0E0,0E0,0E0,0E0,0E0,0E0,0E0,0E0],"parents":[2147483647,0,0,1,1,2,2,3,3,4,4,5,5,7,7,9,9,10,10,12,12,13,13,15,15,16,16,17,17,18,18,19,19,21,21,23,23,24,24,25,25,27,27,28,28,29,29,30,30,32,32],"right_children":[2,4,6,8,10,12,-1,14,-1,16,18,-1,20,22,-1,24,26,28,30,32,-1,34,-1,36,38,40,-1,42,44,46,48,-1,50,-1,-1,-1,-1,-1,-1,-1,-1,-1,-1,-1,-1,-1,-1,-1,-1,-1,-1],"split_conditions":[1.8110232E0,-1.3254275E0,1.3945017E0,3.2023072E-1,-1.5989833E0,1.7367461E-1,-0E0,-1.7158274E-1,-0E0,-4.683203E-2,1.553065E-1,-0E0,2.584744E0,-7.0119494E-1,-0E0,-6.2377405E-1,3.7773463E-1,2.937727E-1,-1.0337092E0,3.5120595E-1,-0E0,-1.898246E0,-0E0,3.2023072E-1,2.5105407E-2,1.3700252E0,-0E0,3.2023072E-1,3.2023072E-1,-3.9948487E-1,1.0849723E-1,-0E0,-1.018138E0,-0E0,-6.08751E-3,-4.2308094E-3,-0E0,9.3072833E-4,-1.2434364E-3,3.7020643E-4,-0E0,2.1065928E-3,-1.2936057E-3,-0E0,4.6123136E-3,-0E0,3.4155801E-3,-0E0,-2.676291E-3,-0E0,6.1274855E-3],"split_indices":[8,8,5,3,9,5,0,5,0,5,7,0,7,9,0,8,5,8,9,6,0,9,0,3,8,7,0,3,3,8,5,0,3,0,0,0,0,0,0,0,0,0,0,0,0,0,0,0,0,0,0],"split_type":[0,0,0,0,0,0,0,0,0,0,0,0,0,0,0,0,0,0,0,0,0,0,0,0,0,0,0,0,0,0,0,0,0,0,0,0,0,0,0,0,0,0,0,0,0,0,0,0,0,0,0],"sum_hessian":[1.095E3,1.055E3,4E1,4E1,1.015E3,3.5E1,5E0,2.9E1,1.1E1,8.9E1,9.26E2,7E0,2.8E1,2.3E1,6E0,6.1E1,2.8E1,2.39E2,6.87E2,2.6E1,2E0,1.4E1,9E0,2.7E1,3.4E1,2E1,8E0,1.9E2,4.9E1,4.8E1,6.39E2,2E0,2.4E1,1E0,1.3E1,2E1,7E0,2.2E1,1.2E1,1.5E1,5E0,7.3E1,1.17E2,2E0,4.7E1,1.9E1,2.9E1,4.37E2,2.02E2,1E0,2.3E1],"tree_param":{"num_deleted":"0",